/*!
 * The following copyright notice may not be removed under any circumstances.
 * 
 * Copyright:
 * Digitized data copyright The Monotype Corporation 1991-1995. All rights
 * reserved. Perpetua® is a trademark of The Monotype Corporation which may be
 * registered in certain jurisdictions.
 * 
 * Trademark:
 * Perpetua® is a trademark of The Monotype Corporation which may be registered in
 * certain jurisdictions.
 * 
 * Description:
 * A sensitive adaptation of a style of letter that had been popularized for
 * monumental work in stone by Eric Gill. Large scale drawings by Gill were given
 * to Charles Malin, a Parisian punch-cutter, and his hand cut punches were the
 * basis for the font issued by Monotype. The incised quality of Perpetua will lend
 * distinction to any work compatible with its serenity. First used in a private
 * translation called 'The Passion of Perpetua and Felicity'; the italic was
 * originally called Felicity. Widely used as a text face in quality books,
 * Perpetua is also very popular in advertising and display work.
 * 
 * Manufacturer:
 * Monotype Typography
 * 
 * Designer:
 * Eric Gill
 * 
 * Vendor URL:
 * http://www.monotype.com/html/mtname/ms_welcome.html
 * 
 * License information:
 * http://www.monotype.com/html/mtname/ms_welcome.html
 */
Cufon.registerFont({"w":938,"face":{"font-family":"Perpetua","font-weight":400,"font-stretch":"normal","units-per-em":"2048","panose-1":"2 2 5 2 6 4 1 2 3 3","ascent":"1638","descent":"-410","x-height":"23","bbox":"-311 -1878 2060 621","underline-thickness":"102","underline-position":"-103","unicode-range":"U+0020-U+F003"},"glyphs":{" ":{"w":461,"k":{"\u2018":205,"\u201c":82,"Y":348,"W":256,"V":256,"T":246,"A":154}},"!":{"d":"305,-1239v98,0,83,117,74,223r-62,733r-32,0r-54,-733v-4,-62,-6,-102,-6,-119v-1,-55,30,-104,80,-104xm201,-74v0,-51,47,-96,98,-96v52,0,96,44,96,96v0,53,-44,99,-96,99v-52,0,-98,-47,-98,-99","w":598},"\"":{"d":"582,-1266v51,-2,89,42,86,95v-8,149,-48,294,-68,436r-37,0r-55,-324v-21,-99,-24,-204,74,-207xm252,-1266v96,0,91,108,74,207r-56,324r-37,0r-55,-324v-22,-99,-23,-207,74,-207","w":836},"#":{"d":"96,-862r0,-88r334,0r88,-416r88,0r-88,416r457,0r88,-416r88,0r-88,416r209,0r0,88r-228,0r-88,405r316,0r0,88r-334,0r-88,416r-88,0r88,-416r-457,0r-88,416r-88,0r88,-416r-209,0r0,-88r228,0r88,-405r-316,0xm956,-862r-456,0r-88,405r456,0","w":1368},"$":{"d":"207,-784v1,-143,92,-220,223,-242r0,-76r35,0r0,76v82,2,158,26,227,72r-30,209r-35,0v11,-134,-49,-228,-162,-244r0,371v105,71,177,133,219,183v147,174,4,451,-219,445r0,211r-35,0r0,-211v-95,-2,-179,-29,-252,-82r45,-229r35,0v-15,154,40,254,172,270r0,-444v-81,-53,-138,-102,-172,-149v-34,-47,-51,-100,-51,-160xm430,-989v-77,10,-131,66,-129,151v2,106,52,144,129,195r0,-346xm465,-31v97,1,168,-97,168,-192v0,-85,-56,-160,-168,-226r0,418"},"%":{"d":"206,-1075v-62,128,-65,476,105,479v44,0,79,-25,105,-74v69,-134,57,-480,-105,-479v-45,0,-81,24,-105,74xm311,-1202v156,0,252,160,252,330v0,170,-97,328,-252,329v-156,0,-252,-159,-252,-329v0,-171,95,-329,252,-330xm1159,-1202r70,0r-852,1202r-70,0xm1225,-649v155,0,252,161,252,330v0,169,-97,329,-252,329v-156,0,-252,-158,-252,-329v0,-171,95,-329,252,-330xm1118,-522v-62,128,-64,476,107,479v44,0,80,-24,105,-73v68,-134,58,-481,-105,-480v-46,0,-83,24,-107,74","w":1536},"&":{"d":"86,-262v7,-159,127,-258,256,-330v-87,-81,-131,-167,-131,-258v0,-155,122,-268,278,-268v123,0,236,95,236,213v0,99,-70,186,-211,260v82,71,182,178,301,323v57,-98,86,-180,86,-245v-1,-73,-18,-96,-86,-101r0,-34r334,0r0,34v-98,-1,-121,25,-156,78v-44,66,-101,252,-147,309v76,96,129,158,160,185v63,55,97,54,159,0r27,22v-47,69,-109,103,-186,103v-121,1,-178,-103,-252,-176v-97,117,-210,176,-340,176v-171,0,-335,-126,-328,-291xm463,-1059v-85,0,-157,60,-152,144v6,101,95,186,172,245v90,-52,135,-126,135,-221v0,-95,-62,-168,-155,-168xm373,-561v-75,38,-145,126,-146,227v-2,170,209,346,387,244v35,-19,73,-51,113,-96v-128,-158,-246,-283,-354,-375","w":1260},"'":{"d":"184,-1266v97,0,91,108,74,207r-55,324r-37,0r-55,-324v-23,-93,-24,-207,73,-207","w":369},"(":{"d":"264,-367v0,384,108,578,314,797r-21,27v-139,-123,-248,-256,-326,-400v-162,-301,-156,-540,9,-843v85,-154,190,-282,317,-387r21,26v-198,216,-314,410,-314,780","w":641},")":{"d":"377,-350v0,-384,-108,-589,-314,-797r23,-26v138,121,247,254,324,398v163,304,156,548,-13,853v-87,157,-191,283,-311,379r-23,-27v198,-215,314,-411,314,-780","w":641},"*":{"d":"241,-548v-49,29,-136,19,-135,-44v0,-29,13,-50,34,-70v34,-33,255,-70,288,-104v-39,-34,-251,-73,-286,-109v-46,-31,-44,-136,28,-129v82,8,102,44,166,109v50,52,87,83,113,90v6,-74,-50,-194,-50,-266v0,-49,28,-100,72,-100v49,0,72,47,72,102v0,63,-62,201,-54,264v52,-5,165,-147,211,-176v49,-31,134,-18,134,39v0,90,-60,89,-165,120v-72,21,-126,37,-159,56v96,63,319,43,319,178v0,63,-76,72,-129,40v-39,-24,-169,-154,-211,-175v-7,50,48,217,50,272v2,45,-32,95,-74,95v-41,0,-70,-46,-70,-90v0,-66,62,-211,54,-277v-52,19,-158,145,-208,175"},"+":{"d":"145,-610r0,-88r494,0r0,-494r88,0r0,494r494,0r0,88r-494,0r0,493r-88,0r0,-493r-494,0","w":1366},",":{"d":"279,-143v96,1,152,93,151,196v-2,153,-116,271,-250,299r0,-35v96,-52,144,-96,144,-229v0,-32,-5,-37,-37,-37v-57,0,-107,-43,-107,-98v0,-52,46,-97,99,-96","w":598,"k":{"\u2019":246,"\u201d":164," ":82}},"-":{"d":"119,-399r401,0r0,77r-401,0r0,-77","w":641},".":{"d":"201,-47v0,-51,47,-96,98,-96v52,0,96,44,96,96v0,51,-45,98,-96,98v-52,0,-98,-46,-98,-98","w":598,"k":{"\u2019":246,"\u201d":164," ":82}},"\/":{"d":"166,25r598,-1244r94,0r-598,1244r-94,0","w":1024},"0":{"d":"822,-906v67,177,67,457,0,634v-58,152,-176,295,-353,295v-178,0,-299,-145,-356,-297v-66,-177,-67,-457,1,-634v59,-152,176,-294,355,-294v178,0,296,145,353,296xm654,-176v79,-176,83,-651,0,-826v-46,-97,-104,-147,-185,-147v-81,0,-141,51,-187,149v-85,179,-79,642,1,822v85,192,285,193,371,2"},"1":{"d":"291,-31v105,-2,121,-23,121,-129r0,-805v0,-27,-6,-41,-17,-41v-47,15,-120,42,-159,41r0,-34v149,-79,241,-145,276,-199r35,0r0,1038v3,108,14,126,121,129r0,31r-377,0r0,-31"},"2":{"d":"467,-1202v168,-2,297,153,297,328v0,106,-42,220,-126,340v-84,120,-225,270,-425,450r578,0r0,84r-672,0r0,-41v183,-189,312,-341,388,-457v76,-116,114,-223,114,-321v0,-154,-72,-271,-215,-271v-126,0,-206,90,-216,213r-34,0v15,-166,130,-323,311,-325"},"3":{"d":"649,-285v0,-158,-121,-324,-284,-317r-119,6r0,-35v240,-42,360,-141,360,-297v0,-111,-89,-207,-200,-205v-90,2,-158,56,-189,123r-33,-14v34,-103,141,-178,275,-178v155,0,287,112,284,262v-3,138,-94,226,-208,272r0,4v149,37,258,150,260,324v3,212,-156,367,-369,363v-145,-3,-208,-47,-293,-129r25,-25v79,64,156,96,231,96v146,0,260,-103,260,-250"},"4":{"d":"907,-387r-289,0r0,403r-122,0r0,-403r-484,0r0,-35r572,-780r34,0r0,721r289,0r0,94xm127,-483r369,0r0,-501"},"5":{"d":"618,-307v-2,-181,-170,-276,-374,-244r18,-622r498,0r0,110r-441,0r-12,416v255,-45,460,95,463,321v2,197,-159,349,-358,349v-129,0,-235,-56,-318,-168r31,-19v63,78,139,117,227,117v146,0,268,-116,266,-260"},"6":{"d":"485,23v-236,0,-397,-213,-397,-461v0,-423,347,-739,754,-766r0,35v-335,57,-567,287,-598,639v92,-86,188,-129,288,-129v186,0,320,145,320,333v0,196,-168,349,-367,349xm506,-31v127,1,205,-121,205,-258v0,-159,-89,-281,-240,-280v-79,0,-155,33,-227,100v-2,136,22,246,72,324v48,76,111,114,190,114"},"7":{"d":"166,-1212v13,32,26,39,65,39r648,0r0,40r-404,1149r-147,0r454,-1075r-514,0v-35,0,-63,9,-83,27v-20,18,-48,58,-83,121r-34,0r63,-301r35,0"},"8":{"d":"467,-1202v164,0,305,111,305,268v0,113,-68,206,-203,281v155,107,232,227,232,360v0,178,-162,316,-346,316v-184,0,-337,-113,-336,-287v0,-64,20,-121,60,-172v40,-51,105,-101,196,-152v-122,-63,-220,-163,-223,-323v-4,-174,137,-291,315,-291xm453,-1157v-105,0,-193,77,-191,180v0,51,21,99,62,145v41,46,111,97,208,154v89,-46,134,-123,134,-231v0,-138,-81,-248,-213,-248xm469,-35v117,0,211,-87,211,-203v0,-115,-89,-220,-268,-315v-119,56,-179,144,-179,264v0,138,101,254,236,254"},"9":{"d":"457,-1202v237,0,395,211,395,459v0,420,-351,739,-754,763r0,-34v326,-38,580,-300,600,-639v-92,86,-189,129,-290,129v-184,0,-320,-146,-320,-332v0,-196,169,-346,369,-346xm436,-1149v-128,-1,-207,120,-207,256v0,159,91,282,242,281v79,0,155,-37,227,-110v0,-133,-24,-238,-72,-314v-48,-76,-111,-113,-190,-113"},":":{"d":"201,-575v0,-52,46,-97,98,-97v52,0,96,45,96,97v0,51,-45,98,-96,98v-52,0,-98,-46,-98,-98xm201,-47v0,-51,47,-96,98,-96v52,0,96,44,96,96v0,51,-45,98,-96,98v-52,0,-98,-46,-98,-98","w":598,"k":{" ":82}},";":{"d":"279,-143v96,1,152,93,151,196v-2,153,-116,271,-250,299r0,-35v96,-50,144,-97,144,-229v0,-32,-5,-37,-37,-37v-57,0,-107,-43,-107,-98v0,-52,46,-97,99,-96xm201,-575v0,-52,46,-97,98,-97v52,0,96,45,96,97v0,51,-45,98,-96,98v-52,0,-98,-46,-98,-98","w":598,"k":{" ":82}},"<":{"d":"1221,-166r-1076,-452r0,-78r1076,-453r0,96r-959,396r959,395r0,96","w":1366},"=":{"d":"145,-848r0,-88r1076,0r0,88r-1076,0xm145,-385r0,-88r1076,0r0,88r-1076,0","w":1366},">":{"d":"1221,-696r0,78r-1076,452r0,-96r959,-395r-959,-396r0,-96","w":1366},"?":{"d":"322,-1143v201,0,312,272,228,469v-30,71,-204,180,-237,249v-23,49,-27,110,-26,181r-39,0v7,-120,-16,-252,28,-336v28,-54,194,-171,224,-226v15,-28,24,-56,24,-87v-1,-105,-100,-162,-215,-160v-101,2,-130,26,-196,78r0,-47v55,-81,124,-121,209,-121xm186,-74v0,-52,46,-96,99,-96v52,0,96,44,96,96v0,53,-44,99,-96,99v-52,0,-99,-46,-99,-99","w":641},"@":{"d":"1053,-1419v421,0,704,275,704,694v0,261,-119,489,-273,609v-84,66,-168,100,-255,100v-111,0,-166,-47,-166,-142v0,-13,8,-63,24,-149r-4,-4v-77,100,-145,172,-204,217v-59,45,-117,67,-172,67v-122,1,-198,-100,-195,-229v5,-239,159,-463,310,-586v92,-75,172,-114,241,-114v111,0,148,45,174,139r4,0r23,-115r135,-18r-203,704v-26,80,-9,162,82,162v63,0,130,-33,201,-96v130,-115,227,-319,229,-551v4,-379,-274,-642,-655,-637v-369,5,-620,211,-753,482v-135,275,-161,623,-12,891v126,226,360,388,691,388v386,0,704,-253,807,-557r55,0v-111,337,-442,605,-864,610v-505,6,-878,-387,-871,-897v5,-387,205,-691,468,-841v146,-84,305,-127,479,-127xm653,-276v-1,81,47,142,125,141v57,0,119,-34,187,-99v112,-108,233,-327,237,-522v1,-95,-50,-155,-143,-155v-54,0,-112,35,-177,103v-106,110,-226,341,-229,532","w":1886},"A":{"d":"758,0r0,-35v89,2,115,-45,92,-115r-107,-325r-378,0v-32,107,-110,253,-110,364v0,49,31,75,93,76r0,35r-303,0r0,-35v115,-22,133,-63,174,-184r324,-967r121,0r340,1010v40,103,47,137,167,141r0,35r-413,0xm387,-547r330,0r-166,-497","w":1217,"k":{"y":82,"w":102,"v":102,"u":61,"Y":154,"W":205,"V":205,"U":123,"T":164,"Q":102,"O":102,"G":102,"C":102}},"B":{"d":"989,-287v0,187,-173,287,-377,287r-540,0r0,-35v114,-3,133,-59,133,-186r0,-731v-3,-130,-14,-183,-133,-187r0,-34r442,0v222,-4,408,91,408,286v0,126,-79,215,-236,266r0,5v159,28,303,155,303,329xm758,-877v0,-164,-111,-253,-281,-251r-117,0r0,497r121,0v161,2,277,-91,277,-246xm809,-297v0,-182,-147,-293,-338,-289r-111,0r0,344v4,132,7,192,121,197r97,0v139,1,231,-107,231,-252","w":1044,"k":{".":61}},"C":{"d":"731,-1202v71,0,250,49,328,49v30,0,51,-12,63,-37r33,0r0,350r-35,0v-52,-198,-152,-315,-381,-317v-280,-3,-434,232,-434,528v0,316,158,584,447,584v185,0,321,-86,409,-258r31,29v-70,174,-255,308,-490,303v-344,-7,-571,-230,-577,-584v-6,-358,256,-647,606,-647","w":1260,"k":{".":61,",":61}},"D":{"d":"1268,-567v0,361,-266,567,-647,567r-558,0r0,-35v114,-3,134,-61,134,-186r0,-731v-2,-127,-19,-183,-134,-187r0,-34r543,0v379,-9,662,245,662,606xm1087,-565v0,-330,-187,-566,-512,-563r-223,0r0,866v4,151,12,212,150,217r121,0v296,2,464,-214,464,-520","w":1366,"k":{"Y":154,"W":143,"V":154,"A":92,".":184,",":184}},"E":{"d":"686,-614v97,-2,110,-29,127,-115r35,0r0,285r-35,0v-30,-102,-36,-113,-164,-113r-291,0r0,420v1,61,24,79,86,80r205,0v193,5,225,-34,285,-162r35,0r-54,219r-845,0r0,-35v118,-3,133,-57,133,-184r0,-733v-3,-130,-15,-183,-133,-187r0,-34r845,0r0,196r-22,0v-30,-119,-47,-139,-197,-139r-338,0r0,502r328,0","w":1044},"F":{"d":"666,-625v94,-2,119,-47,131,-139r32,0r0,330r-32,0v-4,-89,-46,-133,-127,-133r-310,0r0,346v2,127,18,182,134,186r0,35r-422,0r0,-35v115,-3,133,-59,133,-186r0,-731v-3,-129,-16,-183,-133,-187r0,-34r805,0r0,208r-27,0v-31,-126,-37,-151,-191,-151r-299,0r0,491r306,0","k":{"o":61,"e":61,"a":51,"A":72,".":205,",":205}},"G":{"d":"981,-279v1,-146,-30,-204,-174,-194r0,-35r475,0r0,35v-109,2,-144,45,-145,158r0,315v-49,15,-262,29,-328,29v-401,0,-688,-210,-688,-582v0,-263,127,-459,301,-563v95,-57,196,-86,303,-86v89,0,234,55,319,55v33,0,55,-13,66,-39r37,0r0,346r-33,0v-20,-183,-189,-317,-389,-317v-264,0,-424,247,-424,532v0,314,191,599,483,598v131,0,197,-42,197,-125r0,-127","w":1343,"k":{".":102,",":102}},"H":{"d":"870,-35v118,-3,131,-58,131,-186r0,-340r-639,0r0,340v2,127,20,183,136,186r0,35r-424,0r0,-35v116,-3,133,-60,133,-186r0,-731v-3,-130,-16,-183,-133,-187r0,-34r424,0r0,34v-115,3,-136,62,-136,187r0,334r639,0r0,-334v-3,-130,-14,-183,-131,-187r0,-34r420,0r0,34v-114,3,-133,60,-133,187r0,731v2,127,18,182,133,186r0,35r-420,0r0,-35","w":1366},"I":{"d":"188,-952v-3,-131,-14,-183,-133,-187r0,-34r422,0r0,34v-114,3,-133,60,-133,187r0,731v2,127,18,182,133,186r0,35r-422,0r0,-35v117,-3,133,-57,133,-186r0,-731","w":532},"J":{"d":"289,-952v-3,-129,-18,-183,-135,-187r0,-34r424,0r0,34v-114,3,-134,60,-134,187r0,1083v4,191,-111,324,-292,324v-85,0,-149,-35,-193,-105r29,-20v27,35,62,53,106,53v133,0,195,-133,195,-289r0,-1046","w":662,"k":{"o":41,"e":41,"a":41,".":102,",":102}},"K":{"d":"369,-221v3,125,16,183,131,186r0,35r-420,0r0,-35v116,-3,133,-60,133,-186r0,-731v-3,-129,-15,-183,-133,-187r0,-34r420,0r0,34v-112,3,-131,63,-131,187r0,354r383,-377v41,-41,61,-73,61,-98v0,-34,-25,-56,-74,-66r0,-34r443,0r0,34v-140,-11,-231,56,-305,129r-365,361r485,491v88,82,94,110,220,123r0,35r-279,0r-569,-575r0,354","w":1260,"k":{"y":154,"u":72,"o":51,"e":51,"O":113}},"L":{"d":"743,-57v173,-5,179,-52,232,-199r35,0r-72,256r-850,0r0,-35v111,-4,133,-71,133,-196r0,-738v-2,-119,-21,-167,-133,-170r0,-34r420,0r0,34v-106,3,-131,67,-131,185r0,784v2,94,33,113,133,113r233,0","w":1024,"k":{"\u2019":123,"\u201d":123,"y":82,"Y":143,"W":205,"V":164,"T":143}},"M":{"d":"1100,-35v96,-13,130,-65,121,-176r-62,-758r-401,969r-31,0r-397,-969r-67,755v0,101,51,160,153,179r0,35r-365,0r0,-35v119,-21,137,-71,150,-215r71,-807v-41,-45,-92,-72,-153,-82r0,-34r297,0r375,923r380,-923r277,0r0,34v-97,0,-140,71,-131,183r59,723v16,138,24,182,146,198r0,35r-422,0r0,-35","w":1579},"N":{"d":"1077,-946v-3,-133,-20,-190,-143,-193r0,-34r354,0r0,34v-124,3,-151,53,-151,185r0,954r-35,0r-832,-1020r0,823v1,115,40,161,154,162r0,35r-356,0r0,-35v127,-3,145,-64,145,-201r0,-686v-1,-146,-45,-202,-174,-217r0,-34r301,0r737,913r0,-686","w":1366,"k":{".":123,",":123}},"O":{"d":"745,29v-340,0,-624,-281,-624,-621v0,-344,282,-610,629,-610v337,0,622,275,622,610v0,340,-286,621,-627,621xm754,-1157v-292,-2,-453,254,-453,567v0,310,157,572,442,574v279,3,449,-271,449,-566v0,-311,-156,-573,-438,-575","w":1493,"k":{"Y":143,"X":113,"W":143,"V":123,"T":72,"A":92,".":184,",":184}},"P":{"d":"211,-952v-3,-127,-17,-183,-133,-187r0,-34r428,0v247,-5,453,114,455,333v3,277,-297,334,-594,291r0,328v3,128,17,182,133,186r0,35r-422,0r0,-35v112,-2,133,-61,133,-182r0,-735xm797,-836v0,-169,-112,-296,-285,-292r-145,0r0,526v39,13,88,20,145,20v168,2,285,-92,285,-254","w":1024,"k":{"o":82,"e":82,"a":51,"A":154,".":348,",":348}},"Q":{"d":"1358,-588v0,303,-232,558,-502,602v14,11,39,40,75,85v77,95,141,159,192,193v81,54,164,64,259,32r13,32v-162,74,-399,35,-507,-56v-69,-38,-224,-250,-296,-286v-252,-44,-494,-307,-490,-602v3,-240,140,-439,308,-532v95,-53,200,-82,315,-82v344,0,633,274,633,614xm725,-16v290,1,453,-251,453,-562v0,-321,-154,-579,-441,-579v-295,0,-454,254,-454,571v0,306,160,569,442,570","w":1473,"k":{"U":72,".":184,",":82}},"R":{"d":"551,-1173v214,-5,391,113,391,307v0,144,-81,240,-242,288v108,77,147,144,236,291v62,102,109,169,144,201v35,32,71,48,108,51r0,35r-240,0v-82,-87,-268,-427,-354,-493v-66,-50,-133,-52,-236,-50r0,322v2,126,20,182,134,186r0,35r-422,0r0,-35v117,-3,133,-59,133,-186r0,-735v-3,-128,-15,-180,-133,-183r0,-34r481,0xm778,-862v0,-163,-128,-269,-297,-266r-123,0r0,536r144,0v167,3,276,-106,276,-270","w":1217,"k":{"Y":164,"W":236,"V":205,"U":113,"T":123,"O":82}},"S":{"d":"666,-1157v25,-1,22,-10,30,-33r33,0r0,275r-35,0v-12,-143,-111,-241,-260,-242v-118,-1,-211,64,-211,176v0,49,16,94,48,135v32,41,101,93,208,157v124,74,207,139,250,194v43,55,64,119,64,190v0,179,-155,334,-334,334v-59,0,-199,-46,-269,-62v-19,0,-34,15,-45,45r-34,0r0,-317r34,0v-5,164,129,289,283,289v135,0,237,-79,236,-209v0,-47,-18,-93,-53,-136v-35,-43,-110,-97,-221,-168v-145,-92,-196,-116,-251,-241v-17,-38,-22,-82,-22,-129v-3,-180,136,-303,319,-303v65,0,166,34,230,45","w":854},"T":{"d":"1077,-948v-31,-129,-92,-168,-248,-168r-178,0r0,901v3,128,11,176,127,180r0,35r-416,0r0,-35v116,-3,134,-62,134,-186r0,-895r-170,0v-152,1,-227,37,-240,168r-35,0r0,-269r35,0v31,29,90,44,176,44r615,0v89,0,151,-15,186,-44r37,0r0,269r-23,0","w":1153,"k":{"y":205,"w":205,"u":205,"r":143,"o":266,"e":266,"a":215,"O":72,"A":164,";":82,":":82,".":266,"-":276,",":266}},"U":{"d":"365,-360v-2,189,111,309,299,309v139,0,251,-65,335,-195r0,-706v-2,-124,-18,-179,-125,-187r0,-34r414,0r0,34v-114,3,-133,60,-133,187r0,731v3,125,18,183,133,186r0,35r-289,0r0,-164v-110,129,-240,193,-391,193v-244,0,-399,-163,-399,-404r0,-577v-3,-128,-15,-184,-133,-187r0,-34r424,0r0,34v-119,3,-135,56,-135,185r0,594","w":1366,"k":{"A":61,".":82,",":82}},"V":{"d":"1188,-1173r0,36v-86,0,-156,76,-213,228r-346,925r-33,0r-363,-952v-34,-88,-63,-143,-88,-166v-25,-23,-60,-36,-106,-37r0,-34r426,0r0,34v-97,-4,-119,62,-90,138r287,757r272,-731v34,-86,22,-167,-88,-164r0,-34r342,0","w":1217,"k":{"u":133,"o":225,"i":31,"e":225,"a":184,"O":113,"G":113,"A":205,";":164,":":164,".":369,"-":164,",":369}},"W":{"d":"1835,-1173r0,34v-46,3,-84,22,-115,57v-31,35,-61,96,-92,181r-330,917r-36,0r-320,-866r-311,866r-33,0r-358,-968v-33,-83,-49,-136,-104,-172v-17,-11,-50,-15,-95,-15r0,-34r434,0r0,34v-102,12,-119,59,-88,142r275,745r249,-682v-37,-101,-54,-211,-190,-205r0,-34r430,0r0,34v-117,-1,-130,56,-98,144r274,743r240,-657v45,-112,53,-232,-88,-232r0,-32r356,0","w":1878,"k":{"y":174,"u":143,"o":225,"i":31,"e":225,"a":205,"O":102,"A":205,";":184,":":184,".":389,"-":184,",":389}},"X":{"d":"1206,-1139v-130,5,-147,35,-219,127r-291,375r299,408v54,73,95,122,125,147v30,25,66,40,109,47r0,35r-471,0r0,-35v117,-1,100,-119,47,-192r-207,-285r-225,293v-35,45,-53,84,-53,115v0,41,31,64,92,69r0,35r-375,0r0,-35v117,-6,148,-51,213,-135r309,-395r-283,-391v-49,-67,-90,-115,-124,-142v-34,-27,-72,-41,-115,-41r0,-34r450,0r0,34v-99,-3,-99,74,-55,135r223,310r219,-277v34,-43,51,-80,51,-109v0,-39,-31,-59,-94,-59r0,-34r375,0r0,34","w":1260},"Y":{"d":"352,-35v125,-2,144,-56,144,-186r0,-369r-250,-389v-41,-65,-75,-107,-101,-127v-26,-20,-62,-31,-108,-33r0,-34r459,0r0,34v-122,-1,-146,42,-97,117r232,356r186,-295v27,-44,41,-82,41,-113v0,-43,-26,-65,-78,-65r0,-34r322,0r0,34v-115,11,-129,41,-187,133r-264,416r0,369v3,128,14,182,129,186r0,35r-428,0r0,-35","w":1153,"k":{"u":205,"o":225,"i":31,"e":225,"a":205,"S":82,"O":123,"A":154,";":205,":":205,".":287,"-":246,",":287}},"Z":{"d":"711,-57v203,-2,292,-68,344,-226r35,0r-43,283r-984,0r0,-31r773,-1085r-506,0v-150,2,-197,28,-234,143r-33,0r19,-200r954,0r0,36r-768,1080r443,0","w":1153},"[":{"d":"139,410r0,-1583r326,0r0,36v-89,-9,-162,18,-177,88v-5,25,-7,56,-7,93r0,1149v1,99,10,129,59,163v32,22,75,17,125,17r0,37r-326,0","w":532},"\\":{"d":"166,-1219r94,0r598,1244r-94,0","w":1024},"]":{"d":"68,373v134,10,184,-46,184,-180r0,-1149v0,-121,-41,-181,-123,-181r-61,0r0,-36r325,0r0,1583r-325,0r0,-37","w":532},"^":{"d":"467,-1386r31,0r426,716r-93,0r-350,-585r-350,585r-94,0","w":961},"_":{"d":"-18,256r0,-102r1060,0r0,102r-1060,0","w":1024},"`":{"d":"182,-1286r113,0r133,409r-39,0","w":682},"a":{"d":"463,-80v-63,65,-93,99,-195,103v-108,4,-207,-87,-207,-193v0,-51,18,-93,53,-126v35,-33,106,-64,213,-94v67,-19,113,-35,136,-48v12,-134,-42,-230,-162,-230v-99,0,-169,71,-192,156r-37,-10v24,-124,128,-223,268,-223v157,-1,262,104,262,266r0,311v3,67,-5,105,41,113v35,-6,33,-29,49,-70r35,0v-5,84,-55,148,-141,148v-59,0,-100,-34,-123,-103xm313,-55v60,-1,131,-47,150,-92r0,-246v-57,23,-211,70,-229,107v-64,73,-22,233,79,231","w":748,"k":{"y":72,"w":72,"v":61,"t":20}},"b":{"d":"127,-1102v-4,-118,-11,-121,-129,-125r0,-35r233,-24r35,0r0,649v53,-59,143,-106,244,-108v187,-4,339,164,336,354v-5,253,-215,399,-494,399v-60,0,-135,-7,-225,-22r0,-1088xm694,-375v0,-162,-97,-309,-241,-311v-69,0,-132,34,-187,102r0,414v1,103,25,140,123,141v196,1,305,-140,305,-346","w":917,"k":{"y":41,"v":31,"u":20,"l":31,"b":20,".":123,",":123}},"c":{"d":"446,-745v56,0,147,40,205,40v21,0,37,-13,49,-40r35,0r0,256r-35,0v-26,-119,-110,-215,-243,-216v-152,-1,-244,139,-244,302v0,175,113,366,272,364v118,-1,215,-72,271,-151r0,53v-79,107,-185,160,-320,160v-212,0,-364,-154,-364,-367v0,-212,168,-401,374,-401","w":788,"k":{"y":-31,"k":-41,"h":-41,".":20,",":-20}},"d":{"d":"645,-1102v-2,-92,-10,-123,-96,-125r-41,0r0,-35r242,-24r34,0r0,1145v2,85,32,105,121,106r0,35r-422,0v-243,6,-422,-150,-422,-377v0,-193,152,-368,340,-368v75,0,157,29,244,88r0,-445xm530,-33v81,0,114,-31,115,-110r0,-437v-46,-63,-119,-122,-211,-122v-143,0,-221,138,-221,294v0,213,110,377,317,375","k":{"y":31,"w":41,"v":31}},"e":{"d":"508,-35v141,0,160,-56,256,-151r0,53v-80,98,-145,152,-299,156v-220,5,-391,-160,-391,-377v0,-209,160,-391,364,-391v164,0,325,132,314,303r-533,0v-2,164,48,289,143,357v47,33,95,50,146,50xm614,-477v8,-132,-75,-225,-194,-225v-126,0,-196,97,-201,225r395,0","w":831,"k":{"y":31,"w":31,"v":31,".":41,",":41}},"f":{"d":"436,-1243v-90,1,-135,72,-135,170r0,350r180,0r0,53r-180,0r0,527v-3,89,47,114,139,108r0,35r-411,0r0,-35v85,3,133,-11,133,-96r0,-539r-101,0r0,-35v47,-19,80,-35,101,-49r0,-143v-3,-209,111,-391,311,-389v85,0,153,20,205,59r-70,183r-35,0v10,-114,-34,-199,-137,-199","w":532,"k":{"\u2019":-123,"\u201d":-266,"a":10}},"g":{"d":"406,-745r190,8r233,0r0,82r-192,0v105,123,113,290,3,406v-53,57,-117,91,-191,91v-78,0,-236,75,-236,135v0,27,14,46,41,60v56,29,379,79,432,103v74,33,141,85,141,177v0,189,-232,304,-446,304v-180,0,-356,-69,-356,-222v0,-46,19,-87,57,-123v38,-36,97,-70,178,-104r0,-4v-79,-18,-158,-56,-158,-133v0,-80,75,-146,224,-199r0,-4v-131,-34,-226,-123,-228,-274v-4,-172,135,-310,308,-303xm410,-705v-118,0,-181,117,-181,248v0,137,58,262,179,262v125,0,180,-121,180,-262v0,-130,-62,-248,-178,-248xm219,490v150,79,533,89,533,-109v0,-47,-30,-85,-89,-111v-59,-26,-172,-53,-337,-82v-141,38,-211,95,-211,172v0,52,35,94,104,130","w":854,"k":{"r":-41,"i":-41,".":184,",":31}},"h":{"d":"508,-35v100,-2,121,-19,121,-117r0,-358v2,-92,-57,-161,-146,-158v-110,4,-151,58,-211,138r0,397v2,82,34,96,121,98r0,35r-389,0r0,-35v115,-6,129,-20,129,-139r0,-944v-3,-98,-25,-106,-129,-109r0,-35r234,-24r34,0r0,686v80,-86,124,-141,254,-145v143,-4,242,104,242,251r0,320v3,109,14,136,117,139r0,35r-377,0r0,-35","w":897,"k":{"y":41}},"i":{"d":"166,-580v-3,-102,-25,-104,-137,-108r0,-35r241,-22r35,0r0,610v2,86,32,98,121,100r0,35r-397,0r0,-35v106,-3,137,-5,137,-100r0,-445xm147,-1032v0,-49,42,-88,91,-88v48,0,88,40,88,88v0,48,-41,90,-88,90v-48,0,-91,-42,-91,-90","w":469},"j":{"d":"178,-596v-3,-89,-39,-89,-137,-92r0,-35r242,-22r34,0r0,860v0,257,-134,380,-399,374r0,-34v202,-1,260,-106,260,-320r0,-731xm147,-1032v0,-49,42,-88,91,-88v48,0,88,40,88,88v0,48,-41,90,-88,90v-48,0,-91,-42,-91,-90","w":469},"k":{"d":"147,-1128v-3,-95,-27,-95,-129,-99r0,-35r234,-24r35,0r0,917r194,-178v37,-34,56,-64,56,-91v0,-32,-29,-49,-88,-50r0,-35r395,0r0,35v-102,-5,-159,20,-234,88r-188,172r301,301v61,58,85,84,178,92r0,35r-237,0r-377,-362v0,190,8,292,24,306v16,14,48,21,97,21r0,35r-390,0r0,-35v116,-6,129,-19,129,-139r0,-954","w":897,"k":{"o":31,"e":31}},"l":{"d":"319,-137v-2,90,40,103,132,102r0,35r-404,0r0,-35r37,0v86,-3,96,-42,96,-137r0,-956v6,-94,-53,-103,-145,-99r0,-35r250,-24r34,0r0,1149","w":492,"k":{"y":41,"w":31}},"m":{"d":"162,-582v4,-93,-52,-112,-146,-106r0,-35r250,-22r35,0r0,151r4,0v49,-79,145,-151,258,-151v114,0,199,71,228,163v77,-109,167,-163,268,-163v142,-1,246,98,246,245r0,365v2,85,33,98,122,100r0,35r-385,0r0,-35v113,-3,123,-23,123,-139r0,-344v1,-94,-62,-151,-157,-150v-76,0,-144,47,-205,140r0,389v2,87,32,102,121,104r0,35r-381,0r0,-35v116,-3,121,-22,121,-139r0,-336v2,-93,-63,-160,-154,-158v-95,2,-170,69,-209,140r0,395v2,82,36,99,123,100r0,33r-385,0r0,-35v104,-2,123,-20,123,-117r0,-430","w":1473,"k":{"y":82,"u":20}},"n":{"d":"141,-582v-2,-93,-24,-103,-121,-106r0,-35r226,-22r35,0r0,145v85,-97,172,-145,262,-145v142,-1,245,112,245,260r0,327v2,101,23,121,123,123r0,35r-387,0r0,-35v88,-2,125,-10,125,-90r0,-379v2,-98,-67,-167,-162,-166v-68,0,-137,47,-206,142r0,354v3,116,12,136,122,139r0,35r-383,0r0,-35v116,-3,121,-23,121,-139r0,-408","k":{"y":41,"v":41}},"o":{"d":"469,-745v221,0,397,166,397,385v0,216,-178,383,-397,383v-219,0,-397,-167,-397,-383v0,-219,176,-385,397,-385xm469,-18v168,0,246,-159,246,-342v0,-184,-79,-345,-246,-345v-169,0,-246,158,-246,345v0,186,77,342,246,342","k":{"y":61,"x":31,"w":61,"v":61,".":102,",":41}},"p":{"d":"145,-575v-3,-105,-18,-109,-127,-113r0,-35r232,-22r35,0r0,122v80,-73,128,-119,252,-122v193,-5,327,176,327,378v0,214,-152,390,-360,390v-71,0,-144,-29,-219,-86r0,477v2,99,24,119,121,121r0,34r-388,0r0,-34v94,-2,127,-13,127,-101r0,-1009xm713,-342v0,-170,-82,-336,-232,-336v-68,0,-133,36,-196,109r0,454v57,60,123,90,200,90v141,-1,228,-160,228,-317","k":{"y":41,".":102,",":41}},"q":{"d":"516,535v89,-2,119,-18,119,-103r0,-467v-68,39,-140,58,-215,58v-210,0,-364,-150,-361,-361v4,-267,201,-388,492,-385v39,0,113,3,223,10r0,1143v2,89,31,103,125,105r0,34r-383,0r0,-34xm211,-352v0,169,100,322,264,319v50,0,103,-16,160,-47r0,-582v-240,-49,-424,80,-424,310","w":917},"r":{"d":"164,-569v-4,-114,-26,-115,-150,-119r0,-35r254,-22r35,0r0,157v67,-58,118,-98,155,-122v87,-57,150,-40,226,22r-55,129v-163,-85,-195,-94,-326,24r0,398v2,87,30,100,121,102r0,35r-383,0r0,-35v111,-3,123,-21,123,-139r0,-395","w":705,"k":{"y":-20,"v":-82,"u":-51,"t":-72,"s":-41,"r":-41,"p":-41,"o":20,"n":-61,"m":-61,"i":-41,"e":20,";":20,":":20,".":184,",":184}},"s":{"d":"311,-745v62,0,159,80,191,0r35,0r0,223r-41,0v-10,-101,-78,-182,-181,-183v-67,-1,-125,36,-120,99v8,98,63,107,163,158v137,70,208,96,217,247v7,118,-110,228,-229,224v-37,8,-141,-49,-184,-54v-26,-3,-45,23,-47,49r-35,0r0,-247r35,0v20,115,109,206,233,211v108,4,169,-136,94,-214v-23,-24,-71,-53,-146,-86v-84,-37,-139,-71,-166,-103v-27,-32,-40,-71,-40,-116v0,-112,107,-208,221,-208","w":641,"k":{"w":41,".":41}},"t":{"d":"379,23v-122,0,-209,-89,-209,-211r0,-486r-137,0r0,-35v100,-50,180,-137,241,-262r35,0r0,244r252,0r0,53r-252,0r0,467v-1,92,43,152,131,152v49,0,94,-23,135,-70r23,27v-63,81,-136,121,-219,121","w":598},"u":{"d":"649,-573v-4,-114,-21,-107,-141,-115r0,-35r246,-22r34,0r0,608v2,88,31,100,125,102r0,35r-264,14r0,-133r-4,0v-73,95,-157,142,-254,142v-137,0,-237,-107,-237,-244r0,-371v-2,-83,-39,-94,-129,-96r0,-35r233,-22r35,0r0,518v-1,100,65,165,164,164v69,0,133,-40,192,-119r0,-391"},"v":{"d":"383,-723r0,35v-79,6,-82,61,-55,125r161,387r142,-367v36,-86,37,-135,-72,-145r0,-35r266,0r0,35v-94,10,-109,27,-139,104r-233,600r-35,0r-232,-569v-47,-97,-39,-126,-153,-135r0,-35r350,0","w":854,"k":{"o":41,"e":41,"a":31,".":225,",":225}},"w":{"d":"655,-612v-30,-53,-37,-72,-106,-76r0,-35r350,0r0,35v-87,2,-108,39,-82,104r162,408r149,-379v32,-76,28,-131,-73,-133r0,-35r282,0r0,35v-125,4,-127,29,-168,133r-225,571r-35,0r-231,-571r-227,571r-35,0r-254,-624v-21,-53,-66,-80,-133,-80r0,-35r352,0r0,35v-88,4,-86,40,-59,106r163,406","w":1366,"k":{"o":72,"e":72,"a":20,".":246,",":246}},"x":{"d":"326,0r-295,0r0,-35v135,-4,141,-31,215,-119r157,-186r-172,-225v-68,-82,-81,-111,-200,-123r0,-35r399,0r0,35v-83,7,-74,55,-35,108r97,136r98,-121v25,-31,38,-57,38,-80v0,-29,-19,-43,-57,-43r0,-35r287,0r0,35v-121,17,-136,46,-213,137r-121,143r219,287v45,57,99,86,162,86r0,35r-381,0r0,-35v66,-10,66,-45,33,-90r-127,-174r-129,162v-36,40,-44,98,25,102r0,35","k":{"e":31}},"y":{"d":"381,-723r0,35v-61,7,-73,57,-51,110r174,410r127,-383v25,-72,27,-132,-58,-137r0,-35r256,0r0,35v-103,7,-132,72,-165,170r-289,854v-28,81,-63,146,-107,193v-70,75,-134,95,-223,40r47,-125v141,53,211,-41,254,-161r94,-263r-260,-600v-38,-77,-49,-104,-147,-108r0,-35r348,0","w":854,"k":{"o":31,"e":31,"a":20,".":205,",":205}},"z":{"d":"319,-688v-122,-1,-211,68,-223,176r-35,0r19,-211r608,0r0,35r-461,653r226,0v147,-1,213,-49,219,-186r35,0r-19,221r-627,0r0,-35r461,-653r-203,0","w":748},"{":{"d":"481,170v-2,-74,44,-232,43,-297v-1,-130,-112,-218,-237,-233r0,-46v126,-15,236,-103,237,-233v1,-69,-45,-221,-43,-297v5,-200,164,-352,348,-381r9,37v-123,28,-221,98,-228,229v-2,45,45,275,43,320v-8,180,-134,287,-284,348v151,62,276,167,284,348v2,45,-45,275,-43,320v6,131,105,202,228,229r-9,37v-185,-30,-343,-180,-348,-381","w":983},"|":{"d":"463,483r0,-1702r90,0r0,1702r-90,0","w":1016},"}":{"d":"502,-936v2,92,-43,229,-43,297v0,130,112,218,237,233r0,46v-126,15,-236,103,-237,233v0,69,45,215,43,297v-5,200,-164,352,-348,381r-9,-37v123,-28,221,-98,228,-229v2,-45,-45,-275,-43,-320v8,-180,134,-287,284,-348v-151,-62,-276,-167,-284,-348v-2,-45,45,-275,43,-320v-6,-131,-105,-202,-228,-229r9,-37v185,30,343,180,348,381","w":983},"~":{"d":"1219,-803v-2,157,-98,287,-250,287v-51,0,-157,-32,-318,-97v-141,-57,-232,-85,-272,-85v-103,0,-164,60,-184,180r-48,0v-6,-160,97,-287,248,-287v66,-19,521,192,594,187v110,-8,172,-77,182,-185r48,0","w":1366},"\u00c4":{"d":"758,0r0,-35v89,2,115,-45,92,-115r-107,-325r-378,0v-32,107,-110,253,-110,364v0,49,31,75,93,76r0,35r-303,0r0,-35v115,-22,133,-63,174,-184r324,-967r121,0r340,1010v40,103,47,137,167,141r0,35r-413,0xm387,-547r330,0r-166,-497xm682,-1442v0,-45,41,-86,86,-86v45,0,86,41,86,86v0,45,-41,86,-86,86v-45,0,-86,-41,-86,-86xm366,-1442v0,-45,41,-86,86,-86v45,0,86,41,86,86v0,45,-41,86,-86,86v-45,0,-86,-41,-86,-86","w":1217},"\u00c5":{"d":"758,0r0,-35v89,2,115,-45,92,-115r-107,-325r-378,0v-32,107,-110,253,-110,364v0,49,31,75,93,76r0,35r-303,0r0,-35v115,-22,133,-63,174,-184r324,-967r121,0r340,1010v40,103,47,137,167,141r0,35r-413,0xm387,-547r330,0r-166,-497xm741,-1420v0,-70,-61,-131,-131,-131v-70,0,-131,61,-131,131v0,70,61,131,131,131v70,0,131,-61,131,-131xm430,-1420v0,-97,83,-180,180,-180v97,0,180,83,180,180v0,98,-82,181,-180,181v-98,0,-180,-83,-180,-181","w":1217},"\u00c7":{"d":"731,-1202v71,0,250,49,328,49v30,0,51,-12,63,-37r33,0r0,350r-35,0v-52,-198,-152,-315,-381,-317v-280,-3,-434,232,-434,528v0,316,158,584,447,584v185,0,321,-86,409,-258r31,29v-70,174,-255,308,-490,303v-344,-7,-571,-230,-577,-584v-6,-358,256,-647,606,-647xm784,260v0,129,-139,179,-291,170r0,-39v124,-2,186,-40,186,-115v0,-41,-33,-70,-98,-86r64,-206r34,0r-34,127v75,13,139,67,139,149","w":1260},"\u00c9":{"d":"686,-614v97,-2,110,-29,127,-115r35,0r0,285r-35,0v-30,-102,-36,-113,-164,-113r-291,0r0,420v1,61,24,79,86,80r205,0v193,5,225,-34,285,-162r35,0r-54,219r-845,0r0,-35v118,-3,133,-57,133,-184r0,-733v-3,-130,-15,-183,-133,-187r0,-34r845,0r0,196r-22,0v-30,-119,-47,-139,-197,-139r-338,0r0,502r328,0xm436,-1242r133,-409r113,0r-207,409r-39,0","w":1044},"\u00d1":{"d":"1077,-946v-3,-133,-20,-190,-143,-193r0,-34r354,0r0,34v-124,3,-151,53,-151,185r0,954r-35,0r-832,-1020r0,823v1,115,40,161,154,162r0,35r-356,0r0,-35v127,-3,145,-64,145,-201r0,-686v-1,-146,-45,-202,-174,-217r0,-34r301,0r737,913r0,-686xm823,-1317v-72,14,-263,-102,-317,-101v-43,0,-71,32,-84,95r-39,0v-2,-87,82,-175,168,-175v60,0,255,100,317,95v46,-4,73,-42,78,-88r37,0v2,90,-72,176,-160,174","w":1366},"\u00d6":{"d":"745,29v-340,0,-624,-281,-624,-621v0,-344,282,-610,629,-610v337,0,622,275,622,610v0,340,-286,621,-627,621xm754,-1157v-292,-2,-453,254,-453,567v0,310,157,572,442,574v279,3,449,-271,449,-566v0,-311,-156,-573,-438,-575xm819,-1442v0,-45,41,-86,86,-86v45,0,86,41,86,86v0,45,-41,86,-86,86v-45,0,-86,-41,-86,-86xm503,-1442v0,-45,41,-86,86,-86v45,0,86,41,86,86v0,45,-41,86,-86,86v-45,0,-86,-41,-86,-86","w":1493},"\u00dc":{"d":"365,-360v-2,189,111,309,299,309v139,0,251,-65,335,-195r0,-706v-2,-124,-18,-179,-125,-187r0,-34r414,0r0,34v-114,3,-133,60,-133,187r0,731v3,125,18,183,133,186r0,35r-289,0r0,-164v-110,129,-240,193,-391,193v-244,0,-399,-163,-399,-404r0,-577v-3,-128,-15,-184,-133,-187r0,-34r424,0r0,34v-119,3,-135,56,-135,185r0,594xm756,-1442v0,-45,41,-86,86,-86v45,0,86,41,86,86v0,45,-41,86,-86,86v-45,0,-86,-41,-86,-86xm440,-1442v0,-45,41,-86,86,-86v45,0,86,41,86,86v0,45,-41,86,-86,86v-45,0,-86,-41,-86,-86","w":1366},"\u00e1":{"d":"463,-80v-63,65,-93,99,-195,103v-108,4,-207,-87,-207,-193v0,-51,18,-93,53,-126v35,-33,106,-64,213,-94v67,-19,113,-35,136,-48v12,-134,-42,-230,-162,-230v-99,0,-169,71,-192,156r-37,-10v24,-124,128,-223,268,-223v157,-1,262,104,262,266r0,311v3,67,-5,105,41,113v35,-6,33,-29,49,-70r35,0v-5,84,-55,148,-141,148v-59,0,-100,-34,-123,-103xm313,-55v60,-1,131,-47,150,-92r0,-246v-57,23,-211,70,-229,107v-64,73,-22,233,79,231xm270,-877r133,-409r113,0r-207,409r-39,0","w":748},"\u00e0":{"d":"463,-80v-63,65,-93,99,-195,103v-108,4,-207,-87,-207,-193v0,-51,18,-93,53,-126v35,-33,106,-64,213,-94v67,-19,113,-35,136,-48v12,-134,-42,-230,-162,-230v-99,0,-169,71,-192,156r-37,-10v24,-124,128,-223,268,-223v157,-1,262,104,262,266r0,311v3,67,-5,105,41,113v35,-6,33,-29,49,-70r35,0v-5,84,-55,148,-141,148v-59,0,-100,-34,-123,-103xm313,-55v60,-1,131,-47,150,-92r0,-246v-57,23,-211,70,-229,107v-64,73,-22,233,79,231xm198,-1286r113,0r133,409r-39,0","w":748},"\u00e2":{"d":"463,-80v-63,65,-93,99,-195,103v-108,4,-207,-87,-207,-193v0,-51,18,-93,53,-126v35,-33,106,-64,213,-94v67,-19,113,-35,136,-48v12,-134,-42,-230,-162,-230v-99,0,-169,71,-192,156r-37,-10v24,-124,128,-223,268,-223v157,-1,262,104,262,266r0,311v3,67,-5,105,41,113v35,-6,33,-29,49,-70r35,0v-5,84,-55,148,-141,148v-59,0,-100,-34,-123,-103xm313,-55v60,-1,131,-47,150,-92r0,-246v-57,23,-211,70,-229,107v-64,73,-22,233,79,231xm357,-1286r52,0r209,401r-46,0r-196,-266r-189,266r-41,0","w":748},"\u00e4":{"d":"463,-80v-63,65,-93,99,-195,103v-108,4,-207,-87,-207,-193v0,-51,18,-93,53,-126v35,-33,106,-64,213,-94v67,-19,113,-35,136,-48v12,-134,-42,-230,-162,-230v-99,0,-169,71,-192,156r-37,-10v24,-124,128,-223,268,-223v157,-1,262,104,262,266r0,311v3,67,-5,105,41,113v35,-6,33,-29,49,-70r35,0v-5,84,-55,148,-141,148v-59,0,-100,-34,-123,-103xm313,-55v60,-1,131,-47,150,-92r0,-246v-57,23,-211,70,-229,107v-64,73,-22,233,79,231xm454,-1077v0,-45,41,-86,86,-86v45,0,86,41,86,86v0,45,-41,86,-86,86v-45,0,-86,-41,-86,-86xm138,-1077v0,-45,41,-86,86,-86v45,0,86,41,86,86v0,45,-41,86,-86,86v-45,0,-86,-41,-86,-86","w":748},"\u00e3":{"d":"463,-80v-63,65,-93,99,-195,103v-108,4,-207,-87,-207,-193v0,-51,18,-93,53,-126v35,-33,106,-64,213,-94v67,-19,113,-35,136,-48v12,-134,-42,-230,-162,-230v-99,0,-169,71,-192,156r-37,-10v24,-124,128,-223,268,-223v157,-1,262,104,262,266r0,311v3,67,-5,105,41,113v35,-6,33,-29,49,-70r35,0v-5,84,-55,148,-141,148v-59,0,-100,-34,-123,-103xm313,-55v60,-1,131,-47,150,-92r0,-246v-57,23,-211,70,-229,107v-64,73,-22,233,79,231xm521,-952v-72,14,-263,-102,-317,-101v-43,0,-71,32,-84,95r-39,0v-2,-87,82,-175,168,-175v60,0,255,100,317,95v46,-4,73,-42,78,-88r37,0v2,90,-72,176,-160,174","w":748},"\u00e5":{"d":"463,-80v-63,65,-93,99,-195,103v-108,4,-207,-87,-207,-193v0,-51,18,-93,53,-126v35,-33,106,-64,213,-94v67,-19,113,-35,136,-48v12,-134,-42,-230,-162,-230v-99,0,-169,71,-192,156r-37,-10v24,-124,128,-223,268,-223v157,-1,262,104,262,266r0,311v3,67,-5,105,41,113v35,-6,33,-29,49,-70r35,0v-5,84,-55,148,-141,148v-59,0,-100,-34,-123,-103xm313,-55v60,-1,131,-47,150,-92r0,-246v-57,23,-211,70,-229,107v-64,73,-22,233,79,231xm513,-1055v0,-70,-61,-131,-131,-131v-70,0,-131,61,-131,131v0,70,61,131,131,131v70,0,131,-61,131,-131xm202,-1055v0,-97,83,-180,180,-180v97,0,180,83,180,180v0,98,-82,181,-180,181v-98,0,-180,-83,-180,-181","w":748},"\u00e7":{"d":"446,-745v56,0,147,40,205,40v21,0,37,-13,49,-40r35,0r0,256r-35,0v-26,-119,-110,-215,-243,-216v-152,-1,-244,139,-244,302v0,175,113,366,272,364v118,-1,215,-72,271,-151r0,53v-79,107,-185,160,-320,160v-212,0,-364,-154,-364,-367v0,-212,168,-401,374,-401xm539,260v0,129,-139,179,-291,170r0,-39v124,-2,186,-40,186,-115v0,-41,-33,-70,-98,-86r64,-206r34,0r-34,127v75,13,139,67,139,149","w":788},"\u00e9":{"d":"508,-35v141,0,160,-56,256,-151r0,53v-80,98,-145,152,-299,156v-220,5,-391,-160,-391,-377v0,-209,160,-391,364,-391v164,0,325,132,314,303r-533,0v-2,164,48,289,143,357v47,33,95,50,146,50xm614,-477v8,-132,-75,-225,-194,-225v-126,0,-196,97,-201,225r395,0xm291,-877r133,-409r113,0r-207,409r-39,0","w":831},"\u00e8":{"d":"508,-35v141,0,160,-56,256,-151r0,53v-80,98,-145,152,-299,156v-220,5,-391,-160,-391,-377v0,-209,160,-391,364,-391v164,0,325,132,314,303r-533,0v-2,164,48,289,143,357v47,33,95,50,146,50xm614,-477v8,-132,-75,-225,-194,-225v-126,0,-196,97,-201,225r395,0xm219,-1286r113,0r133,409r-39,0","w":831},"\u00ea":{"d":"508,-35v141,0,160,-56,256,-151r0,53v-80,98,-145,152,-299,156v-220,5,-391,-160,-391,-377v0,-209,160,-391,364,-391v164,0,325,132,314,303r-533,0v-2,164,48,289,143,357v47,33,95,50,146,50xm614,-477v8,-132,-75,-225,-194,-225v-126,0,-196,97,-201,225r395,0xm377,-1286r52,0r209,401r-46,0r-196,-266r-189,266r-41,0","w":831},"\u00eb":{"d":"508,-35v141,0,160,-56,256,-151r0,53v-80,98,-145,152,-299,156v-220,5,-391,-160,-391,-377v0,-209,160,-391,364,-391v164,0,325,132,314,303r-533,0v-2,164,48,289,143,357v47,33,95,50,146,50xm614,-477v8,-132,-75,-225,-194,-225v-126,0,-196,97,-201,225r395,0xm474,-1077v0,-45,41,-86,86,-86v45,0,86,41,86,86v0,45,-41,86,-86,86v-45,0,-86,-41,-86,-86xm158,-1077v0,-45,41,-86,86,-86v45,0,86,41,86,86v0,45,-41,86,-86,86v-45,0,-86,-41,-86,-86","w":831},"\u00ed":{"d":"305,-135v2,86,32,98,121,100r0,35r-397,0r0,-35v106,-3,137,-5,137,-100r0,-445v-3,-102,-25,-104,-137,-108r0,-35r241,-22r35,0r0,610xm202,-877r133,-409r113,0r-207,409r-39,0","w":469},"\u00ec":{"d":"305,-135v2,86,32,98,121,100r0,35r-397,0r0,-35v106,-3,137,-5,137,-100r0,-445v-3,-102,-25,-104,-137,-108r0,-35r241,-22r35,0r0,610xm28,-1286r113,0r133,409r-39,0","w":469},"\u00ee":{"d":"305,-135v2,86,32,98,121,100r0,35r-397,0r0,-35v106,-3,137,-5,137,-100r0,-445v-3,-102,-25,-104,-137,-108r0,-35r241,-22r35,0r0,610xm197,-1286r52,0r209,401r-46,0r-196,-266r-189,266r-41,0","w":469},"\u00ef":{"d":"305,-135v2,86,32,98,121,100r0,35r-397,0r0,-35v106,-3,137,-5,137,-100r0,-445v-3,-102,-25,-104,-137,-108r0,-35r241,-22r35,0r0,610xm324,-1077v0,-45,41,-86,86,-86v45,0,86,41,86,86v0,45,-41,86,-86,86v-45,0,-86,-41,-86,-86xm8,-1077v0,-45,41,-86,86,-86v45,0,86,41,86,86v0,45,-41,86,-86,86v-45,0,-86,-41,-86,-86","w":469},"\u00f1":{"d":"141,-582v-2,-93,-24,-103,-121,-106r0,-35r226,-22r35,0r0,145v85,-97,172,-145,262,-145v142,-1,245,112,245,260r0,327v2,101,23,121,123,123r0,35r-387,0r0,-35v88,-2,125,-10,125,-90r0,-379v2,-98,-67,-167,-162,-166v-68,0,-137,47,-206,142r0,354v3,116,12,136,122,139r0,35r-383,0r0,-35v116,-3,121,-23,121,-139r0,-408xm581,-952v-72,14,-263,-102,-317,-101v-43,0,-71,32,-84,95r-39,0v-2,-87,82,-175,168,-175v60,0,255,100,317,95v46,-4,73,-42,78,-88r37,0v2,90,-72,176,-160,174"},"\u00f3":{"d":"469,-745v221,0,397,166,397,385v0,216,-178,383,-397,383v-219,0,-397,-167,-397,-383v0,-219,176,-385,397,-385xm469,-18v168,0,246,-159,246,-342v0,-184,-79,-345,-246,-345v-169,0,-246,158,-246,345v0,186,77,342,246,342xm317,-877r133,-409r113,0r-207,409r-39,0"},"\u00f2":{"d":"469,-745v221,0,397,166,397,385v0,216,-178,383,-397,383v-219,0,-397,-167,-397,-383v0,-219,176,-385,397,-385xm469,-18v168,0,246,-159,246,-342v0,-184,-79,-345,-246,-345v-169,0,-246,158,-246,345v0,186,77,342,246,342xm245,-1286r113,0r133,409r-39,0"},"\u00f4":{"d":"469,-745v221,0,397,166,397,385v0,216,-178,383,-397,383v-219,0,-397,-167,-397,-383v0,-219,176,-385,397,-385xm469,-18v168,0,246,-159,246,-342v0,-184,-79,-345,-246,-345v-169,0,-246,158,-246,345v0,186,77,342,246,342xm437,-1286r52,0r209,401r-46,0r-196,-266r-189,266r-41,0"},"\u00f6":{"d":"469,-745v221,0,397,166,397,385v0,216,-178,383,-397,383v-219,0,-397,-167,-397,-383v0,-219,176,-385,397,-385xm469,-18v168,0,246,-159,246,-342v0,-184,-79,-345,-246,-345v-169,0,-246,158,-246,345v0,186,77,342,246,342xm534,-1077v0,-45,41,-86,86,-86v45,0,86,41,86,86v0,45,-41,86,-86,86v-45,0,-86,-41,-86,-86xm218,-1077v0,-45,41,-86,86,-86v45,0,86,41,86,86v0,45,-41,86,-86,86v-45,0,-86,-41,-86,-86"},"\u00f5":{"d":"469,-745v221,0,397,166,397,385v0,216,-178,383,-397,383v-219,0,-397,-167,-397,-383v0,-219,176,-385,397,-385xm469,-18v168,0,246,-159,246,-342v0,-184,-79,-345,-246,-345v-169,0,-246,158,-246,345v0,186,77,342,246,342xm601,-952v-72,14,-263,-102,-317,-101v-43,0,-71,32,-84,95r-39,0v-2,-87,82,-175,168,-175v60,0,255,100,317,95v46,-4,73,-42,78,-88r37,0v2,90,-72,176,-160,174"},"\u00fa":{"d":"649,-573v-4,-114,-21,-107,-141,-115r0,-35r246,-22r34,0r0,608v2,88,31,100,125,102r0,35r-264,14r0,-133r-4,0v-73,95,-157,142,-254,142v-137,0,-237,-107,-237,-244r0,-371v-2,-83,-39,-94,-129,-96r0,-35r233,-22r35,0r0,518v-1,100,65,165,164,164v69,0,133,-40,192,-119r0,-391xm317,-877r133,-409r113,0r-207,409r-39,0"},"\u00f9":{"d":"649,-573v-4,-114,-21,-107,-141,-115r0,-35r246,-22r34,0r0,608v2,88,31,100,125,102r0,35r-264,14r0,-133r-4,0v-73,95,-157,142,-254,142v-137,0,-237,-107,-237,-244r0,-371v-2,-83,-39,-94,-129,-96r0,-35r233,-22r35,0r0,518v-1,100,65,165,164,164v69,0,133,-40,192,-119r0,-391xm245,-1286r113,0r133,409r-39,0"},"\u00fb":{"d":"649,-573v-4,-114,-21,-107,-141,-115r0,-35r246,-22r34,0r0,608v2,88,31,100,125,102r0,35r-264,14r0,-133r-4,0v-73,95,-157,142,-254,142v-137,0,-237,-107,-237,-244r0,-371v-2,-83,-39,-94,-129,-96r0,-35r233,-22r35,0r0,518v-1,100,65,165,164,164v69,0,133,-40,192,-119r0,-391xm417,-1286r52,0r209,401r-46,0r-196,-266r-189,266r-41,0"},"\u00fc":{"d":"649,-573v-4,-114,-21,-107,-141,-115r0,-35r246,-22r34,0r0,608v2,88,31,100,125,102r0,35r-264,14r0,-133r-4,0v-73,95,-157,142,-254,142v-137,0,-237,-107,-237,-244r0,-371v-2,-83,-39,-94,-129,-96r0,-35r233,-22r35,0r0,518v-1,100,65,165,164,164v69,0,133,-40,192,-119r0,-391xm534,-1077v0,-45,41,-86,86,-86v45,0,86,41,86,86v0,45,-41,86,-86,86v-45,0,-86,-41,-86,-86xm218,-1077v0,-45,41,-86,86,-86v45,0,86,41,86,86v0,45,-41,86,-86,86v-45,0,-86,-41,-86,-86"},"\u2020":{"d":"408,-745v8,-42,-60,-268,-60,-336v0,-61,26,-92,78,-92v49,-1,83,34,82,83v-1,63,-78,291,-68,345v75,8,189,-52,260,-52v52,0,78,23,78,70v0,36,-33,75,-69,74v-65,-3,-204,-65,-269,-56v0,109,25,191,76,246v-39,165,-63,472,-72,920r-38,0v-4,-460,-27,-767,-70,-920v48,-61,72,-143,72,-246v-63,0,-123,9,-176,34v-69,32,-156,28,-156,-54v0,-44,30,-74,74,-72v64,3,194,65,258,56","w":854},"\u00b0":{"d":"100,-1079v0,-165,142,-307,308,-307v166,0,307,141,307,307v0,166,-142,307,-307,307v-166,0,-308,-142,-308,-307xm633,-1079v0,-122,-104,-226,-225,-226v-122,0,-226,104,-226,226v0,122,104,225,226,225v121,0,225,-104,225,-225","w":817},"\u00a2":{"d":"104,-344v-1,-229,187,-437,437,-395r102,-320r35,0r-105,326v27,1,81,27,109,28v19,0,36,-13,51,-40r35,0r0,256r-35,0v-25,-107,-82,-175,-172,-203r-190,592v141,119,311,54,417,-90r0,53v-99,138,-266,194,-450,139r-88,272r-35,0r92,-284v-135,-62,-203,-173,-203,-334xm528,-700v-300,-54,-359,400,-184,575","w":854},"\u00a3":{"d":"346,-111v-38,64,-114,131,-201,134v-53,2,-98,-22,-98,-70v0,-94,141,-166,260,-152v19,-68,18,-133,0,-204r-217,0r0,-46r217,0v-23,-80,-35,-169,-35,-268v0,-171,108,-305,273,-305v108,0,191,53,250,160r-33,16v-52,-85,-109,-127,-172,-127v-112,2,-166,100,-162,223r10,301r221,0r0,46r-221,0v-7,85,-23,153,-49,204v78,12,275,109,356,109v78,0,111,-75,115,-162r33,0v30,148,-101,275,-231,275v-113,0,-250,-71,-316,-134xm86,-61v9,63,91,46,132,10v27,-23,50,-51,67,-86v-78,-32,-188,14,-199,76"},"\u00a7":{"d":"113,-395v0,-143,66,-210,157,-293v-77,-72,-116,-150,-116,-234v-2,-151,124,-251,280,-251v127,0,257,77,258,192v0,44,-29,84,-71,84v-38,0,-68,-31,-68,-70v0,-18,22,-74,20,-92v-4,-52,-79,-74,-145,-74v-100,0,-190,54,-190,146v0,38,15,77,44,117v29,40,92,97,189,174v121,96,196,167,225,213v29,46,43,98,43,157v0,142,-64,202,-153,291v68,80,113,119,116,232v5,157,-127,260,-290,260v-118,0,-250,-83,-250,-191v0,-47,29,-86,74,-86v36,-1,64,32,63,70v3,17,-23,70,-23,88v0,54,74,78,140,78v109,0,197,-52,198,-152v0,-36,-16,-73,-44,-114v-56,-81,-337,-283,-395,-368v-38,-55,-62,-112,-62,-177xm559,-61v60,-65,105,-96,105,-187v0,-45,-20,-90,-60,-135v-40,-45,-141,-136,-305,-272v-104,84,-139,187,-67,301v32,51,257,231,327,293","w":854},"\u2022":{"d":"129,-676v0,-123,106,-229,229,-229v123,0,230,106,230,229v0,123,-107,230,-230,230v-123,0,-229,-107,-229,-230","w":717},"\u00b6":{"d":"10,-975v-2,-235,181,-379,430,-379r480,0r-9,35v-115,14,-133,29,-133,154r0,1609r-59,0r0,-1742r-182,0r0,1742r-60,0r0,-1071v-277,6,-465,-96,-467,-348","w":928},"\u00df":{"d":"442,-705v177,-19,234,-81,234,-274v0,-177,-68,-266,-205,-266v-73,0,-124,26,-153,79v-29,53,-44,146,-44,281r0,768v3,71,31,73,107,82r0,35r-369,0r0,-35v106,-3,123,-15,123,-123r0,-692v-3,-257,118,-432,357,-438v178,-5,335,145,335,309v0,140,-85,236,-256,289r0,4v182,27,299,138,301,336v3,235,-159,390,-407,350r-23,-145r37,0v32,140,149,145,204,33v25,-52,38,-124,38,-216v-2,-228,-64,-338,-279,-342r0,-35"},"\u00ae":{"d":"1020,-887v0,129,-97,201,-223,213r192,264v72,89,79,119,197,131r-6,35r-197,0r-295,-395r-35,-10r-37,10r0,219v3,120,15,138,132,141r-7,35r-368,0r8,-35v117,-4,119,-19,119,-141r0,-526v1,-105,-24,-133,-125,-131r6,-31r336,0v171,-2,303,69,303,221xm891,-897v3,-140,-143,-200,-275,-152r0,359v165,11,272,-57,275,-207xm1432,-666v0,-351,-305,-653,-656,-653v-350,0,-653,303,-653,653v0,351,303,656,653,656v351,0,656,-305,656,-656xm422,-1278v214,-124,494,-123,709,0v194,112,354,331,354,612v0,281,-160,503,-354,614v-215,124,-494,124,-709,0v-194,-112,-352,-332,-352,-614v0,-281,159,-501,352,-612","w":1556},"\u00a9":{"d":"788,-1128v67,0,170,51,234,51v23,0,37,-20,41,-60r31,0r18,297r-31,0v-34,-143,-123,-245,-284,-245v-196,0,-303,190,-303,405v0,225,110,391,321,391v151,0,217,-71,297,-174r21,14v-85,147,-201,220,-349,220v-243,0,-426,-197,-426,-443v0,-245,190,-456,430,-456xm1432,-666v0,-351,-305,-653,-656,-653v-350,0,-653,303,-653,653v0,351,303,656,653,656v351,0,656,-305,656,-656xm422,-1278v214,-124,494,-123,709,0v194,112,354,331,354,612v0,281,-160,503,-354,614v-215,124,-494,124,-709,0v-194,-112,-352,-332,-352,-614v0,-281,159,-501,352,-612","w":1556},"\u2122":{"d":"516,-754v2,127,4,171,119,170r0,35r-361,0r0,-35v109,5,120,-33,119,-151r0,-574r-114,0v-92,1,-124,46,-132,136r-34,0r0,-185r684,0r0,185r-35,0v-16,-111,-33,-133,-154,-136r-92,0r0,555xm977,-1212v-2,-94,-27,-103,-119,-113r0,-33r242,0r293,627r288,-627r232,0r0,33v-82,-4,-119,12,-119,96r0,488v5,132,-3,149,117,157r0,35r-346,0r0,-35v115,-4,116,-32,116,-157r0,-496r-311,688r-16,0r-322,-676r0,535v3,102,11,102,115,106r0,35r-289,0r0,-35v106,-3,119,-11,119,-114r0,-514","w":2007},"\u00b4":{"d":"254,-877r133,-409r113,0r-207,409r-39,0","w":682},"\u00a8":{"d":"414,-1077v0,-45,41,-86,86,-86v45,0,86,41,86,86v0,45,-41,86,-86,86v-45,0,-86,-41,-86,-86xm98,-1077v0,-45,41,-86,86,-86v45,0,86,41,86,86v0,45,-41,86,-86,86v-45,0,-86,-41,-86,-86","w":682},"\u2260":{"d":"1106,-279r-621,0r-184,330r-100,-57r151,-273r-321,0r0,-112r385,0r157,-285r-542,0r0,-112r606,0r186,-336r101,57r-156,279r338,0r0,112r-399,0r-160,285r559,0r0,112","w":1124},"\u00c6":{"d":"1219,-614v112,-2,133,-17,153,-111r35,0r0,287r-35,0v-16,-82,-41,-119,-131,-119r-287,0r0,387v1,87,27,113,115,113r113,0v217,-6,238,-6,299,-158r35,0r-52,215r-796,0r0,-35v118,-3,131,-59,131,-188r0,-334r-283,0r-162,297v-31,57,-47,102,-47,135v0,47,33,77,99,90r0,35r-377,0r0,-35v59,-3,105,-18,135,-45v30,-27,73,-93,129,-196r489,-897r682,0r0,200r-24,0v-23,-92,-63,-143,-168,-143r-318,0r0,502r265,0xm547,-614r252,0r0,-467r-4,0","w":1579},"\u00d8":{"d":"754,-1157v-296,0,-453,258,-453,577v0,138,29,259,86,363r690,-780v-62,-93,-178,-160,-323,-160xm750,-1202v155,3,301,59,391,135r119,-135r24,29r-115,129v115,101,199,255,203,452v7,340,-286,621,-627,621v-143,0,-277,-47,-403,-142r-164,185r-24,-25r163,-184v-110,-98,-193,-262,-196,-455v-6,-344,282,-616,629,-610xm743,-16v283,0,449,-275,449,-576v0,-151,-31,-276,-92,-373r-692,779v76,113,188,170,335,170","w":1493},"\u221e":{"d":"360,-895v165,7,212,79,293,227v82,-189,152,-270,371,-276v219,-6,383,187,383,418v0,280,-287,544,-521,357v-51,-41,-105,-117,-165,-224v-78,155,-186,233,-324,233v-199,0,-344,-165,-344,-368v0,-192,128,-374,307,-367xm1350,-526v0,-202,-176,-412,-380,-318v-127,59,-157,245,-220,379v43,92,87,159,134,201v47,42,106,63,177,63v172,2,289,-146,289,-325xm109,-530v0,148,93,292,229,292v55,0,104,-23,150,-65v47,-43,100,-165,137,-287v-64,-143,-153,-215,-267,-215v-149,0,-249,121,-249,275","w":1460},"\u00b1":{"d":"145,-770r0,-88r494,0r0,-494r88,0r0,494r494,0r0,88r-494,0r0,494r-88,0r0,-494r-494,0xm145,37r0,-88r1076,0r0,88r-1076,0","w":1366},"\u2264":{"d":"1077,-240r-1018,-471r0,-127r1018,-471r0,127r-887,408r887,407r0,127xm1077,0r-1018,0r0,-112r1018,0r0,112","w":1124},"\u2265":{"d":"1077,-711r-1018,471r0,-127r887,-407r-887,-408r0,-127r1018,471r0,127xm1077,0r-1018,0r0,-112r1018,0r0,112","w":1124},"\u00a5":{"d":"352,-35v124,-2,141,-57,144,-186r0,-103r-453,0r0,-57r453,0r0,-209r-453,0r0,-57r449,0r-213,-332v-42,-65,-75,-107,-101,-127v-26,-20,-62,-31,-108,-33r0,-34r458,0r0,34v-124,0,-145,41,-96,117r195,305r157,-246v26,-43,39,-80,39,-111v0,-43,-25,-65,-75,-65r0,-34r321,0r0,34v-113,11,-129,43,-186,133r-228,359r449,0r0,57r-453,0r0,209r453,0r0,57r-453,0r0,103v3,128,14,182,129,186r0,35r-428,0r0,-35","w":1153},"\u00b5":{"d":"227,358v-43,1,-85,-35,-84,-77v0,-21,6,-47,17,-78v76,-220,38,-643,47,-948r139,0r0,518v-1,99,65,165,164,164v69,0,133,-40,192,-119r0,-563r140,0r0,608v2,88,31,100,125,102r0,35r-265,14r0,-133r-4,0v-71,95,-157,142,-256,142v-77,0,-138,-28,-184,-84v-4,97,1,192,31,259v33,74,18,158,-62,160","w":1044},"\u2202":{"d":"942,-903v3,-225,-127,-378,-346,-377v-129,0,-230,53,-301,160r-45,0v87,-202,214,-303,379,-303v247,0,366,215,366,503v0,239,-55,456,-165,654v-110,198,-252,297,-427,297v-204,0,-337,-133,-337,-336v0,-298,261,-602,550,-602v148,0,252,63,312,190r4,0v7,-96,10,-158,10,-186xm233,-264v0,133,72,237,197,237v91,0,184,-55,280,-163v96,-108,162,-254,201,-439v-54,-150,-149,-225,-284,-225v-119,0,-214,63,-286,190v-72,127,-108,261,-108,400","w":1012},"\u2211":{"d":"1423,-238v-39,151,-69,302,-88,459v-42,-7,-77,-13,-103,-17v-26,-4,-44,-5,-54,-5r-1031,0r-118,6r714,-815r-710,-930v47,5,88,8,123,10v35,2,65,4,90,4r1018,0r12,326r-41,0v-43,-146,-60,-207,-209,-227v-197,-27,-432,-3,-643,-7r559,734r-602,694r760,0v85,0,144,-17,178,-52v34,-35,66,-95,98,-180r47,0","w":1460},"\u220f":{"d":"1446,-6v4,130,51,166,199,166r0,47r-629,0r0,-47v146,0,199,-37,199,-166r0,-1419r-734,0r0,1419v4,129,53,166,199,166r0,47r-629,0r0,-47v148,-1,199,-36,199,-166r0,-1282v0,-133,-63,-203,-195,-203r0,-47r1586,0r0,47v-132,0,-195,70,-195,203r0,1282","w":1686},"\u03c0":{"d":"786,-340v0,127,99,236,206,156v38,-29,46,-72,50,-125r43,0v-1,175,-92,342,-243,342v-53,0,-99,-29,-138,-91v-108,-170,-40,-534,-18,-763r-231,0v-40,416,-73,664,-99,743v-26,79,-69,118,-130,118v-55,0,-109,-51,-109,-113v0,-31,25,-74,73,-129v48,-55,75,-105,80,-150r60,-469v-68,2,-127,-6,-176,19v-52,27,-68,67,-99,110r-35,0v33,-101,72,-177,120,-228v48,-51,103,-77,165,-77r764,0r0,176r-258,0v-8,80,-15,160,-19,240v-4,80,-6,160,-6,241","w":1124},"\u222b":{"d":"379,-1842v75,-75,223,-20,223,82v0,54,-48,89,-105,89v-45,0,-70,-51,-104,-50v-28,1,-37,25,-37,58v0,23,6,108,20,256v29,295,22,1052,-11,1261v-22,136,-47,230,-79,282v-29,48,-85,82,-153,83v-64,2,-123,-56,-123,-120v0,-50,40,-94,90,-92v37,-10,88,65,110,66v17,0,33,-15,40,-45v24,-102,15,-174,8,-350v-7,-189,-7,-1062,11,-1200v23,-174,35,-245,110,-320","w":561},"\u00aa":{"d":"37,-860v0,-116,166,-116,260,-156v10,-82,-26,-133,-98,-133v-53,0,-94,30,-121,90r-35,0v19,-81,87,-143,182,-143v97,-1,174,61,174,158r0,190v-3,73,34,77,45,18r35,0v9,94,-152,126,-182,41v-37,33,-78,50,-121,50v-71,0,-139,-48,-139,-115xm141,-866v-4,41,29,79,68,78v33,0,63,-16,88,-48r0,-147v-98,33,-147,30,-156,117","w":492},"\u00ba":{"d":"299,-745v-146,0,-262,-89,-262,-228v0,-141,115,-229,262,-229v148,0,264,88,264,229v0,139,-118,228,-264,228xm299,-1173v-105,0,-152,86,-152,200v0,114,47,199,152,199v104,0,154,-86,154,-199v0,-114,-48,-200,-154,-200","w":598},"\u2126":{"d":"1340,-207v104,-1,111,-41,136,-125r30,0r0,332r-604,0r33,-311v202,-66,291,-264,291,-513v0,-296,-137,-519,-438,-519v-301,0,-438,224,-438,519v0,248,89,448,291,513r33,311r-604,0r0,-332r30,0v24,84,32,125,136,125r323,0r-4,-57v-159,-43,-272,-117,-341,-221v-69,-104,-103,-215,-103,-332v0,-353,310,-592,677,-592v367,0,677,239,677,592v0,117,-34,228,-103,332v-69,104,-182,178,-341,221r-4,57r323,0","w":1573},"\u00e6":{"d":"1180,-135v-58,89,-166,158,-303,158v-143,0,-257,-53,-340,-158v-74,105,-160,158,-258,158v-158,0,-272,-170,-180,-299v50,-70,95,-82,211,-103v83,-15,144,-36,182,-61v11,-133,-54,-226,-173,-226v-98,0,-177,68,-204,150r-35,0v21,-133,140,-231,293,-229v94,0,169,37,225,112v78,-70,130,-110,256,-112v177,-3,315,123,311,303r-524,0v-31,223,81,407,272,407v135,0,193,-64,267,-155r0,55xm336,-55v81,0,156,-67,156,-154r0,-184v-11,7,-38,17,-79,30v-80,25,-134,50,-162,77v-28,27,-42,59,-42,98v0,69,60,133,127,133xm1030,-477v4,-126,-79,-230,-196,-230v-117,-1,-194,106,-191,230r387,0","w":1260},"\u00f8":{"d":"866,-360v0,216,-178,383,-397,383v-94,0,-179,-28,-254,-84r-113,127r-26,-21r112,-127v-77,-74,-116,-167,-116,-278v0,-219,176,-385,397,-385v85,0,167,24,246,73r96,-106r25,22r-99,107v86,71,129,167,129,289xm469,-705v-169,0,-246,158,-246,345v0,77,12,143,37,198r393,-438v-43,-70,-104,-105,-184,-105xm469,-18v168,-1,246,-159,246,-342v0,-91,-15,-162,-45,-211r-394,442v46,74,110,111,193,111"},"\u00bf":{"d":"319,481v-202,0,-311,-271,-228,-469v30,-71,204,-179,237,-248v24,-49,27,-110,26,-182r39,0v-7,119,15,252,-29,336v-28,53,-192,171,-222,226v-15,28,-25,56,-25,87v1,105,100,162,215,160v101,-2,130,-26,196,-78r0,47v-55,81,-124,121,-209,121xm455,-588v0,52,-46,96,-99,96v-52,0,-96,-44,-96,-96v0,-51,45,-98,96,-98v52,0,99,46,99,98","w":641},"\u00a1":{"d":"293,584v-98,0,-83,-118,-74,-224r62,-733r32,0r54,733v4,62,6,102,6,119v1,55,-30,105,-80,105xm397,-582v0,52,-46,97,-98,97v-52,0,-96,-45,-96,-97v0,-51,45,-98,96,-98v52,0,98,46,98,98","w":598},"\u00ac":{"d":"145,-848r0,-88r1076,0r0,551r-88,0r0,-463r-988,0","w":1366},"\u221a":{"d":"1055,-1868r-307,1946r-498,-1028r-197,96r-33,-68r299,-147r404,825r260,-1634","w":1124},"\u0192":{"d":"1210,-1083v-19,-86,-43,-146,-131,-146v-117,0,-173,123,-198,242r-66,313r141,0r0,56r-149,0r-135,727v-45,255,-181,454,-443,454v-101,0,-180,-16,-235,-47r33,-151r34,0v32,163,182,192,316,119v46,-25,84,-68,113,-128v29,-60,56,-155,79,-282r127,-692r-141,0r0,-56r152,0v47,-185,57,-406,182,-514v97,-83,212,-105,352,-55r6,-25r41,0r-37,185r-41,0","w":1280},"\u2248":{"d":"326,-883v159,-8,350,189,524,189v96,0,153,-60,172,-180r51,0v-22,178,-107,321,-282,321v-65,0,-166,-39,-304,-117v-93,-52,-163,-78,-211,-78v-99,0,-159,62,-178,187r-47,0v21,-175,106,-314,275,-322xm326,-494v163,-6,351,187,524,187v96,0,153,-60,172,-180r51,0v-22,178,-107,321,-282,321v-64,0,-154,-32,-269,-97v-115,-65,-197,-97,-246,-97v-99,0,-159,62,-178,186r-47,0v21,-175,106,-314,275,-320","w":1124},"\u2206":{"d":"668,-1409r577,1409r-1233,0xm594,-1059r-447,959r844,0","w":1253},"\u00ab":{"d":"811,-707r-264,375r264,375r-41,0r-387,-375r387,-375r41,0xm481,-707r-264,375r264,375r-41,0r-387,-375r387,-375r41,0","w":854},"\u00bb":{"d":"375,43r262,-375r-262,-375r41,0r385,375r-385,375r-41,0xm43,43r262,-375r-262,-375r41,0r385,375r-385,375r-41,0","w":854},"\u2026":{"d":"926,-47v0,-51,47,-96,98,-96v52,0,96,44,96,96v0,51,-45,98,-96,98v-52,0,-98,-46,-98,-98xm244,-47v0,-52,44,-96,96,-96v51,0,98,45,98,96v0,52,-46,98,-98,98v-51,0,-96,-47,-96,-98xm1608,-47v0,-52,44,-96,96,-96v51,0,98,45,98,96v0,52,-46,98,-98,98v-51,0,-96,-47,-96,-98","w":2048},"\u00a0":{"w":461},"\u00c0":{"d":"758,0r0,-35v89,2,115,-45,92,-115r-107,-325r-378,0v-32,107,-110,253,-110,364v0,49,31,75,93,76r0,35r-303,0r0,-35v115,-22,133,-63,174,-184r324,-967r121,0r340,1010v40,103,47,137,167,141r0,35r-413,0xm387,-547r330,0r-166,-497xm450,-1651r113,0r133,409r-39,0","w":1217},"\u00c3":{"d":"758,0r0,-35v89,2,115,-45,92,-115r-107,-325r-378,0v-32,107,-110,253,-110,364v0,49,31,75,93,76r0,35r-303,0r0,-35v115,-22,133,-63,174,-184r324,-967r121,0r340,1010v40,103,47,137,167,141r0,35r-413,0xm387,-547r330,0r-166,-497xm749,-1317v-72,14,-263,-102,-317,-101v-43,0,-71,32,-84,95r-39,0v-2,-87,82,-175,168,-175v60,0,255,100,317,95v46,-4,73,-42,78,-88r37,0v2,90,-72,176,-160,174","w":1217},"\u00d5":{"d":"745,29v-340,0,-624,-281,-624,-621v0,-344,282,-610,629,-610v337,0,622,275,622,610v0,340,-286,621,-627,621xm754,-1157v-292,-2,-453,254,-453,567v0,310,157,572,442,574v279,3,449,-271,449,-566v0,-311,-156,-573,-438,-575xm887,-1317v-72,14,-263,-102,-317,-101v-43,0,-71,32,-84,95r-39,0v-2,-87,82,-175,168,-175v60,0,255,100,317,95v46,-4,73,-42,78,-88r37,0v2,90,-72,176,-160,174","w":1493},"\u0152":{"d":"758,4v-337,9,-637,-266,-631,-598v4,-233,150,-425,319,-514v176,-93,402,-65,654,-65r657,0r0,194r-28,0v-12,-106,-71,-136,-195,-137r-307,0r0,498r323,0v85,-3,98,-37,121,-113r33,0r0,282r-33,0v-18,-81,-43,-112,-135,-112r-309,0r0,391v2,90,29,113,121,113r129,0v183,-2,256,-33,299,-166r32,0r-51,223r-799,0xm805,-41v143,-3,266,1,266,-152r0,-776v-9,-158,-78,-167,-270,-170v-307,-5,-494,233,-494,551v0,328,178,553,498,547","w":1878},"\u0153":{"d":"76,-360v0,-210,178,-385,389,-385v137,0,246,50,328,151v73,-101,170,-151,290,-151v164,0,327,135,318,303r-535,0v-9,170,47,300,149,368v159,107,267,42,396,-110r0,53v-90,102,-137,154,-301,154v-156,0,-235,-55,-317,-148v-88,99,-194,148,-318,148v-220,0,-399,-166,-399,-383xm868,-477r394,0v-11,-152,-76,-228,-195,-228v-128,0,-191,97,-199,228xm473,-18v168,0,242,-153,242,-342v0,-189,-71,-347,-242,-347v-166,0,-246,166,-246,347v0,179,81,342,246,342","w":1473},"\u2013":{"d":"-12,-362r0,-46r1048,0r0,46r-1048,0","w":1024},"\u2014":{"d":"-12,-362r0,-46r2072,0r0,46r-2072,0","w":2048},"\u201c":{"d":"496,-791v-96,-1,-153,-92,-152,-196v2,-152,117,-272,250,-299r0,35v-94,49,-143,99,-143,229v0,32,3,37,36,37v57,0,107,43,107,98v0,51,-47,97,-98,96xm170,-791v-96,-1,-153,-92,-152,-196v2,-151,118,-272,250,-299r0,35v-96,50,-143,97,-143,229v0,33,4,37,37,37v56,0,106,43,106,98v0,51,-47,97,-98,96","w":641},"\u201d":{"d":"145,-1286v96,1,153,92,152,196v-2,152,-116,273,-250,299r0,-34v96,-53,143,-98,143,-230v0,-31,-4,-37,-36,-37v-57,0,-107,-43,-107,-98v0,-51,47,-97,98,-96xm471,-1286v96,1,153,93,152,196v-2,151,-118,272,-250,299r0,-34v94,-50,143,-100,143,-230v0,-32,-5,-37,-37,-37v-56,0,-106,-43,-106,-98v0,-51,47,-97,98,-96","w":641,"k":{" ":82}},"\u2018":{"d":"328,-819v-163,-8,-143,-251,-64,-351v43,-55,94,-95,162,-116r0,35v-85,51,-127,123,-127,217v0,56,85,45,103,77v32,59,-2,141,-74,138","w":598,"k":{"\u2018":276}},"\u2019":{"d":"270,-1286v163,8,143,251,64,351v-43,55,-94,95,-162,116r0,-35v85,-49,127,-121,127,-217v0,-56,-85,-45,-103,-77v-32,-59,2,-141,74,-138","w":598,"k":{"\u2019":276,"v":82,"t":102,"s":184,"r":123,"d":225," ":82}},"\u00f7":{"d":"621,-250v0,-34,27,-61,61,-61v34,0,61,27,61,61v0,34,-27,62,-61,62v-34,0,-61,-28,-61,-62xm621,-1059v0,-34,27,-61,61,-61v34,0,61,27,61,61v0,34,-27,62,-61,62v-34,0,-61,-28,-61,-62xm145,-610r0,-88r1076,0r0,88r-1076,0","w":1368},"\u25ca":{"d":"962,-763r-397,763r-122,0r-397,-763r397,-763r122,0xm839,-763r-335,-652r-335,652r335,652","w":1012},"\u00ff":{"d":"381,-723r0,35v-61,7,-73,57,-51,110r174,410r127,-383v25,-72,27,-132,-58,-137r0,-35r256,0r0,35v-103,7,-132,72,-165,170r-289,854v-28,81,-63,146,-107,193v-70,75,-134,95,-223,40r47,-125v141,53,211,-41,254,-161r94,-263r-260,-600v-38,-77,-49,-104,-147,-108r0,-35r348,0xm514,-1077v0,-45,41,-86,86,-86v45,0,86,41,86,86v0,45,-41,86,-86,86v-45,0,-86,-41,-86,-86xm198,-1077v0,-45,41,-86,86,-86v45,0,86,41,86,86v0,45,-41,86,-86,86v-45,0,-86,-41,-86,-86","w":854},"\u0178":{"d":"352,-35v125,-2,144,-56,144,-186r0,-369r-250,-389v-41,-65,-75,-107,-101,-127v-26,-20,-62,-31,-108,-33r0,-34r459,0r0,34v-122,-1,-146,42,-97,117r232,356r186,-295v27,-44,41,-82,41,-113v0,-43,-26,-65,-78,-65r0,-34r322,0r0,34v-115,11,-129,41,-187,133r-264,416r0,369v3,128,14,182,129,186r0,35r-428,0r0,-35xm650,-1442v0,-45,41,-86,86,-86v45,0,86,41,86,86v0,45,-41,86,-86,86v-45,0,-86,-41,-86,-86xm334,-1442v0,-45,41,-86,86,-86v45,0,86,41,86,86v0,45,-41,86,-86,86v-45,0,-86,-41,-86,-86","w":1153},"\u2215":{"d":"541,-1202r69,0r-860,1202r-61,0","w":299},"\u20ac":{"d":"297,-637r2,105r395,0r-10,45r-383,0v25,295,114,442,266,442v112,0,205,-74,279,-221r31,28v-80,178,-196,267,-349,267v-103,0,-189,-45,-260,-137v-71,-92,-112,-218,-125,-379r-110,0r10,-45r98,0r2,-105r-110,0r10,-45r102,0v16,-163,60,-289,127,-382v98,-136,271,-178,437,-103v46,21,86,15,106,-23r33,0r0,328r-35,0v-28,-113,-63,-191,-107,-232v-106,-99,-262,-80,-332,58v-42,82,-71,199,-77,354r430,0r-8,45r-422,0"},"\u2039":{"d":"485,-707r-264,375r264,375r-43,0r-385,-375r385,-375r43,0","w":532},"\u203a":{"d":"47,43r264,-375r-264,-375r43,0r385,375r-385,375r-43,0","w":532},"\uf001":{"d":"784,-115v2,70,37,78,115,80r0,35r-369,0r0,-35v77,0,115,-28,115,-84r0,-438v-4,-99,0,-113,-94,-113r-266,0r0,539v2,81,34,94,121,96r0,35r-379,0r0,-35v95,-2,118,-15,118,-106r0,-529r-100,0r0,-35v43,-18,76,-34,100,-49v7,-169,43,-299,108,-392v65,-93,154,-140,267,-140v91,0,176,19,254,57r-76,189r-30,-11v17,-116,-58,-199,-162,-198v-156,1,-221,136,-221,307r0,219v151,-4,345,14,458,-22r41,0r0,630"},"\uf002":{"d":"526,-35v119,4,119,-34,119,-147r0,-842v0,-150,-61,-225,-182,-225v-114,-1,-182,88,-182,207r0,319r245,0r0,53r-245,0r0,535v1,79,34,99,116,100r0,35r-366,0r0,-35v80,-1,110,-15,110,-90r0,-545r-100,0r0,-35v47,-18,80,-34,100,-49r0,-157v-4,-214,125,-376,330,-375v58,0,121,17,188,51v25,-8,56,-25,93,-51r32,0r0,1139v2,95,23,109,115,112r0,35r-373,0r0,-35"},"\u2021":{"d":"172,-719v-42,1,-78,-25,-78,-65v30,-141,215,4,318,-17v6,-41,-60,-246,-60,-289v0,-43,36,-83,78,-83v49,0,74,29,74,86v0,76,-61,212,-60,286v47,6,192,-43,246,-45v40,-2,73,27,72,66v0,41,-36,67,-80,65v-58,-3,-179,-59,-238,-51v0,97,25,133,72,203v-94,164,-92,262,-2,411v-45,85,-69,152,-70,199v67,7,171,-41,234,-45v45,-3,82,22,82,64v1,35,-38,65,-74,65v-42,0,-206,-56,-242,-49v-6,79,56,200,56,276v0,55,-26,99,-76,99v-45,1,-76,-41,-76,-88v0,-82,72,-202,64,-287v-48,-4,-196,46,-248,47v-40,1,-75,-29,-74,-68v0,-39,27,-59,82,-59v66,0,169,52,240,45v-5,-77,-29,-143,-70,-199v47,-64,70,-136,70,-217v0,-92,-23,-96,-70,-194v49,-87,69,-101,70,-203v-74,-8,-172,47,-240,47","w":854},"\u00b7":{"d":"201,-612v0,-52,46,-97,98,-97v52,0,96,45,96,97v0,51,-45,98,-96,98v-52,0,-98,-46,-98,-98","w":598},"\u2219":{"d":"201,-612v0,-52,46,-97,98,-97v52,0,96,45,96,97v0,51,-45,98,-96,98v-52,0,-98,-46,-98,-98","w":598},"\u201a":{"d":"279,-143v96,1,152,93,151,196v-2,153,-116,271,-250,299r0,-35v96,-43,144,-120,144,-229v-1,-32,-5,-37,-37,-37v-57,0,-107,-43,-107,-98v0,-52,46,-97,99,-96","w":598},"\u201e":{"d":"449,-143v96,1,152,93,151,196v-2,153,-116,271,-250,299r0,-35v96,-51,144,-97,144,-229v0,-32,-5,-37,-37,-37v-57,0,-107,-43,-107,-98v0,-52,46,-97,99,-96xm135,-143v96,1,153,93,152,196v-2,152,-117,272,-250,299r0,-35v96,-52,143,-96,143,-229v0,-33,-4,-37,-37,-37v-56,0,-106,-43,-106,-98v0,-51,47,-97,98,-96","w":641},"\u2030":{"d":"206,-1075v-62,128,-65,476,105,479v44,0,79,-25,105,-74v69,-134,57,-480,-105,-479v-45,0,-81,24,-105,74xm311,-1202v156,0,252,160,252,330v0,170,-97,328,-252,329v-156,0,-252,-159,-252,-329v0,-171,95,-329,252,-330xm1098,-1202r69,0r-852,1202r-69,0xm1716,-649v156,0,252,160,252,330v0,170,-97,328,-252,329v-156,0,-252,-159,-252,-329v0,-171,95,-329,252,-330xm1610,-522v-62,128,-64,476,106,479v44,0,79,-24,105,-73v69,-134,57,-481,-105,-480v-45,0,-82,24,-106,74xm1104,-649v155,0,252,161,252,330v0,169,-97,329,-252,329v-156,0,-252,-158,-252,-329v0,-171,95,-329,252,-330xm998,-522v-62,128,-64,476,106,479v44,0,79,-24,104,-73v68,-134,59,-481,-104,-480v-45,0,-82,24,-106,74","w":2028},"\u00c2":{"d":"758,0r0,-35v89,2,115,-45,92,-115r-107,-325r-378,0v-32,107,-110,253,-110,364v0,49,31,75,93,76r0,35r-303,0r0,-35v115,-22,133,-63,174,-184r324,-967r121,0r340,1010v40,103,47,137,167,141r0,35r-413,0xm387,-547r330,0r-166,-497xm585,-1651r52,0r209,401r-46,0r-196,-266r-189,266r-41,0","w":1217},"\u00ca":{"d":"686,-614v97,-2,110,-29,127,-115r35,0r0,285r-35,0v-30,-102,-36,-113,-164,-113r-291,0r0,420v1,61,24,79,86,80r205,0v193,5,225,-34,285,-162r35,0r-54,219r-845,0r0,-35v118,-3,133,-57,133,-184r0,-733v-3,-130,-15,-183,-133,-187r0,-34r845,0r0,196r-22,0v-30,-119,-47,-139,-197,-139r-338,0r0,502r328,0xm499,-1651r52,0r209,401r-46,0r-196,-266r-189,266r-41,0","w":1044},"\u00c1":{"d":"758,0r0,-35v89,2,115,-45,92,-115r-107,-325r-378,0v-32,107,-110,253,-110,364v0,49,31,75,93,76r0,35r-303,0r0,-35v115,-22,133,-63,174,-184r324,-967r121,0r340,1010v40,103,47,137,167,141r0,35r-413,0xm387,-547r330,0r-166,-497xm522,-1242r133,-409r113,0r-207,409r-39,0","w":1217},"\u00cb":{"d":"686,-614v97,-2,110,-29,127,-115r35,0r0,285r-35,0v-30,-102,-36,-113,-164,-113r-291,0r0,420v1,61,24,79,86,80r205,0v193,5,225,-34,285,-162r35,0r-54,219r-845,0r0,-35v118,-3,133,-57,133,-184r0,-733v-3,-130,-15,-183,-133,-187r0,-34r845,0r0,196r-22,0v-30,-119,-47,-139,-197,-139r-338,0r0,502r328,0xm596,-1442v0,-45,41,-86,86,-86v45,0,86,41,86,86v0,45,-41,86,-86,86v-45,0,-86,-41,-86,-86xm280,-1442v0,-45,41,-86,86,-86v45,0,86,41,86,86v0,45,-41,86,-86,86v-45,0,-86,-41,-86,-86","w":1044},"\u00c8":{"d":"686,-614v97,-2,110,-29,127,-115r35,0r0,285r-35,0v-30,-102,-36,-113,-164,-113r-291,0r0,420v1,61,24,79,86,80r205,0v193,5,225,-34,285,-162r35,0r-54,219r-845,0r0,-35v118,-3,133,-57,133,-184r0,-733v-3,-130,-15,-183,-133,-187r0,-34r845,0r0,196r-22,0v-30,-119,-47,-139,-197,-139r-338,0r0,502r328,0xm364,-1651r113,0r133,409r-39,0","w":1044},"\u00cd":{"d":"188,-952v-3,-131,-14,-183,-133,-187r0,-34r422,0r0,34v-114,3,-133,60,-133,187r0,731v2,127,18,182,133,186r0,35r-422,0r0,-35v117,-3,133,-57,133,-186r0,-731xm180,-1242r133,-409r113,0r-207,409r-39,0","w":532},"\u00ce":{"d":"188,-952v-3,-131,-14,-183,-133,-187r0,-34r422,0r0,34v-114,3,-133,60,-133,187r0,731v2,127,18,182,133,186r0,35r-422,0r0,-35v117,-3,133,-57,133,-186r0,-731xm266,-1651r52,0r209,401r-46,0r-196,-266r-189,266r-41,0","w":532},"\u00cf":{"d":"188,-952v-3,-131,-14,-183,-133,-187r0,-34r422,0r0,34v-114,3,-133,60,-133,187r0,731v2,127,18,182,133,186r0,35r-422,0r0,-35v117,-3,133,-57,133,-186r0,-731xm371,-1442v0,-45,41,-86,86,-86v45,0,86,41,86,86v0,45,-41,86,-86,86v-45,0,-86,-41,-86,-86xm55,-1442v0,-45,41,-86,86,-86v45,0,86,41,86,86v0,45,-41,86,-86,86v-45,0,-86,-41,-86,-86","w":532},"\u00cc":{"d":"188,-952v-3,-131,-14,-183,-133,-187r0,-34r422,0r0,34v-114,3,-133,60,-133,187r0,731v2,127,18,182,133,186r0,35r-422,0r0,-35v117,-3,133,-57,133,-186r0,-731xm109,-1651r113,0r133,409r-39,0","w":532},"\u00d3":{"d":"745,29v-340,0,-624,-281,-624,-621v0,-344,282,-610,629,-610v337,0,622,275,622,610v0,340,-286,621,-627,621xm754,-1157v-292,-2,-453,254,-453,567v0,310,157,572,442,574v279,3,449,-271,449,-566v0,-311,-156,-573,-438,-575xm659,-1242r133,-409r113,0r-207,409r-39,0","w":1493},"\u00d4":{"d":"745,29v-340,0,-624,-281,-624,-621v0,-344,282,-610,629,-610v337,0,622,275,622,610v0,340,-286,621,-627,621xm754,-1157v-292,-2,-453,254,-453,567v0,310,157,572,442,574v279,3,449,-271,449,-566v0,-311,-156,-573,-438,-575xm722,-1651r52,0r209,401r-46,0r-196,-266r-189,266r-41,0","w":1493},"\u00d2":{"d":"745,29v-340,0,-624,-281,-624,-621v0,-344,282,-610,629,-610v337,0,622,275,622,610v0,340,-286,621,-627,621xm754,-1157v-292,-2,-453,254,-453,567v0,310,157,572,442,574v279,3,449,-271,449,-566v0,-311,-156,-573,-438,-575xm587,-1651r113,0r133,409r-39,0","w":1493},"\u00da":{"d":"365,-360v-2,189,111,309,299,309v139,0,251,-65,335,-195r0,-706v-2,-124,-18,-179,-125,-187r0,-34r414,0r0,34v-114,3,-133,60,-133,187r0,731v3,125,18,183,133,186r0,35r-289,0r0,-164v-110,129,-240,193,-391,193v-244,0,-399,-163,-399,-404r0,-577v-3,-128,-15,-184,-133,-187r0,-34r424,0r0,34v-119,3,-135,56,-135,185r0,594xm596,-1242r133,-409r113,0r-207,409r-39,0","w":1366},"\u00db":{"d":"365,-360v-2,189,111,309,299,309v139,0,251,-65,335,-195r0,-706v-2,-124,-18,-179,-125,-187r0,-34r414,0r0,34v-114,3,-133,60,-133,187r0,731v3,125,18,183,133,186r0,35r-289,0r0,-164v-110,129,-240,193,-391,193v-244,0,-399,-163,-399,-404r0,-577v-3,-128,-15,-184,-133,-187r0,-34r424,0r0,34v-119,3,-135,56,-135,185r0,594xm659,-1651r52,0r209,401r-46,0r-196,-266r-189,266r-41,0","w":1366},"\u00d9":{"d":"365,-360v-2,189,111,309,299,309v139,0,251,-65,335,-195r0,-706v-2,-124,-18,-179,-125,-187r0,-34r414,0r0,34v-114,3,-133,60,-133,187r0,731v3,125,18,183,133,186r0,35r-289,0r0,-164v-110,129,-240,193,-391,193v-244,0,-399,-163,-399,-404r0,-577v-3,-128,-15,-184,-133,-187r0,-34r424,0r0,34v-119,3,-135,56,-135,185r0,594xm524,-1651r113,0r133,409r-39,0","w":1366},"\u0131":{"d":"305,-135v2,86,32,98,121,100r0,35r-397,0r0,-35v106,-3,137,-5,137,-100r0,-445v-3,-102,-25,-104,-137,-108r0,-35r241,-22r35,0r0,610","w":469},"\u02c6":{"d":"317,-1286r52,0r209,401r-46,0r-196,-266r-189,266r-41,0","w":682},"\u02dc":{"d":"481,-952v-72,14,-263,-102,-317,-101v-43,0,-71,32,-84,95r-39,0v-2,-87,82,-175,168,-175v60,0,255,100,317,95v46,-4,73,-42,78,-88r37,0v2,90,-72,176,-160,174","w":682},"\u02c9":{"d":"41,-999r0,-88r600,0r0,88r-600,0","w":682},"\u02d8":{"d":"343,-903v-143,0,-271,-136,-254,-297r41,0v29,115,99,172,211,172v113,0,184,-57,213,-172r41,0v10,167,-104,297,-252,297","w":682},"\u02d9":{"d":"256,-1077v0,-45,41,-86,86,-86v45,0,86,41,86,86v0,45,-41,86,-86,86v-45,0,-86,-41,-86,-86","w":682},"\u02da":{"d":"473,-1055v0,-70,-61,-131,-131,-131v-70,0,-131,61,-131,131v0,70,61,131,131,131v70,0,131,-61,131,-131xm162,-1055v0,-97,83,-180,180,-180v97,0,180,83,180,180v0,98,-82,181,-180,181v-98,0,-180,-83,-180,-181","w":682},"\u00b8":{"d":"508,260v0,129,-139,179,-291,170r0,-39v124,-2,186,-40,186,-115v0,-41,-33,-70,-98,-86r64,-206r34,0r-34,127v75,13,139,67,139,149","w":682},"\u02dd":{"d":"322,-877r133,-409r112,0r-207,409r-38,0xm111,-877r133,-409r112,0r-206,409r-39,0","w":682},"\u02db":{"d":"297,127v-2,139,178,152,274,78r27,26v-73,71,-151,107,-233,107v-100,1,-167,-58,-166,-156v0,-65,29,-131,88,-196r47,0v-25,50,-37,97,-37,141","w":682},"\u02c7":{"d":"367,-885r-52,0r-209,-401r46,0r196,266r189,-266r41,0","w":682},"\u0141":{"d":"743,-57v173,-5,179,-52,232,-199r35,0r-72,256r-850,0r0,-35v111,-4,133,-71,133,-196r0,-166r-158,149r0,-82r158,-149r0,-490v-2,-119,-21,-167,-133,-170r0,-34r420,0r0,34v-106,3,-131,67,-131,185r0,352r319,-305r0,82r-319,307r0,348v2,94,33,113,133,113r233,0","w":1024},"\u0142":{"d":"319,-137v-2,90,40,103,132,102r0,35r-404,0r0,-35r37,0v86,-3,96,-42,96,-137r0,-365r-180,218r0,-72r180,-215r0,-522v6,-94,-53,-103,-145,-99r0,-35r250,-24r34,0r0,532r173,-207r0,72r-173,207r0,545","w":492},"\u0160":{"d":"666,-1157v25,-1,22,-10,30,-33r33,0r0,275r-35,0v-12,-143,-111,-241,-260,-242v-118,-1,-211,64,-211,176v0,49,16,94,48,135v32,41,101,93,208,157v124,74,207,139,250,194v43,55,64,119,64,190v0,179,-155,334,-334,334v-59,0,-199,-46,-269,-62v-19,0,-34,15,-45,45r-34,0r0,-317r34,0v-5,164,129,289,283,289v135,0,237,-79,236,-209v0,-47,-18,-93,-53,-136v-35,-43,-110,-97,-221,-168v-145,-92,-196,-116,-251,-241v-17,-38,-22,-82,-22,-129v-3,-180,136,-303,319,-303v65,0,166,34,230,45xm453,-1250r-52,0r-209,-401r46,0r196,266r189,-266r41,0","w":854},"\u0161":{"d":"311,-745v62,0,159,80,191,0r35,0r0,223r-41,0v-10,-101,-78,-182,-181,-183v-67,-1,-125,36,-120,99v8,98,63,107,163,158v137,70,208,96,217,247v7,118,-110,228,-229,224v-37,8,-141,-49,-184,-54v-26,-3,-45,23,-47,49r-35,0r0,-247r35,0v20,115,109,206,233,211v108,4,169,-136,94,-214v-23,-24,-71,-53,-146,-86v-84,-37,-139,-71,-166,-103v-27,-32,-40,-71,-40,-116v0,-112,107,-208,221,-208xm357,-885r-52,0r-209,-401r46,0r196,266r189,-266r41,0","w":641},"\u017d":{"d":"711,-57v203,-2,292,-68,344,-226r35,0r-43,283r-984,0r0,-31r773,-1085r-506,0v-150,2,-197,28,-234,143r-33,0r19,-200r954,0r0,36r-768,1080r443,0xm602,-1250r-52,0r-209,-401r46,0r196,266r189,-266r41,0","w":1153},"\u017e":{"d":"319,-688v-122,-1,-211,68,-223,176r-35,0r19,-211r608,0r0,35r-461,653r226,0v147,-1,213,-49,219,-186r35,0r-19,221r-627,0r0,-35r461,-653r-203,0xm383,-885r-52,0r-209,-401r46,0r196,266r189,-266r41,0","w":748},"\u00a6":{"d":"463,483r0,-719r90,0r0,719r-90,0xm463,-498r0,-721r90,0r0,721r-90,0","w":1016},"\u00ad":{"d":"119,-399r401,0r0,77r-401,0r0,-77","w":641},"\u00af":{"d":"-15,-1275r0,-102r1060,0r0,102r-1060,0","w":1024},"\u00d0":{"d":"63,-35v114,-3,134,-61,134,-186r0,-326r-134,0r0,-57r134,0r0,-348v-2,-127,-19,-183,-134,-187r0,-34r555,0v265,0,464,122,566,297v55,95,84,198,84,309v0,360,-270,567,-652,567r-553,0r0,-35xm1087,-565v0,-331,-187,-578,-512,-574r-223,0r0,531r361,0r0,57r-361,0r0,289v4,157,11,221,150,227r121,0v298,1,464,-219,464,-530","w":1366},"\u00f0":{"d":"473,-705v-171,0,-246,155,-246,345v0,186,79,342,246,342v174,0,246,-161,246,-357v0,-183,-79,-330,-246,-330xm78,-360v0,-211,171,-385,381,-385v85,0,162,26,229,77v-33,-177,-83,-313,-149,-409r-222,145r-22,-33r221,-143v-42,-56,-96,-103,-162,-141r56,-37v69,37,129,80,180,129r192,-127r23,33r-187,123v148,150,256,421,259,694v4,270,-147,457,-406,457v-219,0,-393,-166,-393,-383","w":948},"\u00dd":{"d":"352,-35v125,-2,144,-56,144,-186r0,-369r-250,-389v-41,-65,-75,-107,-101,-127v-26,-20,-62,-31,-108,-33r0,-34r459,0r0,34v-122,-1,-146,42,-97,117r232,356r186,-295v27,-44,41,-82,41,-113v0,-43,-26,-65,-78,-65r0,-34r322,0r0,34v-115,11,-129,41,-187,133r-264,416r0,369v3,128,14,182,129,186r0,35r-428,0r0,-35xm489,-1242r133,-409r113,0r-207,409r-39,0","w":1153},"\u00fd":{"d":"381,-723r0,35v-61,7,-73,57,-51,110r174,410r127,-383v25,-72,27,-132,-58,-137r0,-35r256,0r0,35v-103,7,-132,72,-165,170r-289,854v-28,81,-63,146,-107,193v-70,75,-134,95,-223,40r47,-125v141,53,211,-41,254,-161r94,-263r-260,-600v-38,-77,-49,-104,-147,-108r0,-35r348,0xm454,-877r133,-409r113,0r-207,409r-39,0","w":854},"\u00de":{"d":"367,-221v3,128,17,182,133,186r0,35r-422,0r0,-35v112,-2,133,-61,133,-182r0,-735v-3,-128,-17,-183,-133,-187r0,-34r422,0r0,34v-130,-4,-134,99,-133,234r139,0v247,-5,452,115,455,334v3,277,-300,336,-594,290r0,60xm797,-567v0,-170,-112,-297,-285,-293r-145,0r0,526v39,14,88,21,145,21v168,2,285,-92,285,-254","w":1024},"\u00fe":{"d":"18,535v94,-2,127,-13,127,-101r0,-1536v-4,-118,-10,-121,-129,-125r0,-35r234,-24r35,0r0,663v80,-73,128,-119,252,-122v193,-5,327,176,327,378v0,214,-152,390,-360,390v-71,0,-144,-29,-219,-86r0,477v2,99,24,119,121,121r0,34r-388,0r0,-34xm713,-342v0,-170,-82,-336,-232,-336v-68,0,-133,36,-196,109r0,454v57,60,123,90,200,90v141,-1,228,-160,228,-317"},"\u2212":{"d":"145,-610r0,-88r1076,0r0,88r-1076,0","w":1366},"\u00d7":{"d":"201,-1075r61,-62r422,422r422,-422r61,62r-422,422r422,422r-61,61r-422,-422r-422,422r-61,-61r422,-422","w":1368},"\u00b9":{"d":"358,-649v2,55,11,48,72,51r0,45r-237,0r0,-45v59,-3,69,7,69,-47r0,-397v0,-21,-4,-31,-12,-31v-25,6,-65,19,-90,20r0,-39v91,-39,148,-75,172,-108r26,0r0,551","w":618},"\u00b2":{"d":"307,-1202v102,0,187,84,187,186v0,57,-22,112,-66,168v-44,56,-122,129,-235,219r0,4r317,0r0,72r-420,0r0,-53v198,-165,297,-293,297,-383v1,-73,-44,-122,-117,-121v-69,0,-108,37,-116,111r-43,0v1,-108,88,-203,196,-203","w":618},"\u00b3":{"d":"403,-715v0,-93,-65,-149,-163,-147r-76,0r0,-45v143,-13,215,-59,215,-140v1,-51,-51,-94,-105,-92v-65,3,-80,27,-116,72r-35,-14v29,-81,89,-121,180,-121v95,0,181,62,180,153v0,59,-32,105,-96,138r0,4v85,34,127,89,127,164v0,156,-178,240,-331,183v-28,-10,-60,-33,-97,-65r31,-26v51,34,99,51,143,51v74,0,143,-47,143,-115","w":618},"\u00bd":{"d":"337,-657v2,55,11,48,72,51r0,45r-237,0r0,-45v59,-3,69,7,69,-47r0,-397v0,-21,-4,-31,-12,-31v-25,6,-65,19,-90,20r0,-39v91,-39,148,-75,172,-108r26,0r0,551xm1140,-1202r69,0r-860,1202r-61,0xm1202,-648v102,0,187,84,187,186v0,57,-22,112,-66,168v-44,56,-122,129,-235,219r0,4r317,0r0,72r-420,0r0,-53v198,-165,297,-293,297,-383v1,-73,-44,-122,-117,-121v-69,0,-108,37,-116,111r-43,0v1,-108,88,-203,196,-203","w":1536},"\u00bc":{"d":"337,-649v2,55,11,48,72,51r0,45r-237,0r0,-45v59,-3,69,7,69,-47r0,-397v0,-21,-4,-31,-12,-31v-25,6,-65,19,-90,20r0,-39v91,-39,148,-75,172,-108r26,0r0,551xm1134,-1202r69,0r-860,1202r-61,0xm1212,-651r35,0r0,391r170,0r0,63r-170,0r0,197r-98,0r0,-197r-285,0r0,-45xm952,-260r197,0r0,-232","w":1536},"\u00be":{"d":"456,-715v0,-93,-65,-149,-163,-147r-76,0r0,-45v143,-13,215,-59,215,-140v1,-51,-51,-94,-105,-92v-65,3,-80,27,-116,72r-35,-14v29,-81,89,-121,180,-121v95,0,181,62,180,153v0,59,-32,105,-96,138r0,4v85,34,127,89,127,164v0,156,-178,240,-331,183v-28,-10,-60,-33,-97,-65r31,-26v51,34,99,51,143,51v74,0,143,-47,143,-115xm1212,-1202r69,0r-860,1202r-61,0xm1290,-651r35,0r0,391r170,0r0,63r-170,0r0,197r-98,0r0,-197r-285,0r0,-45xm1030,-260r197,0r0,-232","w":1536},"\uf003":{"d":"391,-1199r35,0r0,391r170,0r0,63r-170,0r0,197r-98,0r0,-197r-285,0r0,-45xm131,-808r197,0r0,-232","w":618},"\u00a4":{"d":"1139,-655v0,113,-44,220,-101,282r123,123r-61,62r-125,-125v-144,136,-407,135,-563,2r-123,123r-62,-62r123,-123v-134,-157,-133,-405,0,-565r-123,-123r62,-61r123,123v169,-135,399,-134,565,0r123,-123r61,61r-123,123v67,77,101,172,101,283xm1049,-655v0,-192,-163,-355,-355,-355v-191,0,-354,163,-354,355v0,191,163,354,354,354v192,0,355,-163,355,-354","w":1389}}});
