/*!
 * The following copyright notice may not be removed under any circumstances.
 * 
 * Copyright:
 * Digitized data copyright The Monotype Corporation 1991-1995. All rights
 * reserved. Perpetua® is a trademark of The Monotype Corporation which may be
 * registered in certain jurisdictions.
 * 
 * Trademark:
 * Perpetua® is a trademark of The Monotype Corporation which may be registered in
 * certain jurisdictions.
 */
Cufon.registerFont({"w":938,"face":{"font-family":"Perpetua","font-weight":700,"font-stretch":"normal","units-per-em":"2048","panose-1":"2 2 8 2 6 4 1 2 3 3","ascent":"1638","descent":"-410","x-height":"31","bbox":"-322 -1878 2087 633.068","underline-thickness":"102","underline-position":"-103","unicode-range":"U+0020-U+F003"},"glyphs":{" ":{"w":461,"k":{"\u2018":82,"\u201c":82,"Y":256,"W":256,"V":256,"T":246,"A":82}},"!":{"d":"406,-1196v1,98,-128,706,-130,797r-30,0v-34,-195,-60,-400,-79,-614v-9,-107,-20,-170,-31,-188v-17,-27,-54,-31,-99,-24r0,-35v65,-15,149,-22,252,-22v79,0,116,14,117,86xm117,-121v0,-82,69,-151,151,-151v82,0,152,69,152,151v0,82,-70,152,-152,152v-82,0,-151,-70,-151,-152","w":532},"\"":{"d":"748,-1282v60,-1,107,45,104,106v-6,103,-60,355,-82,478r-43,0r-53,-295v-15,-100,-23,-157,-23,-170v0,-79,32,-119,97,-119xm381,-1282v60,-1,107,45,104,106v-6,114,-59,350,-82,478r-43,0r-53,-295v-15,-95,-22,-152,-22,-170v0,-79,32,-119,96,-119","w":1137},"#":{"d":"94,-977r322,0r84,-399r127,0r-84,399r415,0r84,-399r127,0r-84,399r189,0r0,127r-215,0r-80,369r295,0r0,127r-322,0r-84,399r-127,0r84,-399r-415,0r-84,399r-127,0r84,-399r-189,0r0,-127r215,0r80,-369r-295,0r0,-127xm852,-481r80,-369r-416,0r-80,369r416,0","w":1368},"$":{"d":"98,-868v-3,-169,158,-303,328,-305r0,-87r53,0r0,87v120,4,220,42,299,114r-26,234r-35,0v-10,-166,-80,-281,-238,-287r0,397v149,99,249,179,297,241v48,62,72,129,72,202v1,186,-170,308,-369,303r0,211r-53,0r0,-211v-141,-4,-253,-48,-336,-133r43,-236r35,0v21,193,107,295,258,307r0,-434v-129,-91,-215,-164,-260,-220v-45,-56,-68,-117,-68,-183xm426,-1112v-87,5,-171,63,-172,147v0,65,57,135,172,211r0,-358xm479,-31v107,-1,200,-65,201,-166v0,-37,-15,-72,-44,-107v-29,-35,-82,-77,-157,-124r0,397"},"%":{"d":"1208,-311v0,188,32,282,97,282v33,0,58,-24,73,-73v15,-49,23,-127,23,-236v0,-171,-32,-256,-96,-256v-65,0,-97,94,-97,283xm1305,16v-178,0,-269,-138,-269,-327v0,-190,90,-327,269,-328v170,-1,266,135,266,313v0,200,-81,342,-266,342xm1169,-1225r134,0r-852,1241r-134,0xm317,-573v-177,0,-268,-139,-268,-328v0,-190,90,-327,268,-328v170,-1,267,135,267,314v0,200,-82,342,-267,342xm221,-901v0,189,32,283,96,283v34,0,59,-25,74,-74v15,-49,23,-127,23,-236v0,-171,-32,-256,-97,-256v-64,0,-96,94,-96,283","w":1622},"&":{"d":"436,-659v-81,-95,-147,-152,-147,-283v0,-184,182,-287,389,-287v188,0,340,69,340,236v0,155,-137,253,-285,280v135,140,237,252,305,336v52,-93,78,-166,78,-219v0,-59,-26,-98,-78,-117r0,-35r353,0r0,35v-39,11,-71,34,-101,61v-39,36,-155,260,-198,337v67,77,122,129,165,159v78,53,160,66,228,2r26,23v-66,108,-165,162,-297,162v-146,0,-201,-56,-292,-144v-130,96,-265,144,-406,144v-213,0,-395,-116,-395,-314v0,-155,105,-281,315,-376xm635,-1143v-120,-3,-149,142,-84,231v26,35,65,83,125,140v63,-17,119,-71,121,-143v3,-106,-67,-226,-162,-228xm489,-604v-70,52,-108,84,-112,184v-6,166,134,328,295,328v69,0,136,-26,202,-78v-183,-223,-311,-368,-385,-434","w":1579},"'":{"d":"281,-1282v60,-1,107,45,104,106v-6,127,-60,342,-82,478r-43,0r-53,-295v-15,-100,-23,-157,-23,-170v0,-79,32,-119,97,-119","w":569},"(":{"d":"379,-324v0,457,92,685,315,934r-20,23v-202,-130,-342,-270,-427,-415v-164,-280,-163,-815,4,-1092v88,-147,226,-285,423,-408r20,22v-219,225,-315,496,-315,936","w":748},")":{"d":"76,-1282v340,210,549,461,549,956v0,213,-43,395,-127,546v-84,151,-225,288,-422,413r-23,-23v224,-242,316,-480,316,-936v0,-461,-90,-687,-316,-934","w":748},"*":{"d":"90,-940v-2,-58,53,-113,111,-111v51,-10,177,89,237,152v19,19,44,32,70,43v-10,-78,-92,-225,-92,-309v0,-61,52,-117,112,-117v63,0,109,54,109,119v0,95,-87,211,-94,307v39,-23,74,-49,104,-78v79,-73,145,-110,199,-110v60,0,111,47,110,106v-1,121,-157,132,-282,113v-46,-7,-70,-11,-121,2v67,85,278,131,278,268v0,52,-52,106,-104,106v-84,0,-138,-78,-164,-233v-8,-48,-13,-84,-37,-123v-31,54,-28,53,-44,129v-23,107,-50,223,-163,227v-56,2,-106,-50,-106,-106v0,-67,57,-130,172,-190v68,-36,63,-32,113,-78v-72,-14,-157,2,-234,2v-97,1,-172,-33,-174,-119","w":1044},"+":{"d":"137,-606r0,-127r481,0r0,-481r127,0r0,481r482,0r0,127r-482,0r0,481r-127,0r0,-481r-481,0","w":1366},",":{"d":"244,-254v118,0,202,130,202,258v0,175,-188,363,-358,367r0,-35v130,-46,195,-123,195,-232v1,-28,-14,-76,-37,-77v-90,23,-154,-54,-154,-136v0,-85,66,-145,152,-145","w":532,"k":{"\u2019":256,"\u201d":256," ":82}},"-":{"d":"68,-473r612,0r0,172r-612,0r0,-172","w":748},".":{"d":"115,-121v0,-82,69,-151,151,-151v82,0,152,69,152,151v0,82,-70,152,-152,152v-82,0,-151,-70,-151,-152","w":532,"k":{"\u2019":256,"\u201d":256," ":82}},"\/":{"d":"166,31r606,-1241r150,0r-607,1241r-149,0","w":1087},"0":{"d":"473,31v-290,0,-436,-279,-436,-600v0,-208,38,-370,114,-486v76,-116,182,-174,318,-174v133,0,235,57,315,165v152,205,147,715,0,922v-80,113,-180,173,-311,173xm607,-164v48,-140,58,-727,-1,-876v-33,-84,-75,-127,-137,-127v-64,0,-108,47,-140,141v-49,145,-58,689,3,861v63,177,216,174,275,1"},"1":{"d":"590,-203v3,129,16,152,123,176r0,27r-473,0r0,-27v105,-20,127,-46,127,-176r0,-719v-3,-51,6,-72,-31,-77v-43,6,-127,24,-162,22r0,-24v93,-26,222,-102,387,-228r29,0r0,1026"},"2":{"d":"500,-1229v196,-5,354,150,352,336v0,96,-41,197,-124,303v-83,106,-237,247,-462,426r0,4r611,0r0,160r-818,0r0,-49r105,-96v171,-155,233,-223,332,-366v77,-111,114,-218,114,-320v0,-138,-76,-259,-204,-259v-122,0,-211,104,-230,218r-26,0v25,-207,136,-352,350,-357"},"3":{"d":"563,-301v0,-186,-133,-317,-336,-289r0,-33v209,-43,314,-140,314,-292v0,-116,-91,-215,-197,-215v-51,0,-109,31,-174,94r-16,-17v51,-101,168,-174,313,-176v167,-2,305,117,301,279v-4,160,-138,266,-285,303r0,4v191,10,326,126,328,319v2,208,-179,355,-393,355v-141,0,-252,-53,-334,-160r16,-16v84,65,161,98,230,98v139,2,233,-112,233,-254"},"4":{"d":"897,-295r-233,0r0,322r-211,0r0,-322r-433,0r0,-45r609,-889r35,0r0,823r233,0r0,111xm164,-406r289,0r0,-436r-4,0"},"5":{"d":"580,-303v0,-171,-167,-257,-351,-209r0,-686r570,0r0,209r-477,0r0,319v265,-58,505,93,505,342v0,218,-176,359,-403,359v-152,0,-271,-59,-356,-178r16,-15v83,63,165,94,248,94v137,0,248,-101,248,-235"},"6":{"d":"483,31v-260,0,-438,-206,-434,-473v4,-308,168,-554,377,-677v118,-69,242,-106,373,-106r0,27v-279,37,-475,302,-482,608v92,-45,177,-67,254,-67v177,0,320,144,320,321v0,214,-187,367,-408,367xm494,-31v107,0,174,-136,174,-258v0,-133,-69,-267,-195,-266v-61,0,-117,23,-170,70v-24,197,19,454,191,454"},"7":{"d":"178,-1241v4,32,10,42,43,43r678,0r-410,1229r-256,0r504,-1012r-504,0v-106,6,-104,46,-151,141r-29,0r99,-401r26,0"},"8":{"d":"330,-573v-128,-91,-213,-144,-219,-314v-8,-200,161,-342,366,-342v188,0,341,110,340,289v0,53,-14,98,-41,138v-27,40,-79,88,-155,145v91,63,154,119,188,167v34,48,51,104,51,171v-1,220,-176,350,-414,350v-200,0,-368,-109,-368,-295v0,-134,84,-237,252,-309xm442,-1167v-91,0,-174,78,-174,168v0,88,96,187,287,297v68,-73,103,-103,107,-218v4,-133,-91,-247,-220,-247xm477,-31v100,0,203,-82,203,-178v0,-109,-98,-217,-295,-323v-94,69,-141,153,-141,253v0,135,101,248,233,248"},"9":{"d":"455,-1225v261,0,440,205,436,473v-4,297,-173,558,-375,678v-115,69,-240,105,-375,105r0,-27v286,-46,457,-290,482,-608v-94,45,-179,67,-256,67v-177,0,-318,-146,-318,-323v0,-212,187,-365,406,-365xm444,-1163v-105,1,-172,136,-172,256v0,144,63,264,193,266v60,0,117,-23,170,-68v21,-129,-1,-275,-46,-356v-37,-65,-84,-98,-145,-98"},":":{"d":"115,-690v0,-82,69,-152,151,-152v82,0,152,70,152,152v0,82,-70,151,-152,151v-82,0,-151,-69,-151,-151xm115,-121v0,-82,69,-151,151,-151v82,0,152,69,152,151v0,82,-70,152,-152,152v-82,0,-151,-70,-151,-152","w":532,"k":{" ":82}},";":{"d":"244,-254v118,0,202,130,202,258v0,175,-188,363,-358,367r0,-35v130,-46,195,-123,195,-232v1,-28,-14,-76,-37,-77v-90,23,-154,-54,-154,-136v0,-85,66,-145,152,-145xm115,-690v0,-82,69,-152,151,-152v82,0,152,70,152,152v0,82,-70,151,-152,151v-82,0,-151,-69,-151,-151","w":532,"k":{" ":82}},"<":{"d":"1225,-147r-1086,-457r0,-119r1086,-457r0,142r-910,374r910,375r0,142","w":1366},"=":{"d":"137,-840r0,-127r1090,0r0,127r-1090,0xm137,-367r0,-127r1090,0r0,127r-1090,0","w":1366},">":{"d":"1227,-723r0,119r-1086,457r0,-142r910,-375r-910,-374r0,-142","w":1366},"?":{"d":"444,-754v71,-159,-31,-346,-190,-346v-63,0,-116,29,-160,88r-28,-26v30,-130,142,-241,290,-244v172,-4,334,170,326,346v-9,199,-88,300,-232,386v-86,51,-118,72,-126,175r-35,0v-43,-112,-3,-174,64,-247v47,-51,75,-96,91,-132xm170,-121v0,-82,70,-151,152,-151v82,0,151,69,151,151v0,82,-69,152,-151,152v-82,0,-152,-70,-152,-152","w":748},"@":{"d":"1055,-1423v413,-6,714,279,714,686v0,252,-121,501,-273,612v-84,61,-175,94,-277,94v-103,0,-154,-46,-154,-137v0,-36,5,-84,16,-143r-4,-4v-139,189,-269,284,-389,284v-107,1,-185,-115,-182,-231v6,-233,162,-468,308,-588v90,-74,170,-113,243,-113v95,0,159,54,172,138r4,0r31,-111r157,-20r-184,632v-18,67,-27,116,-27,146v-1,41,33,77,74,76v67,0,134,-32,202,-94v125,-114,224,-331,224,-560v0,-359,-284,-622,-649,-616v-360,6,-613,213,-744,477v-75,151,-114,309,-114,477v0,459,327,808,782,801v408,-6,673,-239,805,-555r57,0v-98,344,-442,615,-866,614v-356,-1,-623,-187,-759,-432v-155,-281,-143,-668,12,-948v149,-268,439,-479,821,-485xm1192,-778v0,-78,-47,-140,-121,-139v-53,0,-109,35,-172,101v-95,99,-228,355,-233,521v-2,71,49,144,116,143v84,0,173,-66,268,-198v95,-132,142,-275,142,-428","w":1905},"A":{"d":"756,-35v77,-18,127,-24,135,-92v-11,-87,-65,-194,-92,-276r-426,0v-25,77,-83,172,-83,257v0,53,40,90,120,111r0,35r-387,0r0,-35v130,-34,170,-126,225,-272r344,-922r164,0r364,959v60,137,83,213,223,235r0,35r-587,0r0,-35xm410,-489r356,0r-182,-486","w":1366,"k":{"y":123,"w":102,"v":123,"Y":154,"W":195,"V":246,"U":92,"T":164,"Q":82,"O":51,"G":51,"C":51}},"B":{"d":"1184,-315v-1,201,-178,315,-396,315r-722,0r0,-35v114,-26,151,-46,151,-168r0,-796v-2,-120,-40,-145,-151,-164r0,-35r632,0v227,-2,412,79,412,281v0,139,-89,233,-266,282r0,4v227,41,340,147,340,316xm578,-649v152,1,245,-91,245,-242v0,-159,-88,-239,-264,-239r-78,0r0,481r97,0xm897,-322v0,-160,-109,-263,-274,-260r-142,0r0,367v2,114,54,146,174,147v152,1,242,-100,242,-254","w":1260,"k":{".":20}},"C":{"d":"90,-582v0,-447,439,-779,902,-597v88,35,113,36,157,-40r33,0r0,439r-33,0v-46,-212,-176,-381,-408,-381v-248,0,-364,242,-364,520v0,321,138,555,432,555v184,0,278,-79,385,-190r0,63v-119,163,-280,244,-485,244v-359,0,-619,-255,-619,-613","w":1260},"D":{"d":"1397,-584v1,363,-266,584,-641,584r-693,0r0,-35v123,-40,152,-41,152,-194r0,-764v-4,-129,-39,-135,-152,-170r0,-35r613,0v414,-8,719,226,721,614xm1110,-596v0,-316,-167,-536,-475,-534r-156,0r0,921v3,116,68,141,195,141v294,0,436,-216,436,-528","w":1473,"k":{"Y":154,"W":102,"V":113,"A":143,".":102,",":82}},"E":{"d":"692,-635v109,-2,143,-51,166,-149r39,0r0,370r-39,0v-14,-102,-69,-153,-166,-153r-211,0r0,352v-8,141,93,147,234,147v117,0,201,-74,252,-223r34,0r-22,291r-913,0r0,-35v121,-29,151,-48,151,-192r0,-770v-3,-125,-40,-141,-151,-166r0,-35r899,0r0,266r-35,0v-41,-139,-61,-198,-217,-198r-232,0r0,495r211,0","w":1044},"F":{"d":"684,-639v124,-3,154,-47,186,-154r35,0r0,371r-35,0v-19,-104,-66,-149,-186,-149r-186,0r0,370v2,116,42,146,147,166r0,35r-563,0r0,-35v121,-22,151,-53,151,-194r0,-772v-4,-119,-44,-128,-151,-162r0,-35r850,0r24,225r-34,0v-40,-102,-88,-157,-217,-157r-207,0r0,491r186,0","w":981,"k":{"A":154,".":154,",":143}},"G":{"d":"86,-590v-8,-443,436,-764,893,-592v90,34,125,40,186,-16r37,0r0,336r-37,0v-59,-162,-209,-299,-411,-299v-121,0,-216,52,-282,155v-66,103,-99,249,-99,437v-1,310,106,532,385,532v120,0,180,-42,180,-127r0,-178v0,-82,-41,-131,-123,-147r0,-35r504,0r0,35v-89,26,-117,67,-117,180r0,254v-199,96,-589,125,-802,7v-175,-97,-310,-291,-314,-542","w":1366,"k":{".":41}},"H":{"d":"928,-35v117,-31,149,-48,149,-194r0,-353r-575,0r0,379v3,127,36,135,147,168r0,35r-563,0r0,-35v110,-31,152,-47,152,-194r0,-766v-3,-126,-40,-137,-152,-168r0,-35r563,0r0,35v-104,27,-147,45,-147,159r0,336r575,0r0,-327v-3,-125,-38,-137,-149,-168r0,-35r565,0r0,35v-125,39,-152,40,-152,194r0,766v4,126,39,136,152,168r0,35r-565,0r0,-35","w":1579},"I":{"d":"242,-995v-3,-126,-40,-137,-152,-168r0,-35r567,0r0,35v-119,32,-151,45,-151,192r0,768v3,127,39,135,151,168r0,35r-567,0r0,-35v110,-32,152,-46,152,-194r0,-766","w":748},"J":{"d":"315,-991v-3,-131,-37,-143,-153,-172r0,-35r567,0r0,35v-123,39,-149,38,-149,192r0,1061v2,226,-119,373,-340,373v-165,0,-298,-103,-314,-250r35,0v40,77,99,115,178,115v152,0,176,-107,176,-285r0,-1034","w":811,"k":{"u":51,"o":82,"e":82,"a":41,".":61}},"K":{"d":"616,-1163v-100,25,-149,48,-149,153r0,355r369,-355v70,-69,39,-129,-74,-153r0,-35r498,0r0,35v-56,0,-112,15,-166,45v-131,74,-297,255,-420,366r479,590v69,78,79,111,178,127r0,35r-547,0r0,-35v85,-20,104,-50,58,-108r-375,-465r0,391v4,140,29,140,149,182r0,35r-565,0r0,-35v116,-31,152,-44,152,-174r0,-786v-3,-127,-39,-137,-152,-168r0,-35r565,0r0,35","w":1343,"k":{"y":123,"u":31,"O":82}},"L":{"d":"221,-995v-3,-126,-40,-137,-151,-168r0,-35r567,0r0,35v-112,33,-152,38,-152,159r0,807v4,117,58,129,189,129v77,0,136,-16,178,-50v42,-34,87,-98,133,-193r35,0r-35,311r-915,0r0,-35v125,-37,151,-42,151,-194r0,-766","w":1044,"k":{"\u2019":123,"\u201d":123,"y":82,"Y":143,"W":205,"V":205,"T":143}},"M":{"d":"1227,-35v123,-23,152,-119,131,-264r-98,-684r-394,983r-43,0r-389,-983r-104,704v-23,133,15,241,141,244r0,35r-434,0r0,-35v154,-13,188,-102,213,-264r119,-782v-51,-53,-109,-80,-174,-82r0,-35r432,0r313,790r317,-790r406,0r0,35v-106,15,-152,74,-135,194r108,748v17,113,73,164,183,186r0,35r-592,0r0,-35","w":1855},"N":{"d":"1085,-934v-2,-157,-27,-199,-151,-229r0,-35r405,0r0,35v-116,7,-174,72,-174,196r0,981r-39,0r-862,-972r0,733v3,143,43,165,176,190r0,35r-413,0r0,-35v112,-19,157,-68,157,-196r0,-813v-77,-72,-77,-95,-159,-119r0,-35r360,0r700,803r0,-539","w":1366,"k":{".":61}},"O":{"d":"735,-1229v369,0,654,267,654,631v0,365,-285,629,-654,629v-369,0,-651,-265,-651,-629v0,-364,284,-631,651,-631xm1005,-181v128,-173,122,-661,3,-834v-66,-95,-153,-146,-273,-146v-119,0,-206,51,-271,146v-118,172,-124,657,1,833v67,94,153,145,270,145v115,0,201,-51,270,-144","w":1473,"k":{"Y":133,"X":113,"W":113,"V":113,"T":41,"A":133,".":72,",":61}},"P":{"d":"213,-999v-3,-127,-38,-135,-152,-164r0,-35r615,0v228,-5,409,111,409,317v0,224,-204,346,-456,346v-49,0,-100,-3,-152,-10r0,342v2,119,43,147,150,168r0,35r-566,0r0,-35v116,-26,152,-49,152,-182r0,-782xm799,-870v0,-144,-84,-261,-221,-260r-101,0r0,514v188,56,322,-62,322,-254","w":1110,"k":{"o":82,"e":82,"a":51,"A":184,".":358,",":358}},"Q":{"d":"1389,-600v-4,310,-195,535,-453,604r276,272v95,90,129,118,289,123r0,37v-144,40,-333,29,-457,-25v-138,-60,-278,-219,-389,-329v-33,-34,-86,-65,-159,-92v-181,-68,-292,-170,-363,-340v-33,-80,-49,-163,-49,-250v0,-363,284,-629,651,-629v368,0,658,266,654,629xm1006,-184v124,-177,118,-649,0,-830v-124,-190,-422,-190,-542,2v-112,179,-124,653,1,830v66,94,153,145,270,145v117,0,204,-51,271,-147","w":1473,"k":{"U":41,".":51}},"R":{"d":"471,-203v2,114,48,152,154,168r0,35r-570,0r0,-35v101,-8,152,-59,152,-153r0,-811v-3,-124,-41,-139,-152,-164r0,-35r570,0v149,0,265,26,345,79v80,53,120,127,120,222v0,157,-105,247,-242,285r0,4v28,7,56,33,91,70v49,52,224,397,275,447v29,28,65,49,113,56r0,35r-346,0v-63,-55,-217,-397,-283,-484v-57,-75,-82,-86,-227,-87r0,368xm471,-639v211,16,332,-50,332,-254v0,-158,-83,-237,-250,-237r-82,0r0,491","w":1343,"k":{"Y":174,"W":195,"V":195,"U":61,"T":92,"O":82}},"S":{"d":"461,-1229v53,0,179,34,225,33v19,0,40,-11,62,-33r34,0r0,316r-34,0v-35,-119,-159,-244,-297,-248v-123,-3,-240,103,-182,227v10,22,25,41,43,61v28,32,356,231,388,260v69,61,152,175,152,296v0,211,-177,348,-385,348v-71,0,-217,-47,-293,-47v-28,0,-48,13,-61,39r-35,0r0,-361r35,0v30,168,139,298,321,301v115,2,221,-64,221,-170v0,-40,-17,-75,-40,-113v-37,-61,-375,-249,-426,-306v-57,-65,-103,-142,-105,-253v-3,-207,165,-350,377,-350"},"T":{"d":"709,-213v2,125,37,156,147,178r0,35r-563,0r0,-35v115,-26,151,-46,151,-180r0,-915r-120,0v-157,2,-227,68,-267,196r-34,0r12,-289r37,0v26,17,65,25,118,25r773,0v54,0,93,-8,118,-25r37,0r12,289r-34,0v-40,-128,-109,-194,-267,-196r-120,0r0,917","w":1153,"k":{"y":287,"w":246,"u":184,"r":164,"o":174,"e":174,"a":143,"O":41,"A":164,".":164,"-":276,",":154}},"U":{"d":"1268,-203v3,127,39,135,151,168r0,35r-415,0r0,-160v-129,121,-184,186,-386,191v-245,6,-411,-156,-411,-398r0,-628v-3,-126,-40,-137,-152,-168r0,-35r568,0r0,35v-115,31,-152,44,-152,178r0,670v-2,143,84,236,225,235v99,0,201,-55,308,-166r0,-749v-4,-127,-39,-135,-152,-168r0,-35r567,0r0,35v-118,29,-151,47,-151,192r0,768","w":1473,"k":{"A":61,".":20,",":20}},"V":{"d":"1231,-1198r0,35v-125,31,-157,90,-207,221r-369,973r-39,0r-378,-961v-64,-143,-72,-202,-211,-233r0,-35r544,0r0,35v-107,19,-115,79,-79,172r239,608r213,-575v43,-110,17,-186,-110,-205r0,-35r397,0","w":1260,"k":{"u":154,"o":256,"e":256,"a":215,"O":123,"G":123,"A":266,";":82,":":82,".":328,"-":205,",":328}},"W":{"d":"905,-1026v-44,-95,-60,-117,-170,-137r0,-35r510,0r0,35v-71,18,-90,70,-65,137r227,606r166,-493v44,-129,59,-219,-74,-250r0,-35r373,0r0,35v-49,5,-90,30,-126,73v-36,43,-69,109,-99,199r-314,922r-37,0r-352,-944r-317,944r-35,0r-373,-1002v-29,-78,-55,-128,-78,-151v-23,-23,-60,-37,-112,-41r0,-35r516,0r0,35v-87,15,-93,86,-62,166r217,577","w":1898,"k":{"y":154,"u":174,"o":225,"i":20,"e":225,"a":205,"O":92,"A":236,";":82,":":82,".":256,"-":184,",":256}},"X":{"d":"979,-952r-191,254r359,516v75,97,82,119,192,147r0,35r-596,0r0,-35v126,1,125,-94,70,-174r-186,-272r-164,211v-45,57,-67,106,-67,147v0,46,28,75,83,88r0,35r-436,0r0,-35v101,-7,202,-78,303,-213r229,-303r-321,-465v-63,-87,-98,-129,-211,-147r0,-35r584,0r0,35v-99,8,-98,91,-52,157r168,240r166,-225v57,-76,52,-153,-57,-172r0,-35r416,0r0,35v-87,0,-184,70,-289,211","w":1366},"Y":{"d":"356,-35v108,-17,152,-56,152,-176r0,-350r-311,-477v-55,-77,-73,-110,-170,-125r0,-35r546,0r0,35v-110,5,-100,73,-53,145r207,320r182,-263v62,-85,66,-175,-49,-202r0,-35r371,0r0,35v-62,6,-120,49,-176,129r-283,403r0,428v3,120,43,146,152,168r0,35r-568,0r0,-35","w":1260,"k":{"u":205,"o":236,"e":236,"a":184,"S":41,"O":123,"A":154,";":82,":":82,".":195,"-":287,",":225}},"Z":{"d":"846,-68v224,-6,253,-74,340,-245r37,0r-52,313r-1136,0r0,-35r809,-1095r-453,0v-183,6,-209,77,-270,233r-35,0r35,-301r1065,0r0,33r-807,1097r467,0","w":1260},"[":{"d":"422,424v-1,132,126,135,266,131r0,47r-498,0r0,-1862r498,0r0,48r-90,0v-117,0,-176,43,-176,129r0,1507","w":748},"\\":{"d":"166,-1210r149,0r607,1241r-150,0","w":1087},"]":{"d":"326,-1083v6,-134,-129,-132,-267,-129r0,-48r498,0r0,1862r-498,0r0,-47r91,0v117,0,176,-44,176,-131r0,-1507","w":748},"^":{"d":"299,-668r-152,0r406,-718r84,0r405,718r-151,0r-297,-512","w":1190},"_":{"d":"1042,154r0,102r-1058,0r0,-102r1058,0","w":1024},"`":{"d":"438,-926r-461,-344r369,0r127,344r-35,0","w":682},"a":{"d":"715,31v-103,-1,-150,-36,-187,-109v-66,67,-161,109,-262,109v-119,0,-231,-89,-231,-203v0,-56,22,-103,67,-140v45,-37,138,-74,280,-111v69,-18,118,-33,148,-44v-1,-140,-55,-202,-192,-203v-105,0,-182,43,-232,129r-30,0v37,-157,159,-261,346,-262v196,-1,340,100,340,289r0,364v-11,131,93,132,108,31r33,0v-8,98,-80,151,-188,150xm326,-314v-80,68,-63,262,57,261v43,0,92,-27,145,-80r0,-293v-102,43,-167,83,-202,112","k":{"y":72,"w":72,"v":72,"t":20,"p":31,"b":31}},"b":{"d":"1055,-403v-4,292,-209,434,-520,434v-147,0,-273,-10,-377,-31r0,-1110v0,-63,-39,-101,-117,-115r0,-35r313,-22r35,0r0,620v90,-94,189,-141,297,-141v210,0,372,185,369,400xm569,-698v-91,0,-116,37,-180,92r0,452v1,92,32,129,123,129v191,0,287,-118,287,-354v0,-168,-79,-319,-230,-319","w":1130,"k":{"y":41,"v":41,"u":20,"l":31,"b":31,".":41}},"c":{"d":"537,-803v61,0,201,23,254,25v21,0,41,-8,61,-25r33,0r18,281r-35,0v-73,-156,-168,-234,-284,-234v-173,0,-254,152,-254,342v0,201,95,348,284,348v146,0,191,-52,271,-145r41,0v-77,161,-215,242,-416,242v-249,0,-436,-159,-436,-402v0,-246,211,-432,463,-432","w":961,"k":{"y":-31,".":-20,",":-20}},"d":{"d":"756,-1079v-3,-120,-63,-140,-191,-146r0,-35r422,-22r0,1071v3,142,27,149,154,176r0,35r-578,0v-290,4,-490,-130,-493,-397v-4,-237,171,-406,409,-406v106,0,198,26,277,78r0,-354xm616,-47v114,0,140,-54,140,-176r0,-400v-59,-83,-131,-125,-217,-125v-151,0,-213,161,-213,336v0,205,106,365,290,365","w":1173,"k":{"y":41,"w":31,"v":31,"d":20}},"e":{"d":"326,-455v-16,207,95,385,274,385v111,0,204,-56,277,-168r34,0v-60,152,-213,266,-413,269v-234,4,-422,-179,-422,-412v0,-236,193,-422,430,-422v224,0,382,145,405,348r-585,0xm662,-502v-6,-122,-63,-246,-173,-246v-110,0,-159,122,-163,246r336,0","w":961,"k":{"y":31,"w":20,"v":20}},"f":{"d":"674,-997v11,-116,-40,-230,-135,-230v-85,0,-127,75,-127,226r0,229r172,0r0,63r-172,0r0,498v4,150,22,147,159,176r0,35r-538,0r0,-35v118,-20,147,-39,147,-174r0,-500r-123,0r0,-28v102,-26,127,-61,135,-191v8,-136,36,-198,103,-266v112,-113,450,-121,575,-2r-163,199r-33,0","w":641,"k":{"\u2019":-276,"\u201d":-297,"a":-41,".":-82,",":-82}},"g":{"d":"332,-213v-150,-48,-254,-107,-258,-272v-5,-192,185,-324,391,-318r115,4r403,0r0,140r-197,-15r-4,4v70,59,105,124,105,197v-1,175,-179,283,-373,283v-90,0,-154,8,-192,19v-65,19,-78,86,-15,112v27,12,89,23,185,32v139,14,239,34,301,58v102,39,188,121,188,239v0,230,-250,351,-516,351v-131,0,-238,-22,-321,-67v-83,-45,-124,-102,-124,-173v0,-142,170,-216,330,-229r0,-5v-93,-9,-161,-30,-205,-57v-76,-46,-92,-177,-11,-229v37,-24,103,-49,198,-70r0,-4xm655,-500v0,-133,-50,-245,-166,-245v-123,0,-184,84,-184,251v0,133,57,248,176,248v126,0,174,-112,174,-254xm422,178v-106,0,-213,32,-213,119v0,59,45,105,134,141v89,36,193,54,310,54v98,0,197,-43,197,-127v0,-58,-42,-104,-126,-137v-84,-33,-185,-50,-302,-50","w":1044,"k":{"r":-41,"i":-41,".":61,",":-51}},"h":{"d":"176,-1098v-3,-87,-39,-105,-117,-127r0,-35r314,-22r35,0r0,666r4,0v70,-111,135,-184,288,-187v170,-4,273,120,273,295r0,334v1,95,38,120,121,139r0,35r-473,0r0,-35v84,-24,120,-48,120,-145r0,-312v0,-124,-46,-186,-139,-186v-100,0,-132,53,-194,127r0,381v2,93,40,114,122,135r0,35r-471,0r0,-35v83,-22,117,-49,117,-145r0,-918","w":1153,"k":{"y":82}},"i":{"d":"190,-594v-3,-111,-36,-120,-139,-143r0,-35r336,-31r35,0r0,637v0,77,42,121,125,131r0,35r-486,0r0,-35v98,-22,129,-37,129,-147r0,-412xm307,-1014v-72,0,-135,-63,-135,-135v0,-72,63,-133,135,-133v72,0,133,61,133,133v0,72,-61,135,-133,135","w":598,"k":{"v":31}},"j":{"d":"420,84v5,289,-134,420,-393,426v-33,0,-63,-3,-90,-10r0,-33v195,-1,251,-102,251,-309r0,-772v-4,-92,-54,-107,-147,-123r0,-35r344,-31r35,0r0,887xm307,-1014v-72,0,-135,-63,-135,-135v0,-72,63,-133,135,-133v72,0,133,61,133,133v0,72,-61,135,-133,135","w":598},"k":{"d":"408,-193v3,122,18,121,116,158r0,35r-465,0r0,-35v79,-24,117,-42,117,-133r0,-936v-3,-85,-39,-98,-117,-121r0,-35r314,-22r35,0r0,866r274,-198v21,-15,31,-35,31,-59v0,-42,-37,-65,-84,-64r0,-35r426,0r0,35v-121,19,-153,38,-244,102r-203,143r365,381v48,51,64,66,143,76r0,35r-352,0r-356,-369r0,176","w":1153,"k":{"y":41,"o":41,"e":41}},"l":{"d":"418,-188v3,119,31,125,137,153r0,35r-514,0r0,-35v103,-19,145,-41,145,-153r0,-883v-2,-114,-35,-147,-145,-154r0,-35r342,-22r35,0r0,1094","w":598,"k":{"y":41,"w":31}},"m":{"d":"178,-586v-3,-114,-35,-128,-139,-151r0,-35r336,-31r35,0r0,191r4,0v60,-127,151,-191,272,-191v129,0,213,64,252,191v69,-114,126,-188,279,-191v165,-3,249,112,249,283r0,334v2,105,33,126,121,151r0,35r-475,0r0,-35v78,-19,123,-44,123,-131r0,-371v2,-78,-50,-140,-125,-139v-79,0,-136,55,-172,166r0,336v2,96,37,116,121,139r0,35r-475,0r0,-35v77,-20,123,-45,123,-129r0,-387v2,-68,-53,-125,-119,-125v-69,0,-128,45,-178,135r0,355v2,109,31,126,122,151r0,35r-475,0r0,-35v81,-21,121,-44,121,-137r0,-414","w":1642,"k":{"y":82,"u":20}},"n":{"d":"178,-600v-2,-100,-44,-122,-139,-137r0,-35r336,-31r35,0r0,189r4,0v74,-126,172,-189,293,-189v154,-1,270,119,270,281r0,338v2,106,33,124,121,149r0,35r-475,0r0,-35v84,-20,122,-44,122,-139r0,-320v1,-106,-45,-183,-143,-184v-79,0,-143,45,-192,135r0,361v2,102,31,119,114,147r0,35r-467,0r0,-35v81,-22,121,-42,121,-133r0,-432","w":1153,"k":{"y":82,"v":72,"u":31}},"o":{"d":"555,-803v267,0,481,169,481,416v0,248,-215,418,-481,418v-267,0,-490,-169,-483,-418v7,-260,202,-416,483,-416xm555,-25v165,0,225,-169,225,-362v0,-196,-57,-361,-225,-361v-174,0,-227,171,-227,375v0,183,68,348,227,348","w":1110,"k":{"y":61,"x":31,"w":61,"v":61,".":51,",":41}},"p":{"d":"186,-571v-2,-128,-30,-140,-139,-166r0,-35r336,-31r35,0r0,150v87,-100,190,-150,311,-150v212,0,365,188,365,408v0,239,-171,431,-406,426v-136,-3,-172,-41,-270,-113r0,488v3,123,34,137,143,163r0,33r-514,0r0,-35v121,-18,139,-51,139,-194r0,-944xm838,-371v0,-177,-68,-329,-224,-329v-75,0,-140,34,-196,102r0,461v60,60,123,90,190,90v152,-2,230,-153,230,-324","w":1173,"k":{"y":41,".":51,",":41}},"q":{"d":"997,424v3,106,29,119,123,143r0,35r-510,0r0,-35v108,-12,156,-41,156,-155r0,-484v-114,63,-165,100,-305,103v-230,5,-378,-165,-375,-398v3,-283,226,-436,537,-436v105,0,229,10,374,31r0,1196xm342,-389v0,184,75,319,244,321v56,0,116,-20,180,-59r0,-594v-47,-18,-90,-27,-129,-27v-202,1,-295,145,-295,359","w":1173},"r":{"d":"176,-586v-1,-101,-45,-143,-141,-151r0,-35r338,-31r35,0r0,246r4,0v73,-164,159,-246,256,-246v53,0,99,22,137,66r-51,233v-70,-67,-128,-100,-174,-100v-93,0,-120,44,-172,110r0,316v2,111,32,120,131,143r0,35r-492,0r0,-35v92,-25,129,-39,129,-143r0,-408","w":831,"k":{"y":-41,"v":-51,"u":-51,"t":-72,"s":-20,"r":-61,"q":20,"p":-41,"n":-61,"m":-61,"i":-41,";":-41,":":-41,".":123,",":123}},"s":{"d":"403,31v-100,0,-224,-65,-288,0r-35,0r0,-299r35,0v77,162,171,243,280,243v68,0,138,-48,137,-112v0,-33,-12,-63,-37,-87v-25,-24,-78,-52,-160,-84v-105,-41,-174,-80,-207,-118v-33,-38,-50,-86,-50,-141v-1,-138,123,-236,270,-236v25,0,152,23,205,23v12,0,28,-8,47,-23r35,0r0,242r-35,0v-39,-100,-117,-183,-238,-187v-63,-2,-128,31,-129,86v0,25,10,46,31,64v21,18,67,42,139,69v111,43,186,86,223,130v37,44,56,98,56,163v0,144,-139,267,-279,267","w":748,"k":{"w":41}},"t":{"d":"410,-266v1,126,28,198,141,198v41,0,78,-20,113,-61r24,23v-54,91,-137,137,-248,137v-161,1,-263,-87,-262,-246r0,-496r-139,0r0,-39v103,-63,214,-170,332,-321r39,0r0,299r254,0r0,61r-254,0r0,445","w":705},"u":{"d":"969,-188v3,115,26,125,123,153r0,35r-355,31r0,-189r-4,0v-83,126,-185,189,-307,189v-154,0,-257,-85,-256,-236r0,-399v-2,-95,-35,-116,-121,-133r0,-35r318,-31r34,0r0,570v0,86,56,138,144,135v109,-4,134,-57,192,-140r0,-385v0,-62,-40,-100,-121,-114r0,-35r318,-31r35,0r0,615","w":1153},"v":{"d":"993,-772r0,35v-104,18,-136,81,-184,182r-279,586r-43,0r-290,-600v-56,-102,-75,-155,-191,-168r0,-35r481,0r0,35v-72,12,-89,65,-59,125r178,360r139,-287v47,-89,54,-190,-63,-198r0,-35r311,0","w":1024,"k":{"o":41,"e":41,"a":31,".":164,",":164}},"w":{"d":"1526,-772r0,35v-79,21,-142,82,-187,186r-252,582r-40,0r-277,-609r-260,609r-41,0r-279,-609v-49,-97,-70,-151,-182,-159r0,-35r502,0r0,35v-93,2,-105,92,-70,166r140,297r161,-367v-28,-51,-73,-83,-135,-96r0,-35r471,0r0,35v-81,33,-100,69,-65,143r149,320r109,-252v40,-88,50,-205,-58,-211r0,-35r314,0","w":1556,"k":{"o":61,"h":51,"e":61,"a":20,".":133,",":143}},"x":{"d":"1057,-737v-116,26,-164,70,-244,153r-143,148r243,299v56,64,79,94,174,102r0,35r-532,0r0,-35v88,-2,96,-61,53,-115r-127,-161r-114,110v-63,54,-72,146,22,166r0,35r-373,0r0,-35v135,-19,179,-68,275,-166r151,-155v-87,-103,-202,-267,-296,-341v-33,-26,-70,-38,-111,-40r0,-35r520,0r0,35v-66,-6,-71,71,-39,110r117,144r98,-101v55,-52,65,-129,-16,-153r0,-35r342,0r0,35","w":1130,"k":{"e":61}},"y":{"d":"997,-772r0,35v-123,37,-129,68,-186,198r-389,889v-77,178,-159,273,-395,252r47,-233v112,37,208,17,278,-60v47,-52,96,-145,146,-278r-283,-596v-55,-111,-72,-140,-188,-172r0,-35r471,0r0,35v-99,18,-80,74,-41,155r164,338r106,-248v27,-63,41,-112,41,-148v0,-52,-31,-84,-92,-97r0,-35r321,0","w":1024,"k":{"o":61,"e":61,"a":20,".":164,",":164}},"z":{"d":"467,-717v-162,0,-297,78,-365,180r-34,0r20,-235r786,0r0,35r-524,682r115,0v201,0,334,-70,397,-211r35,0r-23,266r-823,0r0,-35r522,-682r-106,0"},"{":{"d":"367,215v-2,-80,46,-231,45,-311v-1,-122,-108,-203,-228,-215r0,-33v120,-12,226,-94,228,-215v1,-80,-45,-231,-45,-311v0,-209,179,-366,378,-387r-8,36v-147,37,-221,117,-221,238v0,57,48,240,45,311v-8,178,-140,291,-295,342r0,4v155,52,287,163,295,342v4,76,-45,251,-45,312v0,121,74,200,221,237r8,37v-200,-22,-373,-178,-378,-387","w":807},"|":{"d":"473,420r0,-1702r133,0r0,1702r-133,0","w":1079},"}":{"d":"440,-870v2,92,-45,242,-45,311v1,121,108,203,228,215r0,33v-120,13,-226,93,-228,215v0,68,47,221,45,311v-5,208,-180,365,-379,387r9,-37v147,-37,221,-116,221,-237v0,-68,-48,-244,-45,-312v8,-178,141,-290,295,-342r0,-4v-156,-51,-287,-163,-295,-342v-3,-64,45,-245,45,-311v0,-121,-74,-201,-221,-238r-9,-36v201,21,374,177,379,387","w":807},"~":{"d":"952,-489v-160,5,-466,-181,-583,-181v-97,0,-154,59,-172,178r-64,0v-2,-192,96,-342,273,-344v72,0,179,31,321,92v141,61,230,91,268,91v107,-1,164,-76,174,-181r64,0v-7,193,-98,340,-281,345","w":1366},"\u00c4":{"d":"756,-35v77,-18,127,-24,135,-92v-11,-87,-65,-194,-92,-276r-426,0v-25,77,-83,172,-83,257v0,53,40,90,120,111r0,35r-387,0r0,-35v130,-34,170,-126,225,-272r344,-922r164,0r364,959v60,137,83,213,223,235r0,35r-587,0r0,-35xm410,-489r356,0r-182,-486xm354,-1487v0,-71,64,-135,135,-135v71,0,136,64,136,135v0,72,-65,136,-136,136v-71,0,-135,-65,-135,-136xm743,-1487v0,-71,65,-135,136,-135v71,0,135,64,135,135v0,71,-64,136,-135,136v-72,0,-136,-64,-136,-136","w":1366},"\u00c5":{"d":"756,-35v77,-18,127,-24,135,-92v-11,-87,-65,-194,-92,-276r-426,0v-25,77,-83,172,-83,257v0,53,40,90,120,111r0,35r-387,0r0,-35v130,-34,170,-126,225,-272r344,-922r164,0r364,959v60,137,83,213,223,235r0,35r-587,0r0,-35xm410,-489r356,0r-182,-486xm492,-1487v0,-103,89,-192,192,-192v104,0,193,88,193,192v0,104,-89,193,-193,193v-104,0,-192,-89,-192,-193xm805,-1487v0,-65,-55,-120,-121,-120v-66,0,-121,55,-121,120v0,66,55,121,121,121v66,0,121,-55,121,-121","w":1366},"\u00c7":{"d":"90,-582v0,-447,439,-779,902,-597v88,35,113,36,157,-40r33,0r0,439r-33,0v-46,-212,-176,-381,-408,-381v-248,0,-364,242,-364,520v0,321,138,555,432,555v184,0,278,-79,385,-190r0,63v-119,163,-280,244,-485,244v-359,0,-619,-255,-619,-613xm646,109v105,-3,199,73,197,174v-3,179,-189,280,-385,282r10,-37v104,-9,207,-70,207,-168v0,-60,-46,-97,-137,-110r108,-285r48,0","w":1260},"\u00c9":{"d":"692,-635v109,-2,143,-51,166,-149r39,0r0,370r-39,0v-14,-102,-69,-153,-166,-153r-211,0r0,352v-8,141,93,147,234,147v117,0,201,-74,252,-223r34,0r-22,291r-913,0r0,-35v121,-29,151,-48,151,-192r0,-770v-3,-125,-40,-141,-151,-166r0,-35r899,0r0,266r-35,0v-41,-139,-61,-198,-217,-198r-232,0r0,495r211,0xm518,-1667r369,0r-461,344r-35,0","w":1044},"\u00d1":{"d":"1085,-934v-2,-157,-27,-199,-151,-229r0,-35r405,0r0,35v-116,7,-174,72,-174,196r0,981r-39,0r-862,-972r0,733v3,143,43,165,176,190r0,35r-413,0r0,-35v112,-19,157,-68,157,-196r0,-813v-77,-72,-77,-95,-159,-119r0,-35r360,0r700,803r0,-539xm580,-1618v70,-3,251,93,321,93v45,0,80,-28,105,-84r26,0v5,142,-103,267,-235,266v-59,12,-254,-92,-316,-92v-56,0,-93,28,-112,84r-35,0v8,-146,101,-261,246,-267","w":1366},"\u00d6":{"d":"735,-1229v369,0,654,267,654,631v0,365,-285,629,-654,629v-369,0,-651,-265,-651,-629v0,-364,284,-631,651,-631xm1005,-181v128,-173,122,-661,3,-834v-66,-95,-153,-146,-273,-146v-119,0,-206,51,-271,146v-118,172,-124,657,1,833v67,94,153,145,270,145v115,0,201,-51,270,-144xm407,-1487v0,-71,64,-135,135,-135v71,0,136,64,136,135v0,72,-65,136,-136,136v-71,0,-135,-65,-135,-136xm796,-1487v0,-71,65,-135,136,-135v71,0,135,64,135,135v0,71,-64,136,-135,136v-72,0,-136,-64,-136,-136","w":1473},"\u00dc":{"d":"1268,-203v3,127,39,135,151,168r0,35r-415,0r0,-160v-129,121,-184,186,-386,191v-245,6,-411,-156,-411,-398r0,-628v-3,-126,-40,-137,-152,-168r0,-35r568,0r0,35v-115,31,-152,44,-152,178r0,670v-2,143,84,236,225,235v99,0,201,-55,308,-166r0,-749v-4,-127,-39,-135,-152,-168r0,-35r567,0r0,35v-118,29,-151,47,-151,192r0,768xm407,-1487v0,-71,64,-135,135,-135v71,0,136,64,136,135v0,72,-65,136,-136,136v-71,0,-135,-65,-135,-136xm796,-1487v0,-71,65,-135,136,-135v71,0,135,64,135,135v0,71,-64,136,-135,136v-72,0,-136,-64,-136,-136","w":1473},"\u00e1":{"d":"715,31v-103,-1,-150,-36,-187,-109v-66,67,-161,109,-262,109v-119,0,-231,-89,-231,-203v0,-56,22,-103,67,-140v45,-37,138,-74,280,-111v69,-18,118,-33,148,-44v-1,-140,-55,-202,-192,-203v-105,0,-182,43,-232,129r-30,0v37,-157,159,-261,346,-262v196,-1,340,100,340,289r0,364v-11,131,93,132,108,31r33,0v-8,98,-80,151,-188,150xm326,-314v-80,68,-63,262,57,261v43,0,92,-27,145,-80r0,-293v-102,43,-167,83,-202,112xm399,-1270r369,0r-461,344r-35,0"},"\u00e0":{"d":"715,31v-103,-1,-150,-36,-187,-109v-66,67,-161,109,-262,109v-119,0,-231,-89,-231,-203v0,-56,22,-103,67,-140v45,-37,138,-74,280,-111v69,-18,118,-33,148,-44v-1,-140,-55,-202,-192,-203v-105,0,-182,43,-232,129r-30,0v37,-157,159,-261,346,-262v196,-1,340,100,340,289r0,364v-11,131,93,132,108,31r33,0v-8,98,-80,151,-188,150xm326,-314v-80,68,-63,262,57,261v43,0,92,-27,145,-80r0,-293v-102,43,-167,83,-202,112xm501,-926r-461,-344r369,0r127,344r-35,0"},"\u00e2":{"d":"715,31v-103,-1,-150,-36,-187,-109v-66,67,-161,109,-262,109v-119,0,-231,-89,-231,-203v0,-56,22,-103,67,-140v45,-37,138,-74,280,-111v69,-18,118,-33,148,-44v-1,-140,-55,-202,-192,-203v-105,0,-182,43,-232,129r-30,0v37,-157,159,-261,346,-262v196,-1,340,100,340,289r0,364v-11,131,93,132,108,31r33,0v-8,98,-80,151,-188,150xm326,-314v-80,68,-63,262,57,261v43,0,92,-27,145,-80r0,-293v-102,43,-167,83,-202,112xm256,-1282r299,0r182,379r-37,0r-295,-213r-295,213r-39,0"},"\u00e4":{"d":"715,31v-103,-1,-150,-36,-187,-109v-66,67,-161,109,-262,109v-119,0,-231,-89,-231,-203v0,-56,22,-103,67,-140v45,-37,138,-74,280,-111v69,-18,118,-33,148,-44v-1,-140,-55,-202,-192,-203v-105,0,-182,43,-232,129r-30,0v37,-157,159,-261,346,-262v196,-1,340,100,340,289r0,364v-11,131,93,132,108,31r33,0v-8,98,-80,151,-188,150xm326,-314v-80,68,-63,262,57,261v43,0,92,-27,145,-80r0,-293v-102,43,-167,83,-202,112xm132,-1090v0,-71,64,-135,135,-135v71,0,136,64,136,135v0,72,-65,136,-136,136v-71,0,-135,-65,-135,-136xm521,-1090v0,-71,65,-135,136,-135v71,0,135,64,135,135v0,71,-64,136,-135,136v-72,0,-136,-64,-136,-136"},"\u00e3":{"d":"715,31v-103,-1,-150,-36,-187,-109v-66,67,-161,109,-262,109v-119,0,-231,-89,-231,-203v0,-56,22,-103,67,-140v45,-37,138,-74,280,-111v69,-18,118,-33,148,-44v-1,-140,-55,-202,-192,-203v-105,0,-182,43,-232,129r-30,0v37,-157,159,-261,346,-262v196,-1,340,100,340,289r0,364v-11,131,93,132,108,31r33,0v-8,98,-80,151,-188,150xm326,-314v-80,68,-63,262,57,261v43,0,92,-27,145,-80r0,-293v-102,43,-167,83,-202,112xm358,-1221v70,-3,251,93,321,93v45,0,80,-28,105,-84r26,0v5,142,-103,267,-235,266v-59,12,-254,-92,-316,-92v-56,0,-93,28,-112,84r-35,0v8,-146,101,-261,246,-267"},"\u00e5":{"d":"715,31v-103,-1,-150,-36,-187,-109v-66,67,-161,109,-262,109v-119,0,-231,-89,-231,-203v0,-56,22,-103,67,-140v45,-37,138,-74,280,-111v69,-18,118,-33,148,-44v-1,-140,-55,-202,-192,-203v-105,0,-182,43,-232,129r-30,0v37,-157,159,-261,346,-262v196,-1,340,100,340,289r0,364v-11,131,93,132,108,31r33,0v-8,98,-80,151,-188,150xm326,-314v-80,68,-63,262,57,261v43,0,92,-27,145,-80r0,-293v-102,43,-167,83,-202,112xm250,-1090v0,-103,89,-192,192,-192v104,0,193,88,193,192v0,104,-89,193,-193,193v-104,0,-192,-89,-192,-193xm563,-1090v0,-65,-55,-120,-121,-120v-66,0,-121,55,-121,120v0,66,55,121,121,121v66,0,121,-55,121,-121"},"\u00e7":{"d":"537,-803v61,0,201,23,254,25v21,0,41,-8,61,-25r33,0r18,281r-35,0v-73,-156,-168,-234,-284,-234v-173,0,-254,152,-254,342v0,201,95,348,284,348v146,0,191,-52,271,-145r41,0v-77,161,-215,242,-416,242v-249,0,-436,-159,-436,-402v0,-246,211,-432,463,-432xm460,109v105,-3,199,73,197,174v-3,179,-189,280,-385,282r10,-37v104,-9,207,-70,207,-168v0,-60,-46,-97,-137,-110r108,-285r48,0","w":961},"\u00e9":{"d":"326,-455v-16,207,95,385,274,385v111,0,204,-56,277,-168r34,0v-60,152,-213,266,-413,269v-234,4,-422,-179,-422,-412v0,-236,193,-422,430,-422v224,0,382,145,405,348r-585,0xm662,-502v-6,-122,-63,-246,-173,-246v-110,0,-159,122,-163,246r336,0xm456,-1270r369,0r-461,344r-35,0","w":961},"\u00e8":{"d":"326,-455v-16,207,95,385,274,385v111,0,204,-56,277,-168r34,0v-60,152,-213,266,-413,269v-234,4,-422,-179,-422,-412v0,-236,193,-422,430,-422v224,0,382,145,405,348r-585,0xm662,-502v-6,-122,-63,-246,-173,-246v-110,0,-159,122,-163,246r336,0xm528,-926r-461,-344r369,0r127,344r-35,0","w":961},"\u00ea":{"d":"326,-455v-16,207,95,385,274,385v111,0,204,-56,277,-168r34,0v-60,152,-213,266,-413,269v-234,4,-422,-179,-422,-412v0,-236,193,-422,430,-422v224,0,382,145,405,348r-585,0xm662,-502v-6,-122,-63,-246,-173,-246v-110,0,-159,122,-163,246r336,0xm323,-1282r299,0r182,379r-37,0r-295,-213r-295,213r-39,0","w":961},"\u00eb":{"d":"326,-455v-16,207,95,385,274,385v111,0,204,-56,277,-168r34,0v-60,152,-213,266,-413,269v-234,4,-422,-179,-422,-412v0,-236,193,-422,430,-422v224,0,382,145,405,348r-585,0xm662,-502v-6,-122,-63,-246,-173,-246v-110,0,-159,122,-163,246r336,0xm142,-1090v0,-71,64,-135,135,-135v71,0,136,64,136,135v0,72,-65,136,-136,136v-71,0,-135,-65,-135,-136xm531,-1090v0,-71,65,-135,136,-135v71,0,135,64,135,135v0,71,-64,136,-135,136v-72,0,-136,-64,-136,-136","w":961},"\u00ed":{"d":"190,-594v-3,-111,-36,-120,-139,-143r0,-35r336,-31r35,0r0,637v0,77,42,121,125,131r0,35r-486,0r0,-35v98,-22,129,-37,129,-147r0,-412xm316,-1270r369,0r-461,344r-35,0","w":598},"\u00ec":{"d":"190,-594v-3,-111,-36,-120,-139,-143r0,-35r336,-31r35,0r0,637v0,77,42,121,125,131r0,35r-486,0r0,-35v98,-22,129,-37,129,-147r0,-412xm418,-926r-461,-344r369,0r127,344r-35,0","w":598},"\u00ee":{"d":"190,-594v-3,-111,-36,-120,-139,-143r0,-35r336,-31r35,0r0,637v0,77,42,121,125,131r0,35r-486,0r0,-35v98,-22,129,-37,129,-147r0,-412xm173,-1282r299,0r182,379r-37,0r-295,-213r-295,213r-39,0","w":598},"\u00ef":{"d":"190,-594v-3,-111,-36,-120,-139,-143r0,-35r336,-31r35,0r0,637v0,77,42,121,125,131r0,35r-486,0r0,-35v98,-22,129,-37,129,-147r0,-412xm-8,-1090v0,-71,64,-135,135,-135v71,0,136,64,136,135v0,72,-65,136,-136,136v-71,0,-135,-65,-135,-136xm381,-1090v0,-71,65,-135,136,-135v71,0,135,64,135,135v0,71,-64,136,-135,136v-72,0,-136,-64,-136,-136","w":598},"\u00f1":{"d":"178,-600v-2,-100,-44,-122,-139,-137r0,-35r336,-31r35,0r0,189r4,0v74,-126,172,-189,293,-189v154,-1,270,119,270,281r0,338v2,106,33,124,121,149r0,35r-475,0r0,-35v84,-20,122,-44,122,-139r0,-320v1,-106,-45,-183,-143,-184v-79,0,-143,45,-192,135r0,361v2,102,31,119,114,147r0,35r-467,0r0,-35v81,-22,121,-42,121,-133r0,-432xm448,-1221v70,-3,251,93,321,93v45,0,80,-28,105,-84r26,0v5,142,-103,267,-235,266v-59,12,-254,-92,-316,-92v-56,0,-93,28,-112,84r-35,0v8,-146,101,-261,246,-267","w":1153},"\u00f3":{"d":"555,-803v267,0,481,169,481,416v0,248,-215,418,-481,418v-267,0,-490,-169,-483,-418v7,-260,202,-416,483,-416xm555,-25v165,0,225,-169,225,-362v0,-196,-57,-361,-225,-361v-174,0,-227,171,-227,375v0,183,68,348,227,348xm486,-1270r369,0r-461,344r-35,0","w":1110},"\u00f2":{"d":"555,-803v267,0,481,169,481,416v0,248,-215,418,-481,418v-267,0,-490,-169,-483,-418v7,-260,202,-416,483,-416xm555,-25v165,0,225,-169,225,-362v0,-196,-57,-361,-225,-361v-174,0,-227,171,-227,375v0,183,68,348,227,348xm588,-926r-461,-344r369,0r127,344r-35,0","w":1110},"\u00f4":{"d":"555,-803v267,0,481,169,481,416v0,248,-215,418,-481,418v-267,0,-490,-169,-483,-418v7,-260,202,-416,483,-416xm555,-25v165,0,225,-169,225,-362v0,-196,-57,-361,-225,-361v-174,0,-227,171,-227,375v0,183,68,348,227,348xm373,-1282r299,0r182,379r-37,0r-295,-213r-295,213r-39,0","w":1110},"\u00f6":{"d":"555,-803v267,0,481,169,481,416v0,248,-215,418,-481,418v-267,0,-490,-169,-483,-418v7,-260,202,-416,483,-416xm555,-25v165,0,225,-169,225,-362v0,-196,-57,-361,-225,-361v-174,0,-227,171,-227,375v0,183,68,348,227,348xm222,-1090v0,-71,64,-135,135,-135v71,0,136,64,136,135v0,72,-65,136,-136,136v-71,0,-135,-65,-135,-136xm611,-1090v0,-71,65,-135,136,-135v71,0,135,64,135,135v0,71,-64,136,-135,136v-72,0,-136,-64,-136,-136","w":1110},"\u00f5":{"d":"555,-803v267,0,481,169,481,416v0,248,-215,418,-481,418v-267,0,-490,-169,-483,-418v7,-260,202,-416,483,-416xm555,-25v165,0,225,-169,225,-362v0,-196,-57,-361,-225,-361v-174,0,-227,171,-227,375v0,183,68,348,227,348xm455,-1221v70,-3,251,93,321,93v45,0,80,-28,105,-84r26,0v5,142,-103,267,-235,266v-59,12,-254,-92,-316,-92v-56,0,-93,28,-112,84r-35,0v8,-146,101,-261,246,-267","w":1110},"\u00fa":{"d":"969,-188v3,115,26,125,123,153r0,35r-355,31r0,-189r-4,0v-83,126,-185,189,-307,189v-154,0,-257,-85,-256,-236r0,-399v-2,-95,-35,-116,-121,-133r0,-35r318,-31r34,0r0,570v0,86,56,138,144,135v109,-4,134,-57,192,-140r0,-385v0,-62,-40,-100,-121,-114r0,-35r318,-31r35,0r0,615xm486,-1270r369,0r-461,344r-35,0","w":1153},"\u00f9":{"d":"969,-188v3,115,26,125,123,153r0,35r-355,31r0,-189r-4,0v-83,126,-185,189,-307,189v-154,0,-257,-85,-256,-236r0,-399v-2,-95,-35,-116,-121,-133r0,-35r318,-31r34,0r0,570v0,86,56,138,144,135v109,-4,134,-57,192,-140r0,-385v0,-62,-40,-100,-121,-114r0,-35r318,-31r35,0r0,615xm588,-926r-461,-344r369,0r127,344r-35,0","w":1153},"\u00fb":{"d":"969,-188v3,115,26,125,123,153r0,35r-355,31r0,-189r-4,0v-83,126,-185,189,-307,189v-154,0,-257,-85,-256,-236r0,-399v-2,-95,-35,-116,-121,-133r0,-35r318,-31r34,0r0,570v0,86,56,138,144,135v109,-4,134,-57,192,-140r0,-385v0,-62,-40,-100,-121,-114r0,-35r318,-31r35,0r0,615xm392,-1282r299,0r182,379r-37,0r-295,-213r-295,213r-39,0","w":1153},"\u00fc":{"d":"969,-188v3,115,26,125,123,153r0,35r-355,31r0,-189r-4,0v-83,126,-185,189,-307,189v-154,0,-257,-85,-256,-236r0,-399v-2,-95,-35,-116,-121,-133r0,-35r318,-31r34,0r0,570v0,86,56,138,144,135v109,-4,134,-57,192,-140r0,-385v0,-62,-40,-100,-121,-114r0,-35r318,-31r35,0r0,615xm232,-1090v0,-71,64,-135,135,-135v71,0,136,64,136,135v0,72,-65,136,-136,136v-71,0,-135,-65,-135,-136xm621,-1090v0,-71,65,-135,136,-135v71,0,135,64,135,135v0,71,-64,136,-135,136v-72,0,-136,-64,-136,-136","w":1153},"\u2020":{"d":"498,633v-19,-493,-34,-630,-125,-1051v70,-95,109,-165,125,-299v-81,-6,-191,94,-283,94v-75,0,-127,-45,-127,-118v0,-76,55,-121,133,-121v81,0,198,93,277,90v-1,-106,-103,-277,-103,-387v0,-75,52,-123,127,-123v74,0,129,48,129,121v0,109,-103,283,-102,389v73,6,193,-90,270,-90v85,0,139,43,139,125v0,65,-56,114,-122,114v-51,0,-107,-19,-169,-55v-51,-29,-78,-41,-118,-39v12,134,54,203,125,299v-78,259,-119,689,-125,1051r-51,0","w":1044},"\u00b0":{"d":"410,-1366v185,0,346,161,346,346v0,185,-161,346,-346,346v-185,0,-347,-161,-347,-346v0,-185,162,-346,347,-346xm410,-801v117,0,219,-102,219,-219v0,-117,-102,-219,-219,-219v-118,0,-220,101,-220,219v0,118,102,219,220,219","w":819},"\u00a2":{"d":"61,-371v0,-248,214,-432,469,-432v43,0,86,3,129,10r154,-481r49,0r-153,490v77,7,91,16,133,-19r32,0r19,281r-35,0v-49,-104,-105,-172,-168,-205r-198,641v33,13,71,20,112,20v146,0,189,-51,270,-145r41,0v-90,181,-232,260,-460,240r-191,604r-57,0r194,-610v-191,-27,-340,-183,-340,-394xm645,-745v-212,-55,-328,119,-328,333v0,138,42,238,127,299"},"\u00a3":{"d":"637,31v-138,-4,-187,-65,-277,-156v-59,104,-131,156,-217,156v-76,0,-140,-52,-139,-125v3,-130,140,-211,293,-191v0,-75,-8,-141,-23,-196r-200,0r0,-74r186,0v-34,-109,-51,-200,-51,-272v0,-191,130,-344,317,-342v152,2,255,107,285,239r-39,0v-37,-86,-93,-129,-170,-129v-110,0,-158,90,-158,211v0,64,23,230,21,293r209,0r0,74r-209,0v-10,110,-16,138,-51,223v87,26,249,86,323,84v86,-3,105,-39,133,-111r33,0v2,164,-110,321,-266,316xm51,-94v0,44,36,78,82,76v84,-5,134,-79,164,-154v-39,-23,-74,-35,-107,-35v-69,0,-139,49,-139,113"},"\u00a7":{"d":"473,-1225v-106,0,-203,41,-203,133v0,43,19,83,49,126v53,76,368,277,433,350v69,77,125,152,125,276v0,139,-77,258,-232,356v104,99,177,161,182,316v6,182,-177,301,-372,301v-159,0,-324,-84,-326,-225v-1,-62,52,-111,115,-111v59,0,110,40,110,96v0,37,-39,68,-45,96v3,62,88,89,164,89v104,0,197,-47,199,-140v0,-41,-18,-79,-48,-121v-55,-75,-371,-275,-435,-347v-70,-78,-128,-153,-128,-279v0,-165,114,-290,234,-361v-120,-95,-180,-198,-180,-311v0,-178,177,-301,366,-301v158,0,327,80,330,217v1,68,-45,111,-113,111v-54,0,-113,-44,-112,-95v-7,-28,44,-76,47,-100v-5,-55,-90,-76,-160,-76xm610,-10v137,-124,165,-224,46,-360v-49,-56,-158,-144,-326,-269v-124,87,-162,205,-73,330v36,50,247,217,353,299"},"\u2022":{"d":"106,-678v0,-135,116,-250,252,-250v137,0,250,114,250,250v0,136,-115,252,-250,252v-135,0,-252,-117,-252,-252","w":717},"\u00b6":{"d":"80,-981v0,-245,190,-375,450,-375r494,0r0,56r-131,0r0,1742r-74,0r0,-1742r-186,0r0,1742r-74,0r0,-1042v-302,-15,-479,-99,-479,-381","w":1106},"\u00df":{"d":"827,-309v0,-226,-55,-312,-266,-320r0,-47v149,-6,223,-92,223,-258v0,-138,-59,-256,-182,-256v-128,0,-192,113,-192,338r0,715v2,89,27,100,122,102r0,35r-477,0r0,-35v104,-3,123,-13,123,-115r0,-575v-4,-310,159,-516,455,-520v200,-3,409,126,407,309v-2,150,-125,248,-262,281r0,4v176,32,303,129,307,317v5,242,-231,395,-481,334r-18,-131r37,0v16,61,45,92,86,92v79,0,118,-90,118,-270","w":1153},"\u00ae":{"d":"358,-283v72,-1,105,-21,105,-90r0,-610v-1,-72,-22,-95,-92,-96r0,-35r385,0v162,-3,299,78,299,225v0,111,-75,184,-224,221r209,299v41,53,53,77,121,86r0,35r-184,0r-295,-405r-74,0r0,284v2,77,34,84,117,86r0,35r-367,0r0,-35xm893,-879v2,-138,-139,-227,-285,-176r0,359v158,6,283,-44,285,-183xm409,-1291v215,-124,495,-124,710,0v194,112,354,332,354,613v0,280,-161,503,-355,614v-216,124,-492,124,-708,0v-195,-112,-355,-332,-355,-614v0,-280,161,-502,354,-613xm117,-678v0,349,298,647,647,647v349,0,647,-298,647,-647v0,-349,-299,-647,-647,-647v-348,0,-647,298,-647,647","w":1530},"\u00a9":{"d":"801,-1135v63,0,160,45,223,45v21,0,37,-15,49,-45r39,0r21,281r-39,0v-47,-157,-148,-236,-303,-236v-207,0,-320,170,-320,390v0,243,104,411,330,411v131,0,235,-54,311,-162r39,21v-93,135,-221,203,-385,203v-253,0,-463,-195,-463,-445v0,-263,229,-463,498,-463xm409,-1291v215,-124,495,-124,710,0v194,112,354,332,354,613v0,280,-161,503,-355,614v-216,124,-492,124,-708,0v-195,-112,-355,-332,-355,-614v0,-280,161,-502,354,-613xm117,-678v0,349,298,647,647,647v349,0,647,-298,647,-647v0,-349,-299,-647,-647,-647v-348,0,-647,298,-647,647","w":1530},"\u2122":{"d":"252,-590v98,-12,102,-24,102,-135r0,-571r-80,0v-126,2,-166,34,-188,141r-35,0r21,-201r729,0r22,201r-35,0v-18,-109,-64,-139,-192,-141r-74,0r0,571v4,111,5,127,105,135r0,41r-375,0r0,-41xm1067,-725v4,102,3,132,96,135r37,0r0,41r-309,0r0,-41v108,-3,115,-22,115,-135r0,-459v-4,-116,-3,-132,-115,-135r0,-37r289,0r272,572r266,-572r277,0r0,37v-106,5,-109,22,-109,135r0,459v4,116,3,124,109,135r0,41r-400,0r0,-41v107,-6,123,-15,123,-125r0,-483r-309,649r-33,0r-309,-649r0,473","w":2048},"\u00b4":{"d":"336,-1270r369,0r-461,344r-35,0","w":682},"\u00a8":{"d":"12,-1090v0,-71,64,-135,135,-135v71,0,136,64,136,135v0,72,-65,136,-136,136v-71,0,-135,-65,-135,-136xm401,-1090v0,-71,65,-135,136,-135v71,0,135,64,135,135v0,71,-64,136,-135,136v-72,0,-136,-64,-136,-136","w":682},"\u2260":{"d":"1106,-279r-621,0r-184,330r-100,-57r151,-273r-321,0r0,-112r385,0r157,-285r-542,0r0,-112r606,0r186,-336r101,57r-156,279r338,0r0,112r-399,0r-160,285r559,0r0,112","w":1124},"\u00c6":{"d":"575,-35v101,-16,158,-45,158,-149r0,-383r-262,0r-174,350v-52,102,-50,156,76,182r0,35r-373,0r0,-35v120,-29,173,-109,231,-227r463,-936r789,0r0,266r-35,0v-48,-137,-68,-198,-227,-198r-224,0r0,495r217,0v106,-2,144,-54,168,-149r35,0r0,370r-35,0v-21,-110,-67,-153,-194,-153r-191,0r0,372v3,100,69,127,181,127v215,0,235,-52,309,-223r35,0r-23,291r-924,0r0,-35xm504,-635r229,0r0,-467","w":1556},"\u00d8":{"d":"412,-293r618,-684v-60,-123,-158,-184,-295,-184v-119,0,-204,52,-271,146v-97,137,-122,528,-52,722xm84,-598v0,-364,284,-631,651,-631v154,0,290,42,408,127r112,-125r48,41r-111,123v131,123,197,278,197,465v0,365,-285,629,-654,629v-157,0,-322,-58,-411,-129r-115,127r-47,-43r112,-125v-127,-125,-190,-278,-190,-459xm1057,-913r-619,686v65,127,164,190,297,190v115,0,205,-48,270,-144v65,-96,97,-232,97,-409v0,-131,-15,-239,-45,-323","w":1473},"\u221e":{"d":"360,-895v165,7,212,79,293,227v82,-189,152,-270,371,-276v219,-6,383,187,383,418v0,280,-287,544,-521,357v-51,-41,-105,-117,-165,-224v-78,155,-186,233,-324,233v-199,0,-344,-165,-344,-368v0,-192,128,-374,307,-367xm1350,-526v0,-202,-176,-412,-380,-318v-127,59,-157,245,-220,379v43,92,87,159,134,201v47,42,106,63,177,63v172,2,289,-146,289,-325xm109,-530v0,148,93,292,229,292v55,0,104,-23,150,-65v47,-43,100,-165,137,-287v-64,-143,-153,-215,-267,-215v-149,0,-249,121,-249,275","w":1460},"\u00b1":{"d":"137,41r0,-127r1090,0r0,127r-1090,0xm137,-768r0,-127r481,0r0,-481r127,0r0,481r482,0r0,127r-482,0r0,481r-127,0r0,-481r-481,0","w":1366},"\u2264":{"d":"1077,-240r-1018,-471r0,-127r1018,-471r0,127r-887,408r887,407r0,127xm1077,0r-1018,0r0,-112r1018,0r0,112","w":1124},"\u2265":{"d":"1077,-711r-1018,471r0,-127r887,-407r-887,-408r0,-127r1018,471r0,127xm1077,0r-1018,0r0,-112r1018,0r0,112","w":1124},"\u00a5":{"d":"356,-35v108,-17,152,-56,152,-176r0,-121r-410,0r0,-67r410,0r0,-205r-410,0r0,-68r363,0r-236,-366v-52,-76,-75,-111,-170,-125r0,-35r547,0r0,35v-107,5,-98,74,-53,145r174,279r166,-236v57,-78,49,-167,-58,-188r0,-35r371,0r0,35v-61,6,-119,49,-176,129r-254,362r410,0r0,68r-410,0r0,205r410,0r0,67r-410,0r0,129v3,120,43,146,152,168r0,35r-568,0r0,-35","w":1260},"\u00b5":{"d":"481,-98v110,-5,132,-55,193,-140r0,-565r231,0r0,615v3,114,26,124,123,153r0,35r-354,31r0,-189r-4,0v-113,169,-268,239,-461,150v-10,74,67,229,67,303v0,66,-59,98,-133,98v-67,0,-122,-34,-123,-96v-1,-78,66,-187,75,-259v5,-42,11,-89,11,-144r0,-697r232,0r0,578v-1,79,62,131,143,127","w":1024},"\u2202":{"d":"942,-903v3,-225,-127,-378,-346,-377v-129,0,-230,53,-301,160r-45,0v87,-202,214,-303,379,-303v247,0,366,215,366,503v0,239,-55,456,-165,654v-110,198,-252,297,-427,297v-204,0,-337,-133,-337,-336v0,-298,261,-602,550,-602v148,0,252,63,312,190r4,0v7,-96,10,-158,10,-186xm233,-264v0,133,72,237,197,237v91,0,184,-55,280,-163v96,-108,162,-254,201,-439v-54,-150,-149,-225,-284,-225v-119,0,-214,63,-286,190v-72,127,-108,261,-108,400","w":1012},"\u2211":{"d":"1423,-238v-39,151,-69,302,-88,459v-42,-7,-77,-13,-103,-17v-26,-4,-44,-5,-54,-5r-1031,0r-118,6r714,-815r-710,-930v47,5,88,8,123,10v35,2,65,4,90,4r1018,0r12,326r-41,0v-43,-146,-60,-207,-209,-227v-197,-27,-432,-3,-643,-7r559,734r-602,694r760,0v85,0,144,-17,178,-52v34,-35,66,-95,98,-180r47,0","w":1460},"\u220f":{"d":"1446,-6v4,130,51,166,199,166r0,47r-629,0r0,-47v146,0,199,-37,199,-166r0,-1419r-734,0r0,1419v4,129,53,166,199,166r0,47r-629,0r0,-47v148,-1,199,-36,199,-166r0,-1282v0,-133,-63,-203,-195,-203r0,-47r1586,0r0,47v-132,0,-195,70,-195,203r0,1282","w":1686},"\u03c0":{"d":"786,-340v0,127,99,236,206,156v38,-29,46,-72,50,-125r43,0v-1,175,-92,342,-243,342v-53,0,-99,-29,-138,-91v-108,-170,-40,-534,-18,-763r-231,0v-40,416,-73,664,-99,743v-26,79,-69,118,-130,118v-55,0,-109,-51,-109,-113v0,-31,25,-74,73,-129v48,-55,75,-105,80,-150r60,-469v-68,2,-127,-6,-176,19v-52,27,-68,67,-99,110r-35,0v33,-101,72,-177,120,-228v48,-51,103,-77,165,-77r764,0r0,176r-258,0v-8,80,-15,160,-19,240v-4,80,-6,160,-6,241","w":1124},"\u222b":{"d":"379,-1842v75,-75,223,-20,223,82v0,54,-48,89,-105,89v-45,0,-70,-51,-104,-50v-28,1,-37,25,-37,58v0,23,6,108,20,256v29,295,22,1052,-11,1261v-22,136,-47,230,-79,282v-29,48,-85,82,-153,83v-64,2,-123,-56,-123,-120v0,-50,40,-94,90,-92v37,-10,88,65,110,66v17,0,33,-15,40,-45v24,-102,15,-174,8,-350v-7,-189,-7,-1062,11,-1200v23,-174,35,-245,110,-320","w":561},"\u00aa":{"d":"205,-725v-76,0,-155,-54,-154,-125v0,-41,22,-75,65,-100v43,-25,126,-51,249,-78v-1,-82,-28,-112,-109,-113v-63,0,-110,27,-141,82r-41,-12v26,-97,111,-158,233,-158v127,0,230,52,230,168r0,221v-3,73,39,71,49,13r43,0v-4,68,-49,102,-135,102v-63,0,-106,-19,-129,-57v-50,38,-103,57,-160,57xm229,-860v-3,39,21,72,58,72v23,0,49,-13,78,-39r0,-162v-89,43,-129,36,-136,129","w":682},"\u00ba":{"d":"416,-1229v172,0,320,97,321,252v1,153,-156,252,-321,252v-166,0,-322,-99,-322,-252v0,-153,156,-252,322,-252xm416,-770v97,0,133,-96,133,-207v0,-112,-36,-205,-133,-205v-97,0,-133,94,-133,205v0,112,36,207,133,207","w":831},"\u2126":{"d":"1340,-207v104,-1,111,-41,136,-125r30,0r0,332r-604,0r33,-311v202,-66,291,-264,291,-513v0,-296,-137,-519,-438,-519v-301,0,-438,224,-438,519v0,248,89,448,291,513r33,311r-604,0r0,-332r30,0v24,84,32,125,136,125r323,0r-4,-57v-159,-43,-272,-117,-341,-221v-69,-104,-103,-215,-103,-332v0,-353,310,-592,677,-592v367,0,677,239,677,592v0,117,-34,228,-103,332v-69,104,-182,178,-341,221r-4,57r323,0","w":1573},"\u00e6":{"d":"649,-145v-125,108,-174,168,-350,176v-126,6,-246,-84,-244,-203v2,-97,56,-142,129,-184v56,-32,317,-92,398,-123v-1,-131,-72,-197,-211,-197v-130,1,-195,42,-240,131r-37,0v28,-161,157,-259,346,-258v108,0,204,33,287,98v93,-66,145,-97,285,-98v234,-2,382,133,403,348r-602,0v-10,210,110,385,297,385v119,0,218,-80,272,-163r33,0v-79,176,-213,264,-401,264v-158,0,-280,-59,-365,-176xm334,-302v-57,69,-39,236,69,236v51,0,111,-26,179,-79r0,-293v-62,30,-230,98,-248,136xm1165,-502v-1,-131,-58,-246,-176,-246v-120,0,-175,114,-176,246r352,0","w":1473},"\u00f8":{"d":"555,-748v-226,-2,-258,321,-205,543r385,-424v-39,-79,-99,-119,-180,-119xm229,-70v-142,-93,-211,-351,-95,-528v82,-125,221,-205,421,-205v98,0,189,22,274,66r109,-119r37,33r-103,114v92,67,163,179,164,322v2,248,-215,418,-481,418v-115,0,-208,-23,-281,-70r-100,111r-39,-33xm555,-25v224,1,258,-331,201,-550r-385,425v45,83,106,125,184,125","w":1110},"\u00bf":{"d":"304,105v-71,159,31,346,190,346v63,0,116,-29,160,-88r28,26v-30,130,-142,241,-290,244v-172,4,-334,-170,-326,-346v9,-199,88,-300,232,-386v86,-51,118,-72,126,-175r35,0v43,112,3,174,-64,247v-47,51,-75,96,-91,132xm578,-528v0,82,-70,151,-152,151v-82,0,-151,-69,-151,-151v0,-82,69,-152,151,-152v82,0,152,70,152,152","w":748},"\u00a1":{"d":"126,535v-1,-98,128,-706,130,-797r30,0v34,195,60,400,79,614v9,107,20,170,31,188v17,27,54,31,99,24r0,35v-65,15,-149,22,-252,22v-79,0,-116,-14,-117,-86xm415,-540v0,82,-69,151,-151,151v-82,0,-152,-69,-152,-151v0,-82,70,-152,152,-152v82,0,151,70,151,152","w":532},"\u00ac":{"d":"137,-840r0,-127r1090,0r0,600r-127,0r0,-473r-963,0","w":1366},"\u221a":{"d":"1055,-1868r-307,1946r-498,-1028r-197,96r-33,-68r299,-147r404,825r260,-1634","w":1124},"\u0192":{"d":"1257,-1012v-9,-113,-26,-196,-124,-196v-96,0,-129,77,-161,168v-20,57,-42,163,-67,317r144,0r-15,68r-145,0r-121,686v-63,361,-246,542,-547,542v-89,0,-164,-11,-225,-32r70,-232r32,0v11,108,68,201,174,201v169,0,243,-154,275,-324r151,-841r-172,0r15,-68r174,0v24,-177,73,-311,148,-401v107,-128,255,-166,446,-113r22,-20r33,0r-76,245r-31,0","w":1366},"\u2248":{"d":"326,-883v159,-8,350,189,524,189v96,0,153,-60,172,-180r51,0v-22,178,-107,321,-282,321v-65,0,-166,-39,-304,-117v-93,-52,-163,-78,-211,-78v-99,0,-159,62,-178,187r-47,0v21,-175,106,-314,275,-322xm326,-494v163,-6,351,187,524,187v96,0,153,-60,172,-180r51,0v-22,178,-107,321,-282,321v-64,0,-154,-32,-269,-97v-115,-65,-197,-97,-246,-97v-99,0,-159,62,-178,186r-47,0v21,-175,106,-314,275,-320","w":1124},"\u2206":{"d":"668,-1409r577,1409r-1233,0xm594,-1059r-447,959r844,0","w":1253},"\u00ab":{"d":"893,-745r-197,419r197,420r-41,0r-418,-420r418,-419r41,0xm475,-745r-196,419r196,420r-41,0r-418,-420r418,-419r41,0"},"\u00bb":{"d":"463,94r196,-420r-196,-419r41,0r418,419r-418,420r-41,0xm45,94r197,-420r-197,-419r41,0r418,419r-418,420r-41,0"},"\u2026":{"d":"1554,-121v0,-82,70,-151,152,-151v82,0,152,69,152,151v0,82,-70,152,-152,152v-82,0,-152,-70,-152,-152xm872,-121v0,-82,70,-151,152,-151v82,0,152,69,152,151v0,82,-70,152,-152,152v-82,0,-152,-70,-152,-152xm190,-121v0,-82,70,-151,152,-151v82,0,152,69,152,151v0,82,-70,152,-152,152v-82,0,-152,-70,-152,-152","w":2048},"\u00a0":{"w":1024},"\u00c0":{"d":"756,-35v77,-18,127,-24,135,-92v-11,-87,-65,-194,-92,-276r-426,0v-25,77,-83,172,-83,257v0,53,40,90,120,111r0,35r-387,0r0,-35v130,-34,170,-126,225,-272r344,-922r164,0r364,959v60,137,83,213,223,235r0,35r-587,0r0,-35xm410,-489r356,0r-182,-486xm780,-1323r-461,-344r369,0r127,344r-35,0","w":1366},"\u00c3":{"d":"756,-35v77,-18,127,-24,135,-92v-11,-87,-65,-194,-92,-276r-426,0v-25,77,-83,172,-83,257v0,53,40,90,120,111r0,35r-387,0r0,-35v130,-34,170,-126,225,-272r344,-922r164,0r364,959v60,137,83,213,223,235r0,35r-587,0r0,-35xm410,-489r356,0r-182,-486xm580,-1618v70,-3,251,93,321,93v45,0,80,-28,105,-84r26,0v5,142,-103,267,-235,266v-59,12,-254,-92,-316,-92v-56,0,-93,28,-112,84r-35,0v8,-146,101,-261,246,-267","w":1366},"\u00d5":{"d":"735,-1229v369,0,654,267,654,631v0,365,-285,629,-654,629v-369,0,-651,-265,-651,-629v0,-364,284,-631,651,-631xm1005,-181v128,-173,122,-661,3,-834v-66,-95,-153,-146,-273,-146v-119,0,-206,51,-271,146v-118,172,-124,657,1,833v67,94,153,145,270,145v115,0,201,-51,270,-144xm633,-1618v70,-3,251,93,321,93v45,0,80,-28,105,-84r26,0v5,142,-103,267,-235,266v-59,12,-254,-92,-316,-92v-56,0,-93,28,-112,84r-35,0v8,-146,101,-261,246,-267","w":1473},"\u0152":{"d":"696,-1206r246,8r891,0r0,268r-35,0v-42,-116,-63,-200,-184,-200r-297,0r0,495r219,0v128,-2,167,-43,193,-153r34,0r0,372r-34,0v-29,-117,-55,-151,-193,-151r-219,0r0,381v5,103,75,118,196,118v215,0,264,-58,322,-229r35,0r-25,297r-850,0r-280,8v-373,7,-627,-244,-627,-608v0,-344,262,-614,608,-606xm850,-59v152,-1,203,-46,203,-197r0,-725v-3,-126,-86,-158,-226,-158v-320,0,-452,221,-452,564v0,320,164,518,475,516","w":1921},"\u0153":{"d":"561,-803v148,3,199,27,309,86v169,-117,403,-115,550,6v74,61,116,144,128,248r-559,0v-7,218,66,387,258,387v109,0,197,-56,266,-168r35,0v-51,157,-210,276,-411,275v-122,-1,-184,-34,-267,-92v-110,63,-164,89,-317,92v-263,5,-485,-165,-485,-414v0,-261,219,-425,493,-420xm758,-397v0,-193,-48,-351,-211,-351v-162,0,-215,176,-215,367v0,197,52,356,221,356v67,0,118,-32,153,-96v35,-64,52,-156,52,-276xm1133,-754v-103,0,-147,122,-144,244r307,0v-2,-118,-60,-244,-163,-244","w":1599},"\u2013":{"d":"-12,-350r0,-129r1048,0r0,129r-1048,0","w":1024},"\u2014":{"d":"-12,-350r0,-129r2072,0r0,129r-2072,0","w":2048},"\u201c":{"d":"266,-657v-118,0,-202,-130,-202,-258v0,-175,188,-363,358,-367r0,35v-130,46,-195,123,-195,232v-1,28,14,76,37,77v90,-23,154,54,154,136v0,85,-66,145,-152,145xm719,-657v-119,0,-203,-130,-203,-258v0,-176,188,-363,359,-367r0,35v-130,45,-195,123,-195,232v-1,30,12,76,37,77v88,-24,153,55,153,136v0,85,-65,145,-151,145"},"\u201d":{"d":"673,-1282v118,0,202,130,202,258v0,175,-188,363,-358,367r0,-35v130,-46,195,-123,195,-232v1,-28,-14,-76,-37,-77v-90,23,-154,-54,-154,-136v0,-85,66,-145,152,-145xm220,-1282v119,0,203,130,203,258v0,176,-188,363,-359,367r0,-35v130,-45,195,-123,195,-232v1,-30,-12,-76,-37,-77v-88,24,-153,-55,-153,-136v0,-85,65,-145,151,-145","k":{" ":82}},"\u2018":{"d":"288,-658v-118,0,-202,-130,-202,-258v0,-175,188,-363,358,-367r0,35v-130,46,-195,123,-195,232v-1,28,14,76,37,77v90,-23,154,54,154,136v0,85,-66,145,-152,145","w":532,"k":{"\u2018":102}},"\u2019":{"d":"295,-1282v118,0,202,130,202,258v0,175,-188,363,-358,367r0,-35v130,-46,195,-123,195,-232v1,-28,-14,-76,-37,-77v-90,23,-154,-54,-154,-136v0,-85,66,-145,152,-145","w":532,"k":{"\u2019":102,"t":41,"s":164,"r":61,"d":225," ":82}},"\u00f7":{"d":"600,-260v0,-45,39,-84,84,-84v45,0,84,39,84,84v0,45,-39,84,-84,84v-45,0,-84,-39,-84,-84xm600,-1079v0,-45,39,-84,84,-84v45,0,84,39,84,84v0,45,-39,84,-84,84v-45,0,-84,-39,-84,-84xm139,-606r0,-127r1090,0r0,127r-1090,0","w":1368},"\u25ca":{"d":"962,-763r-397,763r-122,0r-397,-763r397,-763r122,0xm839,-763r-335,-652r-335,652r335,652","w":1012},"\u00ff":{"d":"997,-772r0,35v-123,37,-129,68,-186,198r-389,889v-77,178,-159,273,-395,252r47,-233v112,37,208,17,278,-60v47,-52,96,-145,146,-278r-283,-596v-55,-111,-72,-140,-188,-172r0,-35r471,0r0,35v-99,18,-80,74,-41,155r164,338r106,-248v27,-63,41,-112,41,-148v0,-52,-31,-84,-92,-97r0,-35r321,0xm172,-1090v0,-71,64,-135,135,-135v71,0,136,64,136,135v0,72,-65,136,-136,136v-71,0,-135,-65,-135,-136xm561,-1090v0,-71,65,-135,136,-135v71,0,135,64,135,135v0,71,-64,136,-135,136v-72,0,-136,-64,-136,-136","w":1024},"\u0178":{"d":"356,-35v108,-17,152,-56,152,-176r0,-350r-311,-477v-55,-77,-73,-110,-170,-125r0,-35r546,0r0,35v-110,5,-100,73,-53,145r207,320r182,-263v62,-85,66,-175,-49,-202r0,-35r371,0r0,35v-62,6,-120,49,-176,129r-283,403r0,428v3,120,43,146,152,168r0,35r-568,0r0,-35xm301,-1487v0,-71,64,-135,135,-135v71,0,136,64,136,135v0,72,-65,136,-136,136v-71,0,-135,-65,-135,-136xm690,-1487v0,-71,65,-135,136,-135v71,0,135,64,135,135v0,71,-64,136,-135,136v-72,0,-136,-64,-136,-136","w":1260},"\u2215":{"d":"530,-1229r134,0r-852,1245r-134,0","w":342},"\u20ac":{"d":"598,-86v148,0,212,-65,272,-150r0,76v-74,116,-157,194,-342,191v-266,-4,-400,-227,-424,-504r-102,0r12,-74r86,0r2,-104r-100,0r12,-74r95,0v23,-157,73,-281,153,-370v121,-135,288,-179,461,-84v63,35,79,31,106,-40r33,0r0,357r-33,0v-33,-103,-74,-179,-117,-230v-87,-102,-254,-106,-310,30v-29,71,-50,182,-54,337r416,0r-12,74r-404,0r2,104r385,0r-12,74r-371,0v9,131,34,229,72,292v38,63,96,95,174,95"},"\u2039":{"d":"504,-745r-197,419r197,420r-41,0r-418,-420r418,-419r41,0","w":532},"\u203a":{"d":"29,94r196,-420r-196,-419r41,0r417,419r-417,420r-41,0","w":532},"\uf001":{"d":"547,-1223v-120,0,-163,109,-162,246r0,205v168,-5,412,17,528,-27r35,0r0,594v3,125,14,138,111,170r0,35r-455,0r0,-35v102,-22,113,-45,113,-170r0,-504r-332,0r0,539v2,91,37,116,117,135r0,35r-469,0r0,-35v104,-28,121,-43,121,-170r0,-504r-121,0r0,-34v92,-30,122,-59,134,-175v15,-137,60,-205,141,-271v123,-98,313,-118,488,-63v64,20,111,45,142,76r-195,220r-26,-21v3,-127,-58,-246,-170,-246","w":1110},"\uf002":{"d":"39,-35v128,-27,149,-26,149,-172r0,-500r-118,0r0,-34v84,-27,107,-52,120,-158v20,-165,107,-288,222,-345v130,-65,291,-46,407,32v57,-16,105,-39,144,-70r30,0r0,1100v3,110,28,117,123,147r0,35r-475,0r0,-35v82,-22,121,-41,121,-131r0,-543r-342,0r0,549v4,96,58,107,155,125r0,35r-536,0r0,-35xm598,-1227v-114,-2,-178,95,-178,217r0,238r342,0r0,-205v1,-138,-44,-248,-164,-250","w":1153},"\u2021":{"d":"649,504v0,73,-50,129,-121,129v-74,0,-122,-55,-122,-131v0,-76,93,-228,94,-301v-90,-9,-189,90,-275,90v-66,0,-112,-45,-112,-111v0,-60,48,-114,106,-114v60,0,223,91,281,88v-9,-113,-55,-163,-127,-238v76,-83,125,-119,125,-242v0,-120,-50,-157,-125,-239v72,-77,119,-123,127,-238v-63,-3,-214,88,-279,88v-59,0,-108,-53,-108,-112v0,-66,45,-113,110,-113v82,0,196,97,277,90v1,-64,-94,-231,-94,-297v0,-77,47,-135,122,-135v68,0,121,56,121,125v0,86,-97,226,-100,307v40,4,64,-8,118,-36v65,-33,121,-52,171,-52v61,-1,102,45,102,107v0,68,-44,118,-111,118v-77,0,-206,-91,-280,-90v2,80,45,159,129,238v-170,162,-168,319,0,481v-84,79,-127,158,-129,238v72,1,201,-91,274,-91v72,0,117,47,117,119v0,63,-42,108,-104,107v-47,0,-103,-18,-169,-51v-54,-27,-80,-38,-118,-37v-5,61,100,240,100,303","w":1044},"\u00b7":{"d":"115,-629v0,-82,69,-151,151,-151v82,0,152,69,152,151v0,82,-70,152,-152,152v-82,0,-151,-70,-151,-152","w":532},"\u2219":{"d":"115,-629v0,-82,69,-151,151,-151v82,0,152,69,152,151v0,82,-70,152,-152,152v-82,0,-151,-70,-151,-152","w":532},"\u201a":{"d":"244,-254v118,0,202,130,202,258v0,175,-188,363,-358,367r0,-35v130,-46,195,-123,195,-232v1,-28,-14,-76,-37,-77v-90,23,-154,-54,-154,-136v0,-85,66,-145,152,-145","w":532},"\u201e":{"d":"672,-254v118,0,202,130,202,258v0,175,-188,363,-358,367r0,-35v130,-46,195,-123,195,-232v1,-28,-14,-76,-37,-77v-90,23,-154,-54,-154,-136v0,-85,66,-145,152,-145xm219,-254v119,0,203,130,203,258v0,176,-188,363,-359,367r0,-35v130,-45,195,-123,195,-232v1,-30,-12,-76,-37,-77v-88,24,-153,-55,-153,-136v0,-85,65,-145,151,-145"},"\u2030":{"d":"1724,-311v0,188,32,282,97,282v33,0,58,-24,73,-73v15,-49,23,-127,23,-236v0,-171,-32,-256,-96,-256v-65,0,-97,94,-97,283xm1821,16v-178,0,-269,-138,-269,-327v0,-190,90,-327,269,-328v170,-1,266,135,266,313v0,200,-81,342,-266,342xm1108,-1225r133,0r-852,1241r-133,0xm1182,16v-178,0,-269,-138,-269,-327v0,-190,90,-327,269,-328v170,-1,266,135,266,313v0,200,-81,342,-266,342xm1085,-311v0,188,32,282,97,282v33,0,58,-24,73,-73v15,-49,23,-127,23,-236v0,-171,-32,-256,-96,-256v-65,0,-97,94,-97,283xm315,-573v-178,0,-268,-138,-268,-328v0,-190,89,-327,268,-328v170,-1,267,135,267,314v0,200,-82,342,-267,342xm219,-901v0,189,32,283,96,283v34,0,59,-25,74,-74v15,-49,23,-127,23,-236v0,-171,-32,-256,-97,-256v-64,0,-96,94,-96,283","w":2134},"\u00c2":{"d":"756,-35v77,-18,127,-24,135,-92v-11,-87,-65,-194,-92,-276r-426,0v-25,77,-83,172,-83,257v0,53,40,90,120,111r0,35r-387,0r0,-35v130,-34,170,-126,225,-272r344,-922r164,0r364,959v60,137,83,213,223,235r0,35r-587,0r0,-35xm410,-489r356,0r-182,-486xm535,-1679r299,0r182,379r-37,0r-295,-213r-295,213r-39,0","w":1366},"\u00ca":{"d":"692,-635v109,-2,143,-51,166,-149r39,0r0,370r-39,0v-14,-102,-69,-153,-166,-153r-211,0r0,352v-8,141,93,147,234,147v117,0,201,-74,252,-223r34,0r-22,291r-913,0r0,-35v121,-29,151,-48,151,-192r0,-770v-3,-125,-40,-141,-151,-166r0,-35r899,0r0,266r-35,0v-41,-139,-61,-198,-217,-198r-232,0r0,495r211,0xm375,-1679r299,0r182,379r-37,0r-295,-213r-295,213r-39,0","w":1044},"\u00c1":{"d":"756,-35v77,-18,127,-24,135,-92v-11,-87,-65,-194,-92,-276r-426,0v-25,77,-83,172,-83,257v0,53,40,90,120,111r0,35r-387,0r0,-35v130,-34,170,-126,225,-272r344,-922r164,0r364,959v60,137,83,213,223,235r0,35r-587,0r0,-35xm410,-489r356,0r-182,-486xm678,-1667r369,0r-461,344r-35,0","w":1366},"\u00cb":{"d":"692,-635v109,-2,143,-51,166,-149r39,0r0,370r-39,0v-14,-102,-69,-153,-166,-153r-211,0r0,352v-8,141,93,147,234,147v117,0,201,-74,252,-223r34,0r-22,291r-913,0r0,-35v121,-29,151,-48,151,-192r0,-770v-3,-125,-40,-141,-151,-166r0,-35r899,0r0,266r-35,0v-41,-139,-61,-198,-217,-198r-232,0r0,495r211,0xm194,-1487v0,-71,64,-135,135,-135v71,0,136,64,136,135v0,72,-65,136,-136,136v-71,0,-135,-65,-135,-136xm583,-1487v0,-71,65,-135,136,-135v71,0,135,64,135,135v0,71,-64,136,-135,136v-72,0,-136,-64,-136,-136","w":1044},"\u00c8":{"d":"692,-635v109,-2,143,-51,166,-149r39,0r0,370r-39,0v-14,-102,-69,-153,-166,-153r-211,0r0,352v-8,141,93,147,234,147v117,0,201,-74,252,-223r34,0r-22,291r-913,0r0,-35v121,-29,151,-48,151,-192r0,-770v-3,-125,-40,-141,-151,-166r0,-35r899,0r0,266r-35,0v-41,-139,-61,-198,-217,-198r-232,0r0,495r211,0xm620,-1323r-461,-344r369,0r127,344r-35,0","w":1044},"\u00cd":{"d":"242,-995v-3,-126,-40,-137,-152,-168r0,-35r567,0r0,35v-119,32,-151,45,-151,192r0,768v3,127,39,135,151,168r0,35r-567,0r0,-35v110,-32,152,-46,152,-194r0,-766xm369,-1667r369,0r-461,344r-35,0","w":748},"\u00ce":{"d":"242,-995v-3,-126,-40,-137,-152,-168r0,-35r567,0r0,35v-119,32,-151,45,-151,192r0,768v3,127,39,135,151,168r0,35r-567,0r0,-35v110,-32,152,-46,152,-194r0,-766xm225,-1679r299,0r182,379r-37,0r-295,-213r-295,213r-39,0","w":748},"\u00cf":{"d":"242,-995v-3,-126,-40,-137,-152,-168r0,-35r567,0r0,35v-119,32,-151,45,-151,192r0,768v3,127,39,135,151,168r0,35r-567,0r0,-35v110,-32,152,-46,152,-194r0,-766xm44,-1487v0,-71,64,-135,135,-135v71,0,136,64,136,135v0,72,-65,136,-136,136v-71,0,-135,-65,-135,-136xm433,-1487v0,-71,65,-135,136,-135v71,0,135,64,135,135v0,71,-64,136,-135,136v-72,0,-136,-64,-136,-136","w":748},"\u00cc":{"d":"242,-995v-3,-126,-40,-137,-152,-168r0,-35r567,0r0,35v-119,32,-151,45,-151,192r0,768v3,127,39,135,151,168r0,35r-567,0r0,-35v110,-32,152,-46,152,-194r0,-766xm470,-1323r-461,-344r369,0r127,344r-35,0","w":748},"\u00d3":{"d":"735,-1229v369,0,654,267,654,631v0,365,-285,629,-654,629v-369,0,-651,-265,-651,-629v0,-364,284,-631,651,-631xm1005,-181v128,-173,122,-661,3,-834v-66,-95,-153,-146,-273,-146v-119,0,-206,51,-271,146v-118,172,-124,657,1,833v67,94,153,145,270,145v115,0,201,-51,270,-144xm731,-1667r369,0r-461,344r-35,0","w":1473},"\u00d4":{"d":"735,-1229v369,0,654,267,654,631v0,365,-285,629,-654,629v-369,0,-651,-265,-651,-629v0,-364,284,-631,651,-631xm1005,-181v128,-173,122,-661,3,-834v-66,-95,-153,-146,-273,-146v-119,0,-206,51,-271,146v-118,172,-124,657,1,833v67,94,153,145,270,145v115,0,201,-51,270,-144xm588,-1679r299,0r182,379r-37,0r-295,-213r-295,213r-39,0","w":1473},"\u00d2":{"d":"735,-1229v369,0,654,267,654,631v0,365,-285,629,-654,629v-369,0,-651,-265,-651,-629v0,-364,284,-631,651,-631xm1005,-181v128,-173,122,-661,3,-834v-66,-95,-153,-146,-273,-146v-119,0,-206,51,-271,146v-118,172,-124,657,1,833v67,94,153,145,270,145v115,0,201,-51,270,-144xm833,-1323r-461,-344r369,0r127,344r-35,0","w":1473},"\u00da":{"d":"1268,-203v3,127,39,135,151,168r0,35r-415,0r0,-160v-129,121,-184,186,-386,191v-245,6,-411,-156,-411,-398r0,-628v-3,-126,-40,-137,-152,-168r0,-35r568,0r0,35v-115,31,-152,44,-152,178r0,670v-2,143,84,236,225,235v99,0,201,-55,308,-166r0,-749v-4,-127,-39,-135,-152,-168r0,-35r567,0r0,35v-118,29,-151,47,-151,192r0,768xm731,-1667r369,0r-461,344r-35,0","w":1473},"\u00db":{"d":"1268,-203v3,127,39,135,151,168r0,35r-415,0r0,-160v-129,121,-184,186,-386,191v-245,6,-411,-156,-411,-398r0,-628v-3,-126,-40,-137,-152,-168r0,-35r568,0r0,35v-115,31,-152,44,-152,178r0,670v-2,143,84,236,225,235v99,0,201,-55,308,-166r0,-749v-4,-127,-39,-135,-152,-168r0,-35r567,0r0,35v-118,29,-151,47,-151,192r0,768xm588,-1679r299,0r182,379r-37,0r-295,-213r-295,213r-39,0","w":1473},"\u00d9":{"d":"1268,-203v3,127,39,135,151,168r0,35r-415,0r0,-160v-129,121,-184,186,-386,191v-245,6,-411,-156,-411,-398r0,-628v-3,-126,-40,-137,-152,-168r0,-35r568,0r0,35v-115,31,-152,44,-152,178r0,670v-2,143,84,236,225,235v99,0,201,-55,308,-166r0,-749v-4,-127,-39,-135,-152,-168r0,-35r567,0r0,35v-118,29,-151,47,-151,192r0,768xm833,-1323r-461,-344r369,0r127,344r-35,0","w":1473},"\u0131":{"d":"190,-594v-3,-111,-36,-120,-139,-143r0,-35r336,-31r35,0r0,637v0,77,42,121,125,131r0,35r-486,0r0,-35v98,-22,129,-37,129,-147r0,-412","w":598},"\u02c6":{"d":"193,-1282r299,0r182,379r-37,0r-295,-213r-295,213r-39,0","w":682},"\u02dc":{"d":"238,-1221v70,-3,251,93,321,93v45,0,80,-28,105,-84r26,0v5,142,-103,267,-235,266v-59,12,-254,-92,-316,-92v-56,0,-93,28,-112,84r-35,0v8,-146,101,-261,246,-267","w":682},"\u02c9":{"d":"4,-1100r0,-168r674,0r0,168r-674,0","w":682},"\u02d8":{"d":"645,-1239v1,170,-134,319,-301,319v-167,0,-302,-152,-305,-319r65,0v27,85,107,127,240,127v129,0,208,-42,238,-127r63,0","w":682},"\u02d9":{"d":"207,-1090v0,-71,64,-135,135,-135v71,0,135,64,135,135v0,72,-63,136,-135,136v-72,0,-135,-64,-135,-136","w":682},"\u02da":{"d":"150,-1090v0,-103,89,-192,192,-192v104,0,193,88,193,192v0,104,-89,193,-193,193v-104,0,-192,-89,-192,-193xm463,-1090v0,-65,-55,-120,-121,-120v-66,0,-121,55,-121,120v0,66,55,121,121,121v66,0,121,-55,121,-121","w":682},"\u00b8":{"d":"358,109v105,-3,199,73,197,174v-3,179,-189,280,-385,282r10,-37v104,-9,207,-70,207,-168v0,-60,-46,-97,-137,-110r108,-285r48,0","w":682},"\u02dd":{"d":"227,-1270r310,0r-402,344r-35,0xm588,-1270r309,0r-401,344r-35,0","w":682},"\u02db":{"d":"408,350v-115,0,-222,-80,-222,-190v0,-65,34,-123,103,-174r65,0v-62,120,27,238,150,235v31,0,72,-10,121,-31r34,66v-71,63,-154,94,-251,94","w":682},"\u02c7":{"d":"489,-903r-299,0r-182,-379r37,0r295,213r295,-213r39,0","w":682},"\u0141":{"d":"485,-197v4,117,58,129,189,129v77,0,136,-16,178,-50v42,-34,87,-98,133,-193r35,0r-35,311r-915,0r0,-35v125,-37,151,-42,151,-194r0,-164r-194,196r0,-92r194,-194r0,-512v-3,-126,-40,-137,-151,-168r0,-35r567,0r0,35v-112,33,-152,38,-152,159r0,285r250,-254r0,92r-250,254r0,430","w":1044},"\u0142":{"d":"186,-1071v-2,-114,-35,-147,-145,-154r0,-35r342,-22r35,0r0,481r178,-186r0,92r-178,184r0,523v3,119,31,125,137,153r0,35r-514,0r0,-35v103,-19,145,-41,145,-153r0,-314r-182,191r0,-92r182,-191r0,-477","w":598},"\u0160":{"d":"461,-1229v53,0,179,34,225,33v19,0,40,-11,62,-33r34,0r0,316r-34,0v-35,-119,-159,-244,-297,-248v-123,-3,-240,103,-182,227v10,22,25,41,43,61v28,32,356,231,388,260v69,61,152,175,152,296v0,211,-177,348,-385,348v-71,0,-217,-47,-293,-47v-28,0,-48,13,-61,39r-35,0r0,-361r35,0v30,168,139,298,321,301v115,2,221,-64,221,-170v0,-40,-17,-75,-40,-113v-37,-61,-375,-249,-426,-306v-57,-65,-103,-142,-105,-253v-3,-207,165,-350,377,-350xm618,-1300r-299,0r-182,-379r37,0r295,213r295,-213r39,0"},"\u0161":{"d":"403,31v-100,0,-224,-65,-288,0r-35,0r0,-299r35,0v77,162,171,243,280,243v68,0,138,-48,137,-112v0,-33,-12,-63,-37,-87v-25,-24,-78,-52,-160,-84v-105,-41,-174,-80,-207,-118v-33,-38,-50,-86,-50,-141v-1,-138,123,-236,270,-236v25,0,152,23,205,23v12,0,28,-8,47,-23r35,0r0,242r-35,0v-39,-100,-117,-183,-238,-187v-63,-2,-128,31,-129,86v0,25,10,46,31,64v21,18,67,42,139,69v111,43,186,86,223,130v37,44,56,98,56,163v0,144,-139,267,-279,267xm505,-903r-299,0r-182,-379r37,0r295,213r295,-213r39,0","w":748},"\u017d":{"d":"846,-68v224,-6,253,-74,340,-245r37,0r-52,313r-1136,0r0,-35r809,-1095r-453,0v-183,6,-209,77,-270,233r-35,0r35,-301r1065,0r0,33r-807,1097r467,0xm778,-1300r-299,0r-182,-379r37,0r295,213r295,-213r39,0","w":1260},"\u017e":{"d":"467,-717v-162,0,-297,78,-365,180r-34,0r20,-235r786,0r0,35r-524,682r115,0v201,0,334,-70,397,-211r35,0r-23,266r-823,0r0,-35r522,-682r-106,0xm579,-903r-299,0r-182,-379r37,0r295,213r295,-213r39,0"},"\u00a6":{"d":"473,420r0,-723r133,0r0,723r-133,0xm473,-557r0,-725r133,0r0,725r-133,0","w":1079},"\u00ad":{"d":"139,-473r612,0r0,172r-612,0r0,-172","w":618},"\u00af":{"d":"1042,-1404r0,102r-1058,0r0,-102r1058,0","w":1024},"\u00d0":{"d":"1397,-584v1,363,-266,584,-641,584r-693,0r0,-35v123,-40,152,-41,152,-194r0,-336r-152,0r0,-68r152,0r0,-360v-4,-129,-39,-135,-152,-170r0,-35r613,0v414,-8,719,226,721,614xm1110,-596v0,-316,-167,-536,-475,-534r-156,0r0,497r289,0r0,68r-289,0r0,356v3,116,68,141,195,141v294,0,436,-216,436,-528","w":1473},"\u00f0":{"d":"805,-391v0,-191,-59,-350,-223,-350v-152,0,-228,121,-228,364v0,188,63,346,226,346v170,0,225,-161,225,-360xm98,-387v0,-230,220,-416,457,-416v77,0,150,16,221,49v-15,-103,-44,-196,-86,-278r-215,129r-37,-60r219,-131v-32,-54,-72,-102,-120,-145r65,-43v61,42,113,84,156,127r213,-127r37,59r-201,121v136,154,250,386,254,641v5,310,-180,492,-483,492v-258,0,-480,-172,-480,-418","w":1161},"\u00dd":{"d":"356,-35v108,-17,152,-56,152,-176r0,-350r-311,-477v-55,-77,-73,-110,-170,-125r0,-35r546,0r0,35v-110,5,-100,73,-53,145r207,320r182,-263v62,-85,66,-175,-49,-202r0,-35r371,0r0,35v-62,6,-120,49,-176,129r-283,403r0,428v3,120,43,146,152,168r0,35r-568,0r0,-35xm625,-1667r369,0r-461,344r-35,0","w":1260},"\u00fd":{"d":"997,-772r0,35v-123,37,-129,68,-186,198r-389,889v-77,178,-159,273,-395,252r47,-233v112,37,208,17,278,-60v47,-52,96,-145,146,-278r-283,-596v-55,-111,-72,-140,-188,-172r0,-35r471,0r0,35v-99,18,-80,74,-41,155r164,338r106,-248v27,-63,41,-112,41,-148v0,-52,-31,-84,-92,-97r0,-35r321,0xm569,-1270r369,0r-461,344r-35,0","w":1024},"\u00de":{"d":"213,-995v-2,-119,-43,-147,-150,-168r0,-35r566,0r0,35v-116,26,-149,49,-152,182r0,57r199,0v228,-5,409,112,409,318v0,223,-205,346,-456,346v-39,0,-90,-4,-152,-12r0,69v2,119,43,147,150,168r0,35r-566,0r0,-35v116,-26,152,-49,152,-182r0,-778xm799,-596v0,-144,-84,-261,-221,-260r-101,0r0,516v188,51,322,-63,322,-256","w":1110},"\u00fe":{"d":"186,-1047v-2,-127,-31,-139,-139,-165r0,-35r336,-35r35,0r0,629v87,-100,190,-150,311,-150v212,0,365,188,365,408v0,239,-171,431,-406,426v-136,-3,-172,-41,-270,-113r0,488v3,123,34,137,143,163r0,33r-514,0r0,-35v121,-18,139,-51,139,-194r0,-1420xm838,-371v0,-177,-68,-329,-224,-329v-75,0,-140,34,-196,102r0,461v60,60,123,90,190,90v152,-2,230,-153,230,-324","w":1153},"\u2212":{"d":"137,-606r0,-127r1090,0r0,127r-1090,0","w":1366},"\u00d7":{"d":"590,-659r-408,-408r94,-94r408,407r408,-407r94,94r-408,408r408,407r-94,94r-408,-407r-408,407r-94,-94","w":1368},"\u00b9":{"d":"172,-614v64,-9,74,-17,74,-88r0,-363v0,-23,-6,-35,-17,-35v-24,0,-78,15,-96,13r0,-23v71,-18,149,-58,234,-119r34,0r0,527v2,73,10,72,74,88r0,24r-303,0r0,-24","w":641},"\u00b2":{"d":"338,-1229v111,0,220,71,219,174v0,48,-21,96,-62,145v-41,49,-131,123,-270,222r0,4r346,0r0,94r-505,0r0,-35v217,-155,325,-287,325,-395v0,-70,-42,-125,-108,-125v-68,0,-114,49,-125,111r-39,0v10,-116,94,-195,219,-195","w":641},"\u00b3":{"d":"362,-752v0,-101,-87,-164,-198,-141r0,-24v123,-22,184,-70,184,-144v0,-57,-46,-105,-102,-104v-28,0,-62,17,-103,51r-22,-19v32,-56,109,-96,196,-96v99,0,191,57,191,148v0,63,-48,114,-143,151r0,4v113,23,170,78,170,166v0,116,-119,187,-246,187v-89,0,-158,-30,-209,-89r20,-20v43,35,90,53,142,53v70,1,120,-53,120,-123","w":641},"\u00bd":{"d":"178,-614v64,-9,74,-17,74,-88r0,-363v0,-23,-6,-35,-17,-35v-24,0,-78,15,-96,13r0,-23v71,-18,149,-58,234,-119r34,0r0,527v2,73,10,72,74,88r0,24r-303,0r0,-24xm1156,-1229r134,0r-852,1245r-134,0xm1288,-639v111,0,220,71,219,174v0,48,-21,96,-62,145v-41,49,-131,123,-270,222r0,4r346,0r0,94r-505,0r0,-35v217,-155,325,-287,325,-395v0,-70,-42,-125,-108,-125v-68,0,-114,49,-125,111r-39,0v10,-116,94,-195,219,-195","w":1622},"\u00bc":{"d":"178,-614v64,-9,74,-17,74,-88r0,-363v0,-23,-6,-35,-17,-35v-24,0,-78,15,-96,13r0,-23v71,-18,149,-58,234,-119r34,0r0,527v2,73,10,72,74,88r0,24r-303,0r0,-24xm1156,-1229r134,0r-852,1245r-134,0xm1491,-147r-139,0r0,159r-148,0r0,-159r-256,0r0,-29r369,-463r35,0r0,424r139,0r0,68xm1204,-404r-141,189r141,0r0,-189","w":1622},"\u00be":{"d":"362,-752v0,-101,-87,-164,-198,-141r0,-24v123,-22,184,-70,184,-144v0,-57,-46,-105,-102,-104v-28,0,-62,17,-103,51r-22,-19v32,-56,109,-96,196,-96v99,0,191,57,191,148v0,63,-48,114,-143,151r0,4v113,23,170,78,170,166v0,116,-119,187,-246,187v-89,0,-158,-30,-209,-89r20,-20v43,35,90,53,142,53v70,1,120,-53,120,-123xm1150,-1229r134,0r-852,1245r-134,0xm1485,-147r-139,0r0,159r-148,0r0,-159r-256,0r0,-29r369,-463r35,0r0,424r139,0r0,68xm1198,-404r-141,189r141,0r0,-189","w":1622},"\uf003":{"d":"567,-737r-139,0r0,159r-148,0r0,-159r-256,0r0,-29r369,-463r35,0r0,424r139,0r0,68xm280,-994r-141,189r141,0r0,-189","w":641},"\u00a4":{"d":"1024,-664v0,-176,-150,-323,-326,-323v-175,0,-323,148,-323,323v0,176,147,326,323,326v177,0,326,-149,326,-326xm1061,-934v56,88,88,146,88,270v0,104,-30,194,-90,271r129,129r-90,90r-127,-127v-168,119,-379,121,-543,0r-127,127r-90,-90r127,-127v-122,-153,-123,-395,0,-543r-127,-127r90,-90r127,127v153,-121,382,-119,543,0r127,-127r90,90","w":1401}}});
